{"learner":{"attributes":{"best_iteration":"9","best_ntree_limit":"10","best_score":"0.946176"},"feature_names":["lep1pt","lep2pt","lep1eta","lep2eta","lep1phi","lep2phi","drll","lep1_charge","lep2_charge","ptll","ptVlep","yVlep","mll","phiVlep","mT","mT2","PuppiMET_T1Smear_pt","PuppiMET_T1Smear_phi","photonet","photoneta","drl1a","drl2a","n_bjets20_medium"],"feature_types":["float","float","float","float","float","float","float","int","int","float","float","float","float","float","float","float","float","float","float","float","float","float","int"],"gradient_booster":{"model":{"gbtree_model_param":{"num_trees":"10","size_leaf_vector":"0"},"tree_info":[0,0,0,0,0,0,0,0,0,0],"trees":[{"base_weights":[-5.203742E-1,1.0451852E-1,-8.493737E-1,1.6804834E-1,-2.2498229E0,-9.836781E-1,4.8108166E-1,9.972798E-1,1.9543292E-2,-2.4740741E0,-8.832308E-1,-1.7982544E0,7.09028E-1,1.2132651E0,-1.4181846E0,-1.8040333E0,1.2084643E-1,-2.5446064E0,-5.114958E-1,-1.1254404E0,-4.3401575E-1,1.0865397E0,-5.8682436E-1,1.3507874E0,3.076E-1,-1.9344131E0,-4.3787783E-1,2.247544E-1,-1.5995004E0,7.162211E-1,-1.199679E0,3.2359436E-1,-8.748438E-1,1.2282565E0,-1.325358E0,5.6216E-1,-2.0633757E0,-6.7587197E-1,1.4461615E0,-1.4309288E0,1.0496957E0,-4.6223834E-1,4.9776384E-1,-2.361601E0,1.103372E0,-1.6473243E0,1.3215104E0,-9.874909E-1,-2.0288115E0,-1.2018555E0,5.8111405E-1,2.7434984E-2,-1.4527901E0,-4.6244118E-1,1.3746388E0,1.2946332E0,-1.4309288E0],"categories":[],"categories_nodes":[],"categories_segments":[],"categories_sizes":[],"default_left":[true,true,true,true,false,true,true,true,true,true,true,false,true,true,false,true,true,false,false,true,true,true,true,true,true,false,false,true,true,true,true,true,true,true,false,true,false,false,false,false,false,false,false,false,false,false,false,false,false,false,false,false,false,false,false,false,false],"id":0,"left_children":[1,3,5,7,-1,9,11,13,15,17,19,-1,21,23,-1,25,27,-1,-1,29,31,33,35,37,39,-1,-1,41,43,45,47,49,51,53,-1,55,-1,-1,-1,-1,-1,-1,-1,-1,-1,-1,-1,-1,-1,-1,-1,-1,-1,-1,-1,-1,-1],"loss_changes":[1.4861919E2,3.7781105E1,8.506183E1,3.0080715E1,0E0,6.2235718E1,2.4175995E1,2.1078728E1,3.8702427E1,2.38266E0,4.3544586E1,0E0,2.0590637E1,3.893753E0,0E0,1.116993E0,3.58066E1,0E0,0E0,3.6722076E1,4.817395E1,1.2543877E1,1.7872345E1,6.7264404E0,9.05718E0,0E0,0E0,3.5467804E1,2.6125263E1,1.7613588E1,4.2421814E1,2.1705645E1,4.745179E1,8.229336E0,0E0,1.1087534E1,0E0,0E0,0E0,0E0,0E0,0E0,0E0,0E0,0E0,0E0,0E0,0E0,0E0,0E0,0E0,0E0,0E0,0E0,0E0,0E0,0E0],"parents":[2147483647,0,0,1,1,2,2,3,3,5,5,6,6,7,7,8,8,9,9,10,10,12,12,13,13,15,15,16,16,19,19,20,20,21,21,22,22,23,23,24,24,27,27,28,28,29,29,30,30,31,31,32,32,33,33,35,35],"right_children":[2,4,6,8,-1,10,12,14,16,18,20,-1,22,24,-1,26,28,-1,-1,30,32,34,36,38,40,-1,-1,42,44,46,48,50,52,54,-1,56,-1,-1,-1,-1,-1,-1,-1,-1,-1,-1,-1,-1,-1,-1,-1,-1,-1,-1,-1,-1,-1],"split_conditions":[1.588063E0,9.290231E1,2.9272217E2,6.1558807E-1,-6.749469E-1,2.1943182E1,2.1570535E0,1.3255687E0,6.499749E-1,1.4196698E2,7.894381E-1,-5.3947634E-1,3.6213822E0,1.4141846E0,-4.2545542E-1,7.7892334E1,1.219424E2,-7.6338196E-1,-1.5344876E-1,6.736156E-1,1.4919205E0,6.397646E2,-1.5928955E0,-1.8737649E0,2.0784912E0,-5.8032393E-1,-1.3136336E-1,5.057367E1,2.689676E2,6.449646E1,7.860349E1,-1.1318359E0,3.634825E1,3.0133888E1,-3.9760742E-1,3.1801443E0,-6.190127E-1,-2.027616E-1,4.3384847E-1,-4.2927867E-1,3.1490874E-1,-1.386715E-1,1.4932916E-1,-7.0848036E-1,3.310116E-1,-4.941973E-1,3.9645314E-1,-2.9624727E-1,-6.086435E-1,-3.6055666E-1,1.7433423E-1,8.230495E-3,-4.3583706E-1,-1.3873236E-1,4.1239166E-1,3.8838997E-1,-4.2927867E-1],"split_indices":[20,18,12,20,0,16,20,11,20,0,13,0,6,5,0,0,16,0,0,6,13,12,2,11,5,0,0,16,1,15,16,2,1,16,0,20,0,0,0,0,0,0,0,0,0,0,0,0,0,0,0,0,0,0,0,0,0],"split_type":[0,0,0,0,0,0,0,0,0,0,0,0,0,0,0,0,0,0,0,0,0,0,0,0,0,0,0,0,0,0,0,0,0,0,0,0,0,0,0,0,0,0,0,0,0,0,0,0,0,0,0,0,0,0,0,0,0],"sum_hessian":[7.2146136E2,2.4906892E2,4.7239246E2,2.4342883E2,5.640089E0,4.2931534E2,4.3077106E1,3.610547E1,2.0732336E2,2.5615303E1,4.0370004E2,3.290001E0,3.9787106E1,3.3598846E1,2.5066211E0,1.00264845E1,1.9729689E2,2.4440386E1,1.1749165E0,2.6130386E2,1.4239618E2,3.0936201E1,8.850904E0,2.8742851E1,4.8559947E0,8.773251E0,1.253234E0,1.8687886E2,1.0418021E1,9.790103E0,2.5151376E2,5.2476185E1,8.991999E1,2.9682865E1,1.2533361E0,5.325849E0,3.5250556E0,1.0182813E0,2.772457E1,1.1750185E0,3.6809764E0,5.2948284E1,1.3393059E2,8.22513E0,2.1928916E0,1.645026E0,8.145078E0,2.0200778E2,4.9505985E1,7.049652E0,4.5426533E1,3.5480713E1,5.4439278E1,2.193147E0,2.748972E1,4.1508307E0,1.1750185E0],"tree_param":{"num_deleted":"0","num_feature":"23","num_nodes":"57","size_leaf_vector":"0"}},{"base_weights":[-3.579068E-1,7.5425245E-2,-5.744216E-1,1.3029363E0,-1.2344825E-2,-1.692791E0,-5.003288E-1,1.4778317E0,-6.5967226E-1,5.23708E-1,-2.4222353E-1,-1.7486751E0,-2.138934E-1,-5.9003246E-1,4.8494893E-1,6.776815E-1,-7.4484086E-1,-2.1092854E0,-1.3794084E-1,1.9382149E-1,-6.9626445E-1,7.9332393E-1,-4.8234272E-1,8.237153E-1,-8.4860516E-1,-1.150742E0,8.9983785E-1,6.9481987E-1,-3.4247622E-1,5.6327325E-1,-1.4598235E0,-1.4638472E0,-5.634498E-1,-1.1512408E0,9.6256924E-1,5.6670517E-1,-1.537868E0,1.0159094E-1,1.035678E0,-1.6593505E0,9.5832217E-1,-1.4230049E0,-5.9517604E-1,9.846871E-1,-1.6656007E0,-1.6410002E0,-1.2535694E-1,-1.3509797E0,9.6502525E-1,5.436381E-1,-1.9236851E0,-1.6699113E0,1.0558459E0,4.6890903E-2,-7.0081836E-1,1.1039212E0,-1.0600668E0,9.375797E-1,-5.752555E-1],"categories":[],"categories_nodes":[],"categories_segments":[],"categories_sizes":[],"default_left":[true,true,true,true,true,true,true,false,false,true,true,false,false,true,true,true,true,false,true,true,true,true,true,true,true,true,false,true,true,true,true,true,true,false,true,true,false,false,false,false,false,false,false,false,false,false,false,false,false,false,false,false,false,false,false,false,false,false,false],"id":1,"left_children":[1,3,5,7,9,11,13,-1,-1,15,17,-1,-1,19,21,23,25,-1,27,29,31,33,35,37,39,41,-1,43,45,47,49,51,53,-1,55,57,-1,-1,-1,-1,-1,-1,-1,-1,-1,-1,-1,-1,-1,-1,-1,-1,-1,-1,-1,-1,-1,-1,-1],"loss_changes":[6.8326904E1,2.6236317E1,3.9376816E1,6.5525875E0,2.8237309E1,2.0840454E0,4.0649086E1,0E0,0E0,1.3939373E1,3.092712E1,0E0,0E0,3.5027313E1,1.1913749E1,1.44869995E1,6.3235545E0,0E0,2.6285658E1,3.1853846E1,3.6816986E1,1.087961E1,1.190774E1,8.614166E0,1.0225305E1,1.80439E-1,0E0,2.2497684E1,3.4596718E1,3.3787766E1,9.924669E0,2.9717056E1,2.65598E1,0E0,9.134958E0,2.9659176E0,0E0,0E0,0E0,0E0,0E0,0E0,0E0,0E0,0E0,0E0,0E0,0E0,0E0,0E0,0E0,0E0,0E0,0E0,0E0,0E0,0E0,0E0,0E0],"parents":[2147483647,0,0,1,1,2,2,3,3,4,4,5,5,6,6,9,9,10,10,13,13,14,14,15,15,16,16,18,18,19,19,20,20,21,21,22,22,23,23,24,24,25,25,27,27,28,28,29,29,30,30,31,31,32,32,34,34,35,35],"right_children":[2,4,6,8,10,12,14,-1,-1,16,18,-1,-1,20,22,24,26,-1,28,30,32,34,36,38,40,42,-1,44,46,48,50,52,54,-1,56,58,-1,-1,-1,-1,-1,-1,-1,-1,-1,-1,-1,-1,-1,-1,-1,-1,-1,-1,-1,-1,-1,-1,-1],"split_conditions":[1.588063E0,7.051277E-1,2.1943182E1,4.9909613E-1,7.185278E-1,1.3968935E2,2.9272217E2,4.4334954E-1,-1.9790168E-1,3.6518955E0,2.4635656E1,-5.2460253E-1,-6.416802E-2,3.849298E1,3.5528631E0,9.855957E-1,-4.0290833E-2,-6.327856E-1,3.0130802E1,1.6757812E0,7.6033745E1,2.0723567E0,-1.5928955E0,-1.295044E0,2.088623E0,1.0399211E2,2.6995137E-1,2.4645002E0,8.617348E1,7.148515E1,1.7568781E0,2.529173E0,-1.4477539E0,-3.4537226E-1,6.397646E2,7.8327835E1,-4.6136042E-1,3.0477284E-2,3.1070343E-1,-4.9780518E-1,2.8749666E-1,-4.269015E-1,-1.7855282E-1,2.9540613E-1,-4.9968022E-1,-4.9230006E-1,-3.7607085E-2,-4.052939E-1,2.895076E-1,1.6309144E-1,-5.771055E-1,-5.009734E-1,3.1675377E-1,1.4067272E-2,-2.1024552E-1,3.3117637E-1,-3.1802005E-1,2.8127393E-1,-1.7257667E-1],"split_indices":[20,21,16,13,20,9,12,0,0,21,0,0,0,9,6,2,2,0,0,5,14,20,2,2,19,15,0,6,12,12,6,11,2,0,12,9,0,0,0,0,0,0,0,0,0,0,0,0,0,0,0,0,0,0,0,0,0,0,0],"split_type":[0,0,0,0,0,0,0,0,0,0,0,0,0,0,0,0,0,0,0,0,0,0,0,0,0,0,0,0,0,0,0,0,0,0,0,0,0,0,0,0,0,0,0,0,0,0,0,0,0,0,0,0,0,0,0,0,0,0,0],"sum_hessian":[7.267929E2,2.4236867E2,4.8442422E2,1.5249627E1,2.2711903E2,2.8741922E1,4.556823E2,1.4228664E1,1.0209628E0,6.778152E1,1.5933752E2,2.7519604E1,1.2223198E0,4.180248E2,3.7657513E1,6.0860226E1,6.921291E0,7.4117656E0,1.5192575E2,4.9792976E1,3.682318E2,2.8690699E1,8.966816E0,5.5965782E1,4.894444E0,5.7921352E0,1.1291555E0,2.948426E1,1.224415E2,4.12389E1,8.55408E0,5.283839E1,3.1539343E2,1.8326011E0,2.6858097E1,4.7294726E0,4.237344E0,1.3035417E1,4.2930367E1,3.4349144E0,1.4595296E0,2.839325E0,2.9528105E0,2.6778597E1,2.7056634E0,1.6600561E1,1.05840935E2,6.7437606E0,3.4495136E1,1.5758505E0,6.9782295E0,4.9155632E1,3.682761E0,5.806484E1,2.5732858E2,2.552827E1,1.3298267E0,3.705131E0,1.0243415E0],"tree_param":{"num_deleted":"0","num_feature":"23","num_nodes":"59","size_leaf_vector":"0"}},{"base_weights":[-2.5663984E-1,-1.5409861E0,-2.0641564E-1,-1.6168931E-1,-1.4794339E0,-6.4191386E-2,-6.847831E-1,-1.717273E0,3.2939044E-1,-5.638418E-1,3.0747117E-2,-4.5871615E-2,-1.1458149E0,-2.0111237E-1,7.2648835E-1,-1.0463849E0,1.3477942E-1,2.736221E-1,-2.114716E-1,-1.7788372E0,4.5627007E-1,-1.707298E-1,-1.5021708E0,-1.5447971E-2,-1.5333986E0,6.470928E-1,-9.932688E-1,5.072745E-1,-1.3196668E-1,-1.5076131E0,-1.0109244E-1,-1.5954412E0,7.7870077E-1,-1.5899503E0,2.8634813E-1,-1.722916E0,-6.5480286E-1],"categories":[],"categories_nodes":[],"categories_segments":[],"categories_sizes":[],"default_left":[true,false,true,true,true,true,true,false,true,true,true,true,true,false,false,true,true,true,true,false,true,true,true,false,false,false,false,false,false,false,false,false,false,false,false,false,false],"id":2,"left_children":[1,-1,3,5,7,9,11,-1,13,15,17,19,21,-1,-1,23,25,27,29,-1,31,33,35,-1,-1,-1,-1,-1,-1,-1,-1,-1,-1,-1,-1,-1,-1],"loss_changes":[4.5632645E1,0E0,3.885988E1,3.3846806E1,1.0540081E1,2.6639502E1,3.0668545E1,0E0,8.9044803E-1,3.0367598E1,2.7858006E1,3.975825E1,2.0779541E1,0E0,0E0,2.6660198E1,2.2323692E1,2.2469442E1,3.3777863E1,0E0,2.4724949E1,1.16980295E1,7.141014E0,0E0,0E0,0E0,0E0,0E0,0E0,0E0,0E0,0E0,0E0,0E0,0E0,0E0,0E0],"parents":[2147483647,0,0,2,2,3,3,4,4,5,5,6,6,8,8,9,9,10,10,11,11,12,12,15,15,16,16,17,17,18,18,20,20,21,21,22,22],"right_children":[2,-1,4,6,8,10,12,-1,14,16,18,20,22,-1,-1,24,26,28,30,-1,32,34,36,-1,-1,-1,-1,-1,-1,-1,-1,-1,-1,-1,-1,-1,-1],"split_conditions":[2.040778E1,-4.6229583E-1,1.7092152E2,3.0476665E0,2.4446E0,7.6041374E1,-4.9383545E-1,-5.151819E-1,1.9970763E2,9.99591E-1,-2.9577637E-1,2.9983202E1,-1.1746826E0,-6.0333714E-2,2.1794651E-1,2.5359558E1,1.4324951E0,8.4690414E1,-4.3293E-2,-5.336512E-1,6.637204E1,-1.6278555E0,2.3703613E0,-4.6343915E-3,-4.6001962E-1,1.9412786E-1,-2.9798064E-1,1.5218236E-1,-3.9590005E-2,-4.5228395E-1,-3.0327734E-2,-4.786324E-1,2.3361024E-1,-4.7698513E-1,8.590444E-2,-5.1687485E-1,-1.9644086E-1],"split_indices":[16,0,16,20,17,14,3,0,0,13,2,18,19,0,0,18,5,15,2,0,12,13,2,0,0,0,0,0,0,0,0,0,0,0,0,0,0],"split_type":[0,0,0,0,0,0,0,0,0,0,0,0,0,0,0,0,0,0,0,0,0,0,0,0,0,0,0,0,0,0,0,0,0,0,0,0,0],"sum_hessian":[7.1135614E2,2.56536E1,6.857026E2,6.635175E2,2.2185068E1,5.6022205E2,1.0329543E2,1.9651712E1,2.5333557E0,8.86625E1,4.7155957E2,4.375624E1,5.9539196E1,1.2957901E0,1.2375656E0,5.214663E1,3.6515873E1,2.3539607E2,2.3616348E2,9.259125E0,3.4497116E1,1.6331352E1,4.3207844E1,1.7061544E1,3.5085083E1,2.5404531E1,1.111134E1,1.4919614E2,8.6199936E1,1.7539944E1,2.1862355E2,4.1488338E0,3.0348282E1,3.374638E0,1.2956714E1,3.345843E1,9.749411E0],"tree_param":{"num_deleted":"0","num_feature":"23","num_nodes":"37","size_leaf_vector":"0"}},{"base_weights":[-1.9271453E-1,-1.3299485E0,-1.5415181E-1,-2.2008258E-1,5.0454926E-1,-1.5928186E-1,-1.222698E0,-2.5080907E-1,7.291737E-1,8.0811346E-1,-2.1005978E-1,7.3675996E-1,-1.4060435E0,5.744041E-1,-1.0274479E0,8.14282E-1,-1.1669147E0,1.0788699E0,-6.7157143E-1,2.8756255E-1,-3.30492E-1,1.0118265E0,2.8476011E-2,-8.016173E-3,-1.5583115E0,-8.3428276E-1,9.367703E-1,5.8588845E-1,-1.7309793E0,9.9947524E-1,1.2157977E-1,1.7307343E-2,1.1716212E0,8.1179357E-1,-1.3796608E0,6.2143844E-1,-3.0075365E-1,-2.6011255E-1,-1.2281454E0,-9.513047E-1,9.266219E-1,1.1257542E0,-5.29101E-2,6.4388484E-2,8.072241E-1,4.842745E-1,1.2739146E0,-1.1707143E0,7.46212E-1],"categories":[],"categories_nodes":[],"categories_segments":[],"categories_sizes":[],"default_left":[true,false,true,true,true,true,true,true,true,true,true,true,true,true,true,true,false,true,true,true,true,false,false,true,false,false,true,true,false,true,true,false,false,false,false,false,false,false,false,false,false,false,false,false,false,false,false,false,false],"id":3,"left_children":[1,-1,3,5,7,9,11,13,15,17,19,21,23,25,27,29,-1,31,33,35,37,-1,-1,39,-1,-1,41,43,-1,45,47,-1,-1,-1,-1,-1,-1,-1,-1,-1,-1,-1,-1,-1,-1,-1,-1,-1,-1],"loss_changes":[3.0227406E1,0E0,2.9308464E1,3.7102467E1,1.0613257E1,2.8562551E1,1.3549492E1,1.0097577E1,8.63785E0,1.2355825E1,3.305459E1,6.796675E-1,6.8410683E0,4.7803802E0,1.0095359E1,5.8028374E0,0E0,2.4338856E0,6.484173E0,2.1341858E1,2.76847E1,0E0,0E0,4.555571E0,0E0,0E0,1.3130708E0,3.1469035E-1,0E0,4.515732E0,9.656489E0,0E0,0E0,0E0,0E0,0E0,0E0,0E0,0E0,0E0,0E0,0E0,0E0,0E0,0E0,0E0,0E0,0E0,0E0],"parents":[2147483647,0,0,2,2,3,3,4,4,5,5,6,6,7,7,8,8,9,9,10,10,11,11,12,12,13,13,14,14,15,15,17,17,18,18,19,19,20,20,23,23,26,26,27,27,29,29,30,30],"right_children":[2,-1,4,6,8,10,12,14,16,18,20,22,24,26,28,30,-1,32,34,36,38,-1,-1,40,-1,-1,42,44,-1,46,48,-1,-1,-1,-1,-1,-1,-1,-1,-1,-1,-1,-1,-1,-1,-1,-1,-1,-1],"split_conditions":[2.040778E1,-3.9898458E-1,2.971742E2,1.274605E2,1.0347092E2,6.8539876E-1,-2.8287182E0,-1.5928955E0,1.7987193E2,1.5887451E0,1.1125455E0,2.7827703E1,-1.8959961E0,5.360853E1,5.770878E1,3.5784912E-1,-3.500744E-1,-2.504201E0,2.3134977E1,2.7014558E0,1.132856E2,3.0354798E-1,8.542804E-3,1.0008035E2,-4.6749344E-1,-2.5028485E-1,4.5869482E2,1.11574905E2,-5.1929384E-1,-1.4029908E-1,5.5269802E1,5.192203E-3,3.5148638E-1,2.4353808E-1,-4.1389826E-1,1.8643154E-1,-9.02261E-2,-7.803377E-2,-3.684436E-1,-2.8539142E-1,2.779866E-1,3.377263E-1,-1.5873032E-2,1.9316547E-2,2.4216723E-1,1.4528236E-1,3.821744E-1,-3.512143E-1,2.2386362E-1],"split_indices":[16,0,12,16,1,21,17,2,9,5,20,0,3,1,9,3,0,17,0,6,15,0,0,9,0,0,12,0,0,17,18,0,0,0,0,0,0,0,0,0,0,0,0,0,0,0,0,0,0],"split_type":[0,0,0,0,0,0,0,0,0,0,0,0,0,0,0,0,0,0,0,0,0,0,0,0,0,0,0,0,0,0,0,0,0,0,0,0,0,0,0,0,0,0,0,0,0,0,0,0,0],"sum_hessian":[6.929355E2,2.162796E1,6.713075E2,6.108338E2,6.047375E1,5.77002E2,3.3831753E1,1.3834631E1,4.663912E1,2.8032185E1,5.4896985E2,2.6364918E0,3.119526E1,6.8338065E0,7.0008245E0,4.5181633E1,1.457486E0,2.3925175E1,4.10701E0,1.0670016E2,4.4226968E2,1.5903203E0,1.0461715E0,3.1673465E0,2.8027914E1,1.1317697E0,5.702037E0,2.1766205E0,4.824204E0,3.5301064E1,9.88057E0,2.017778E0,2.1907398E1,1.2797099E0,2.8272998E0,6.8033875E1,3.8666275E1,4.113111E2,3.095858E1,1.5675032E0,1.5998431E0,4.67234E0,1.0296971E0,1.0331867E0,1.1434338E0,1.3229717E1,2.2071346E1,2.934719E0,6.945851E0],"tree_param":{"num_deleted":"0","num_feature":"23","num_nodes":"49","size_leaf_vector":"0"}},{"base_weights":[-1.4100711E-1,-1.2012966E0,-1.10716246E-1,3.7795916E-1,-1.6620524E-1,1.000709E0,1.6803075E-1,2.911813E-1,-2.3611403E-1,1.2197721E0,-1.0029349E0,1.0409752E0,-5.9419338E-2,5.411641E-1,-4.4193906E-1,5.043394E-1,-3.0504975E-1,1.816146E-2,1.3046076E0,-6.417375E-1,1.2817949E0,2.5884876E-1,-8.3795446E-1,6.6511494E-1,-1.1301967E0,5.7552314E-1,-1.2535802E0,-7.307665E-2,1.1226473E0,-4.423433E-1,-5.907025E-3,-1.7042623E0,4.5707455E-1,6.17825E-1,-1.2564596E0,8.655447E-1,-5.141279E-1,-1.4143548E0,-2.0134018E-1,-6.148651E-1,8.96117E-1,-1.4493775E0,2.7590576E-1,9.0493476E-1,-1.0193001E0,1.2837503E0,-8.8673526E-1,-1.010712E0,-2.631866E-1,6.515568E-1,-2.7494067E-1],"categories":[],"categories_nodes":[],"categories_segments":[],"categories_sizes":[],"default_left":[true,false,true,true,true,true,true,true,true,true,false,true,true,true,true,true,true,false,false,false,false,true,true,true,true,true,true,true,true,true,true,false,false,false,false,false,false,false,false,false,false,false,false,false,false,false,false,false,false,false,false],"id":4,"left_children":[1,-1,3,5,7,9,11,13,15,17,-1,19,21,23,25,27,29,-1,-1,-1,-1,31,33,35,37,39,41,43,45,47,49,-1,-1,-1,-1,-1,-1,-1,-1,-1,-1,-1,-1,-1,-1,-1,-1,-1,-1,-1,-1],"loss_changes":[2.1424938E1,0E0,1.7788292E1,8.586073E0,1.8861464E1,8.544743E0,1.024403E1,1.4601534E1,2.6204351E1,1.5550976E0,0E0,5.1398964E0,1.0531697E1,1.2951843E1,1.7632421E1,1.57352705E1,1.9198315E1,0E0,0E0,0E0,0E0,1.2574845E1,8.279586E0,1.3551868E1,8.861737E-1,4.2803535E0,3.9054031E0,2.2772055E1,8.011978E0,3.2362415E1,2.6372065E1,0E0,0E0,0E0,0E0,0E0,0E0,0E0,0E0,0E0,0E0,0E0,0E0,0E0,0E0,0E0,0E0,0E0,0E0,0E0,0E0],"parents":[2147483647,0,0,2,2,3,3,4,4,5,5,6,6,7,7,8,8,9,9,11,11,12,12,13,13,14,14,15,15,16,16,21,21,22,22,23,23,24,24,25,25,26,26,27,27,28,28,29,29,30,30],"right_children":[2,-1,4,6,8,10,12,14,16,18,-1,20,22,24,26,28,30,-1,-1,-1,-1,32,34,36,38,40,42,44,46,48,50,-1,-1,-1,-1,-1,-1,-1,-1,-1,-1,-1,-1,-1,-1,-1,-1,-1,-1,-1,-1],"split_conditions":[2.040778E1,-3.60389E-1,7.66696E-1,4.271865E1,1.0840967E0,1.4085126E2,-1.7072754E0,1.3630676E-1,-2.7829523E0,2.9455976E1,-3.008805E-1,5.6092552E1,0E0,6.1114536E1,6.8539876E-1,2.677795E0,8.584595E-1,5.448438E-3,3.913823E-1,-1.9252126E-1,3.845385E-1,-1.9742432E0,2.1394207E1,1.7102051E0,1.1913411E2,7.6898193E-1,2.5888672E0,2.8048485E1,3.2311306E0,3.4645126E1,6.469643E1,-5.112787E-1,1.3712238E-1,1.853475E-1,-3.769379E-1,2.596634E-1,-1.5423837E-1,-4.2430645E-1,-6.0402058E-2,-1.8445954E-1,2.688351E-1,-4.348133E-1,8.277173E-2,2.7148044E-1,-3.0579004E-1,3.851251E-1,-2.660206E-1,-3.0321363E-1,-7.8955986E-2,1.9546704E-1,-8.2482204E-2],"split_indices":[16,0,20,15,21,0,19,3,17,0,0,1,7,18,21,20,19,0,0,0,0,4,18,5,14,2,5,0,20,0,12,0,0,0,0,0,0,0,0,0,0,0,0,0,0,0,0,0,0,0,0],"split_type":[0,0,0,0,0,0,0,0,0,0,0,0,0,0,0,0,0,0,0,0,0,0,0,0,0,0,0,0,0,0,0,0,0,0,0,0,0,0,0,0,0,0,0,0,0,0,0,0,0,0,0],"sum_hessian":[6.702298E2,1.7541882E1,6.526879E2,6.5962654E1,5.867253E2,1.5680308E1,5.0282345E1,7.736836E1,5.093569E2,1.4487573E1,1.1927361E0,9.653991E0,4.0628353E1,5.789044E1,1.9477919E1,4.2844025E1,4.6651288E2,1.0354558E0,1.3452117E1,1.0002189E0,8.653772E0,2.9312721E1,1.1315632E1,5.445409E1,3.4363525E0,8.772166E0,1.0705752E1,2.2610596E1,2.0233429E1,3.1942978E2,1.4708311E2,1.991592E0,2.7321129E1,2.4202995E0,8.895332E0,4.6770733E1,7.683359E0,2.2311192E0,1.2052333E0,1.6664863E0,7.10568E0,9.537221E0,1.1685319E0,1.1139994E1,1.1470602E1,1.9065933E1,1.1674964E0,7.544415E1,2.4398561E2,4.2296696E1,1.04786415E2],"tree_param":{"num_deleted":"0","num_feature":"23","num_nodes":"51","size_leaf_vector":"0"}},{"base_weights":[-1.0309167E-1,-1.5240368E-1,4.4562694E-1,-1.0790733E-1,-1.0324411E0,5.3346556E-1,-1.0098813E0,-7.665292E-2,-1.1751658E0,5.549002E-1,-1.190795E0,-1.0980498E0,6.1117554E-1,-1.1980828E0,-4.829419E-2,4.687215E-1,-1.6038753E0,3.639358E-2,7.822764E-1,-1.9286742E-2,-1.3249146E0,-7.8118926E-1,6.75998E-1,8.6404085E-1,-1.5218636E0,-6.1002636E-1,2.6679456E-3,-3.9638323E-1,8.9798206E-1,-8.142417E-1,7.8991544E-1,-1.3543631E0,-3.4838575E-1,8.972518E-1,2.3185618E-1,-1.6463677E0,-5.7018965E-1,-9.117495E-1,3.8145444E-1,3.734615E-1,-7.6992296E-2,1.0076423E0,-4.547586E-1,-1.020269E0,5.9199286E-1],"categories":[],"categories_nodes":[],"categories_segments":[],"categories_sizes":[],"default_left":[true,true,true,true,true,true,false,true,true,true,true,false,true,true,true,true,false,false,false,true,true,false,true,false,true,true,true,false,false,false,false,false,false,true,true,false,false,false,false,false,false,false,false,false,false],"id":5,"left_children":[1,3,5,7,9,11,-1,13,15,17,19,-1,21,23,25,27,-1,-1,-1,29,31,-1,33,-1,35,37,39,-1,-1,-1,-1,-1,-1,41,43,-1,-1,-1,-1,-1,-1,-1,-1,-1,-1],"loss_changes":[1.767822E1,2.3301636E1,7.4324217E0,1.8931337E1,7.8646755E0,7.201248E0,0E0,1.759533E1,1.2136734E1,3.5844934E-1,4.1189613E0,0E0,5.0234337E0,1.0428019E1,1.5530157E1,1.8842108E0,0E0,0E0,0E0,3.0390093E0,2.0835876E-1,0E0,4.5212994E0,0E0,5.019245E-1,1.3846493E1,1.4747855E1,0E0,0E0,0E0,0E0,0E0,0E0,5.2007065E0,8.42834E0,0E0,0E0,0E0,0E0,0E0,0E0,0E0,0E0,0E0,0E0],"parents":[2147483647,0,0,1,1,2,2,3,3,4,4,5,5,7,7,8,8,9,9,10,10,12,12,13,13,14,14,15,15,19,19,20,20,22,22,24,24,25,25,26,26,33,33,34,34],"right_children":[2,4,6,8,10,12,-1,14,16,18,20,-1,22,24,26,28,-1,-1,-1,30,32,-1,34,-1,36,38,40,-1,-1,-1,-1,-1,-1,42,44,-1,-1,-1,-1,-1,-1,-1,-1,-1,-1],"split_conditions":[3.0147482E2,1.274605E2,6.397646E2,2.4080066E2,-2.8287182E0,2.1605562E1,-3.029644E-1,-2.0507812E0,4.6318657E1,1.5399731E0,-1.8959961E0,-3.2941493E-1,5.3654564E1,2.0915218E1,6.657321E1,1.1817641E2,-4.811626E-1,1.0918074E-2,2.3468293E-1,1.0008035E2,3.4471521E0,-2.3435679E-1,1.3796378E2,2.5921226E-1,2.909368E0,2.1237793E0,-2.2197266E0,-1.1891497E-1,2.6939464E-1,-2.4427252E-1,2.3697464E-1,-4.0630895E-1,-1.0451573E-1,2.4587402E0,3.5439606E2,-4.939103E-1,-1.710569E-1,-2.7352485E-1,1.14436336E-1,1.12038456E-1,-2.309769E-2,3.022927E-1,-1.364276E-1,-3.0608073E-1,1.7759787E-1],"split_indices":[12,16,12,12,17,18,0,19,9,11,3,0,1,18,14,0,0,0,0,9,6,0,0,0,13,4,5,0,0,0,0,0,0,4,12,0,0,0,0,0,0,0,0,0,0],"split_type":[0,0,0,0,0,0,0,0,0,0,0,0,0,0,0,0,0,0,0,0,0,0,0,0,0,0,0,0,0,0,0,0,0,0,0,0,0,0,0,0,0,0,0,0,0],"sum_hessian":[6.498254E2,5.969052E2,5.2920174E1,5.6924567E2,2.7659517E1,5.0505684E1,2.4144883E0,5.5409106E2,1.5154605E1,2.2818675E0,2.5377651E1,1.6992818E0,4.88064E1,1.26489315E1,5.4144214E2,3.1153734E0,1.2039231E1,1.0492426E0,1.2326249E0,2.7243967E0,2.2653254E1,1.6795251E0,4.7126877E1,1.490094E0,1.1158837E1,4.412312E1,4.9731903E2,1.0585761E0,2.0567973E0,1.3711551E0,1.3532416E0,2.1614525E1,1.0387288E0,3.0775536E1,1.6351341E1,9.222342E0,1.9364957E0,3.3890213E1,1.0232904E1,8.729585E1,4.1002316E2,2.86879E1,2.087635E0,3.243012E0,1.3108329E1],"tree_param":{"num_deleted":"0","num_feature":"23","num_nodes":"45","size_leaf_vector":"0"}},{"base_weights":[-7.820627E-2,-1.097837E0,-5.4873336E-2,-4.566639E-3,-5.095972E-1,-1.2503879E-1,2.0739266E-1,-8.742881E-1,8.122776E-2,5.5011153E-2,-5.983564E-1,3.301453E-1,-7.094372E-1,-6.339236E-2,-1.3611118E0,-4.224629E-1,8.434911E-1,-1.1486917E-1,4.910249E-1,-1.6491864E-2,-1.0684854E0,-1.1949939E-1,5.965597E-1,9.426159E-2,-1.1865005E0,6.48016E-1,-7.704345E-1,-1.4988955E0,8.602414E-1,7.206211E-1,-9.962314E-1,1.0841604E0,-3.6467952E-1,1.5912719E-1,-5.693792E-1,-7.369288E-1,6.915716E-1,5.836747E-1,-6.485247E-1,7.4655336E-1,-1.2752416E0,-1.3362514E0,3.497967E-1,8.514606E-1,1.7067164E-1,-6.731281E-1,1.120229E0,-1.2995813E0,-2.818717E-1,-6.361027E-1,1.2142408E0,7.093197E-1,-1.2326137E0,-1.554422E0,-2.1295737E-1,9.3072444E-1,1.9261397E-2,7.6031834E-1,-1.3082458E0,1.6290545E-1,1.1891087E0],"categories":[],"categories_nodes":[],"categories_segments":[],"categories_sizes":[],"default_left":[true,false,true,true,true,true,true,true,true,true,true,true,true,true,true,true,true,true,true,true,true,true,true,true,true,true,true,true,false,true,true,true,false,false,false,false,false,false,false,false,false,false,false,false,false,false,false,false,false,false,false,false,false,false,false,false,false,false,false,false,false],"id":6,"left_children":[1,-1,3,5,7,9,11,13,15,17,19,21,23,25,27,29,31,33,35,37,39,41,43,45,47,49,51,53,-1,55,57,59,-1,-1,-1,-1,-1,-1,-1,-1,-1,-1,-1,-1,-1,-1,-1,-1,-1,-1,-1,-1,-1,-1,-1,-1,-1,-1,-1,-1,-1],"loss_changes":[1.5050681E1,0E0,1.4226253E1,1.4352398E1,1.3419029E1,3.0571768E1,2.3159077E1,1.5068621E1,9.785623E0,1.9352737E1,2.7018944E1,2.1673128E1,9.455673E0,8.270707E0,8.616493E0,1.0853555E1,3.333622E0,2.3538109E1,1.8544016E1,1.7518166E1,2.1460896E1,3.9253956E1,1.2165604E1,8.630249E0,1.2055855E0,6.766987E0,6.4863563E0,1.3045464E0,0E0,8.2863164E-1,6.86392E0,6.4533424E-1,0E0,0E0,0E0,0E0,0E0,0E0,0E0,0E0,0E0,0E0,0E0,0E0,0E0,0E0,0E0,0E0,0E0,0E0,0E0,0E0,0E0,0E0,0E0,0E0,0E0,0E0,0E0,0E0,0E0],"parents":[2147483647,0,0,2,2,3,3,4,4,5,5,6,6,7,7,8,8,9,9,10,10,11,11,12,12,13,13,14,14,15,15,16,16,17,17,18,18,19,19,20,20,21,21,22,22,23,23,24,24,25,25,26,26,27,27,29,29,30,30,31,31],"right_children":[2,-1,4,6,8,10,12,14,16,18,20,22,24,26,28,30,32,34,36,38,40,42,44,46,48,50,52,54,-1,56,58,60,-1,-1,-1,-1,-1,-1,-1,-1,-1,-1,-1,-1,-1,-1,-1,-1,-1,-1,-1,-1,-1,-1,-1,-1,-1,-1,-1,-1,-1],"split_conditions":[2.040778E1,-3.293511E-1,1.0775867E2,6.677372E1,2.0155098E2,1.0441895E0,1.1301851E2,3.378498E1,1.5647933E0,1.16607666E-1,9.434808E1,3.1962765E1,-1.298027E-1,-2.4387207E0,2.2646484E0,-2.102295E0,1.9526672E-1,2.2734513E0,-5.784912E-1,1.8475356E0,2.108683E1,5.450756E1,5.691236E1,7.6406494E1,2.0401646E2,-2.9959106E-1,1.0314276E0,2.3961873E0,2.5807244E-1,1.0528564E-3,-1.8651123E0,-1.1212344E0,-1.09403856E-1,4.773816E-2,-1.7081377E-1,-2.2107865E-1,2.0747149E-1,1.7510243E-1,-1.9455741E-1,2.2396602E-1,-3.825725E-1,-4.0087542E-1,1.0493902E-1,2.5543818E-1,5.1201496E-2,-2.0193845E-1,3.3606872E-1,-3.898744E-1,-8.456151E-2,-1.9083081E-1,3.6427224E-1,2.1279593E-1,-3.6978412E-1,-4.6632662E-1,-6.3887216E-2,2.7921733E-1,5.7784193E-3,2.2809552E-1,-3.9247376E-1,4.887164E-2,3.5673264E-1],"split_indices":[16,0,16,0,14,4,15,0,17,4,14,18,19,5,3,4,5,20,3,20,18,1,18,18,14,2,21,11,0,17,2,13,0,0,0,0,0,0,0,0,0,0,0,0,0,0,0,0,0,0,0,0,0,0,0,0,0,0,0,0,0],"split_type":[0,0,0,0,0,0,0,0,0,0,0,0,0,0,0,0,0,0,0,0,0,0,0,0,0,0,0,0,0,0,0,0,0,0,0,0,0,0,0,0,0,0,0,0,0,0,0,0,0,0,0,0,0,0,0,0,0,0,0,0,0],"sum_hessian":[6.3415356E2,1.3156892E1,6.2099664E2,5.6004785E2,6.0948795E1,3.573497E2,2.0269818E2,3.738986E1,2.3558935E1,2.5951428E2,9.783541E1,1.7932817E2,2.3370007E1,1.4450338E1,2.293952E1,1.4453853E1,9.1050825E0,1.8728181E2,7.223247E1,4.418457E1,5.365084E1,6.692538E1,1.124028E2,9.0038395E0,1.4366168E1,7.244542E0,7.2057962E0,2.1905993E1,1.0335284E0,4.744911E0,9.708941E0,7.6782136E0,1.4268686E0,1.17249275E2,7.003254E1,9.765205E0,6.2467262E1,2.2702866E1,2.1481705E1,5.219545E0,4.8431297E1,1.8113874E1,4.88115E1,6.969184E1,4.2710953E1,5.347783E0,3.6560564E0,1.2381821E1,1.984347E0,2.179142E0,5.0654E0,1.5877106E0,5.618086E0,2.0799109E1,1.1068846E0,3.3995068E0,1.3454044E0,1.247738E0,8.461204E0,1.046254E0,6.6319594E0],"tree_param":{"num_deleted":"0","num_feature":"23","num_nodes":"61","size_leaf_vector":"0"}},{"base_weights":[-6.097612E-2,1.1785462E0,-7.916387E-2,1.341052E-1,1.6232605E0,-1.074852E-1,5.596909E-1,-8.2884735E-1,8.0077845E-1,-7.820377E-2,-1.0223788E0,8.855232E-1,-4.6311247E-1,-1.0203773E-1,9.804151E-1,-1.1697882E0,5.0484836E-1,-2.677643E-1,1.2406635E0,7.6648813E-1,-1.0671548E0,-3.668203E-2,-5.8067846E-1,-9.7076035E-1,1.3403407E0,-4.491805E-1,-1.4551578E0,-1.0779376E0,5.46573E-1,1.4157186E0,7.077744E-2,-2.9970014E-1,-1.2046953E0,2.2228323E-1,-1.6794804E-1,-9.171585E-1,4.025715E-1,1.7022792E0,-7.1968995E-2,4.1582927E-1,-9.7325516E-1,7.503938E-1,3.4605056E-2,2.874475E-1,-1.8523115E-1],"categories":[],"categories_nodes":[],"categories_segments":[],"categories_sizes":[],"default_left":[true,true,true,true,false,true,true,false,false,true,true,true,true,true,true,true,false,true,true,false,true,true,true,false,true,true,false,false,true,false,true,false,false,false,false,false,false,false,false,false,false,false,false,false,false],"id":7,"left_children":[1,3,5,7,-1,9,11,-1,-1,13,15,17,19,21,23,25,-1,27,29,-1,31,33,35,-1,37,39,-1,-1,41,-1,43,-1,-1,-1,-1,-1,-1,-1,-1,-1,-1,-1,-1,-1,-1],"loss_changes":[1.3770006E1,3.8863993E0,1.0894882E1,3.0574994E0,0E0,1.5303774E1,8.935311E0,0E0,0E0,1.4166897E1,4.581209E0,8.418955E0,5.8960376E0,1.706334E1,9.988346E0,2.732689E0,0E0,4.1986723E0,3.0276394E0,0E0,1.67027E-1,1.640865E1,2.2055084E1,0E0,5.675644E0,3.1781077E0,0E0,0E0,3.2798934E-1,0E0,2.2190113E-1,0E0,0E0,0E0,0E0,0E0,0E0,0E0,0E0,0E0,0E0,0E0,0E0,0E0,0E0],"parents":[2147483647,0,0,1,1,2,2,3,3,5,5,6,6,9,9,10,10,11,11,12,12,13,13,14,14,15,15,17,17,18,18,20,20,21,21,22,22,24,24,25,25,28,28,30,30],"right_children":[2,4,6,8,-1,10,12,-1,-1,14,16,18,20,22,24,26,-1,28,30,-1,32,34,36,-1,38,40,-1,-1,42,-1,44,-1,-1,-1,-1,-1,-1,-1,-1,-1,-1,-1,-1,-1,-1],"split_conditions":[-2.4553223E0,1.6030416E0,2.0100098E0,1.0460742E2,4.8697817E-1,2.8459473E0,1.3531494E0,-2.4865422E-1,2.4023354E-1,2.7836914E0,3.6637752E0,2.5558858E0,7.3534155E-1,1.1030273E0,1.4031807E0,7.9159676E1,1.5145451E-1,-1.4147568E-1,2.4318848E0,2.2994645E-1,3.351976E1,1.5844209E0,2.0673237E0,-2.9122812E-1,1.3586544E0,3.953245E1,-4.3654734E-1,-3.233813E-1,1.2668399E2,4.2471558E-1,2.6374317E1,-8.9910045E-2,-3.6140862E-1,6.668497E-2,-5.0384413E-2,-2.7514756E-1,1.2077145E-1,5.106838E-1,-2.1590699E-2,1.2474879E-1,-2.9197657E-1,2.2511815E-1,1.0381517E-2,8.623426E-2,-5.5569347E-2],"split_indices":[3,13,19,0,0,5,4,0,0,5,21,21,21,19,6,14,0,4,19,0,9,20,13,0,13,10,0,0,14,0,0,0,0,0,0,0,0,0,0,0,0,0,0,0,0],"split_type":[0,0,0,0,0,0,0,0,0,0,0,0,0,0,0,0,0,0,0,0,0,0,0,0,0,0,0,0,0,0,0,0,0,0,0,0,0,0,0,0,0,0,0,0,0],"sum_hessian":[6.0566406E2,7.8359146E0,5.978281E2,2.7287703E0,5.1071444E0,5.732471E2,2.4581089E1,1.0168126E0,1.7119577E0,5.5652094E2,1.672613E1,1.8744055E1,5.8370347E0,5.451509E2,1.1370026E1,1.5467259E1,1.2588708E0,4.4709773E0,1.4273078E1,1.8342558E0,4.002779E0,4.806038E2,6.4547104E1,1.5064373E0,9.863588E0,5.117843E0,1.0349416E1,2.0789542E0,2.392023E0,1.2232538E1,2.0405395E0,1.0914813E0,2.9112976E0,1.6143228E2,3.191715E2,4.8140175E1,1.640693E1,7.6880293E0,2.175559E0,2.0087888E0,3.1090543E0,1.3777992E0,1.0142239E0,1.0386691E0,1.0018704E0],"tree_param":{"num_deleted":"0","num_feature":"23","num_nodes":"45","size_leaf_vector":"0"}},{"base_weights":[-4.3319974E-2,-1.0293213E0,-2.4782838E-2,-9.397434E-2,2.0347881E-1,-3.7843505E-1,1.04545064E-1,5.8117944E-1,-1.7319493E-1,1.1193388E0,-4.575222E-1,-1.2071145E0,1.5040532E-1,-3.6225826E-1,8.2846195E-1,-5.5807024E-1,8.4067166E-1,1.2809632E0,-1.0077159E-1,1.2157356E0,-5.1277465E-1,-1.4676284E0,-1.8969287E-1,2.1466781E-1,-5.5609554E-1,9.3947905E-1,-9.1765296E-1,-7.317617E-1,9.986274E-1,-9.023157E-1,2.637286E-1,-1.1272602E0,1.1288992E0,1.3587211E0,3.6730403E-1,1.4773577E-1,-6.8913674E-1,3.3128363E-1,-2.2162138E-1,-1.2434897E0,2.9823312E-1,-9.329539E-2,1.2307341E0,-1.247476E0,7.652906E-1,2.8799745E-1,-1.0095847E0,2.3407401E-1,1.2472736E0,-9.7538754E-2,-1.2588787E0,9.583996E-1,-1.4898878E-1,1.3470021E0,-3.412469E-1],"categories":[],"categories_nodes":[],"categories_segments":[],"categories_sizes":[],"default_left":[true,false,true,true,true,true,true,true,true,true,true,true,true,true,true,true,true,true,false,false,true,false,false,true,true,true,true,true,true,true,true,false,true,false,false,false,false,false,false,false,false,false,false,false,false,false,false,false,false,false,false,false,false,false,false],"id":8,"left_children":[1,-1,3,5,7,9,11,13,15,17,19,21,23,25,27,29,31,33,-1,-1,35,-1,-1,37,39,41,43,45,47,49,51,-1,53,-1,-1,-1,-1,-1,-1,-1,-1,-1,-1,-1,-1,-1,-1,-1,-1,-1,-1,-1,-1,-1,-1],"loss_changes":[1.0845981E1,0E0,9.256041E0,2.542254E1,1.9500402E1,2.2422592E1,1.6153263E1,1.6237978E1,2.7410416E1,2.0157423E0,1.6932037E1,2.1284428E0,1.1807417E1,1.1622417E1,1.5182476E1,1.456574E1,1.2274558E1,1.0630894E-1,0E0,0E0,2.0075783E1,0E0,0E0,1.2116034E1,1.3139294E1,1.6023211E0,7.0261707E0,1.9708033E0,9.118694E0,1.0184639E1,4.6514177E0,0E0,6.0447235E0,0E0,0E0,0E0,0E0,0E0,0E0,0E0,0E0,0E0,0E0,0E0,0E0,0E0,0E0,0E0,0E0,0E0,0E0,0E0,0E0,0E0,0E0],"parents":[2147483647,0,0,2,2,3,3,4,4,5,5,6,6,7,7,8,8,9,9,10,10,11,11,12,12,13,13,14,14,15,15,16,16,17,17,20,20,23,23,24,24,25,25,26,26,27,27,28,28,29,29,30,30,32,32],"right_children":[2,-1,4,6,8,10,12,14,16,18,20,22,24,26,28,30,32,34,-1,-1,36,-1,-1,38,40,42,44,46,48,50,52,-1,54,-1,-1,-1,-1,-1,-1,-1,-1,-1,-1,-1,-1,-1,-1,-1,-1,-1,-1,-1,-1,-1,-1],"split_conditions":[2.040778E1,-3.087964E-1,1.1065674E0,4.6387154E1,3.9131493E1,-3.0696874E0,-2.81958E0,9.171858E1,2.4846191E0,-1.4925489E-1,-2.4536133E0,1.24146996E2,1.0775867E2,-2.416842E0,-2.2947726E0,1.095496E2,5.79895E-1,7.48805E1,-3.0231478E-2,3.6472067E-1,8.6183196E-1,-4.402885E-1,-5.6907862E-2,1.3067627E-1,2.3271689E2,2.885895E1,2.5793457E0,2.6916492E1,1.7284092E0,1.3013916E0,1.4089069E0,-3.3817807E-1,9.289862E-1,4.0761635E-1,1.1019121E-1,4.4320732E-2,-2.0674103E-1,9.938509E-2,-6.648642E-2,-3.7304693E-1,8.946994E-2,-2.7988618E-2,3.6922026E-1,-3.742428E-1,2.295872E-1,8.639924E-2,-3.028754E-1,7.022221E-2,3.7418208E-1,-2.9261628E-2,-3.7766364E-1,2.875199E-1,-4.4696636E-2,4.0410066E-1,-1.0237408E-1],"split_indices":[16,0,3,0,0,13,5,14,4,11,3,10,16,13,13,10,2,12,0,0,20,0,0,3,14,0,4,0,6,3,11,0,17,0,0,0,0,0,0,0,0,0,0,0,0,0,0,0,0,0,0,0,0,0,0],"split_type":[0,0,0,0,0,0,0,0,0,0,0,0,0,0,0,0,0,0,0,0,0,0,0,0,0,0,0,0,0,0,0,0,0,0,0,0,0,0,0,0,0,0,0,0,0,0,0,0,0,0,0,0,0,0,0],"sum_hessian":[5.9379724E2,9.951351E0,5.838459E2,4.4848715E2,1.3535875E2,1.8396924E2,2.645179E2,6.7316154E1,6.8042595E1,8.567245E0,1.7540201E2,8.080621E0,2.564373E2,1.3883306E1,5.343285E1,4.9645977E1,1.8396614E1,7.521075E0,1.0461695E0,4.935408E0,1.704666E2,6.0810513E0,1.9995697E0,2.356949E2,2.0742382E1,3.9451315E0,9.938174E0,4.930007E0,4.8502842E1,3.4920193E1,1.4725787E1,1.9783078E0,1.6418306E1,6.4822736E0,1.0388008E0,3.595825E1,1.3450835E2,1.861733E2,4.952161E1,1.1241742E1,9.50064E0,1.0173483E0,2.9277833E0,8.526003E0,1.412171E0,1.0477139E0,3.882293E0,1.2379364E1,3.6123478E1,1.1112466E1,2.3807726E1,4.9954524E0,9.730334E0,1.4370186E1,2.0481205E0],"tree_param":{"num_deleted":"0","num_feature":"23","num_nodes":"55","size_leaf_vector":"0"}},{"base_weights":[-3.2388017E-2,4.989055E-3,-4.2945555E-1,-1.0560764E-1,2.7197224E-1,-8.926335E-1,1.7823428E-1,1.1760278E-1,-2.5719556E-1,6.970664E-1,3.1973466E-2,3.494541E-1,-1.1925191E0,-8.0292064E-1,6.0220385E-1,-4.9816546E-1,2.6861125E-1,-7.4788266E-1,-1.0041052E-1,9.342239E-1,-2.7258953E-1,-1.8055686E-1,6.2311864E-1,1.0121257E0,-6.272225E-1,-1.3305668E0,5.916775E-1,-2.7309844E-1,-9.9306315E-1,-9.2588454E-1,7.9714805E-1,-7.39479E-2,-1.3397237E0,-8.800898E-1,3.6218578E-1,-1.1795653E0,6.0013514E-2,3.7104848E-1,-2.892228E-1,1.039156E0,-7.84262E-2,-1.2335377E0,8.054287E-1,-3.3972862E-1,7.6828444E-1,7.5869143E-1,-5.401804E-1,-8.2585627E-1,-1.2861282E-1,-2.1047206E-1,-1.4718566E0,2.3408699E-1,-6.3904923E-1,9.591727E-1,-6.8564814E-1,6.5577257E-1,-7.1970516E-1,-3.0849206E-1,-1.0912147E0,4.293149E-1,-1.2981306E0,-9.863681E-2,-1.5154963E0,6.7019624E-1,-1.0571722E0,7.853111E-1,-5.899365E-1,-7.1530604E-1,8.1132114E-2,1.1382784E0,-2.3616679E-1,-9.8647577E-1,9.486074E-1,-7.0506114E-1,1.2454268E0,-9.308959E-2,-1.0046022E0,-8.096971E-1,1.092168E0,-3.381785E-1,9.467914E-1,-1.117215E0,3.864839E-1,-5.795101E-1,3.659678E-1,1.2390436E0,4.163547E-1],"categories":[],"categories_nodes":[],"categories_segments":[],"categories_sizes":[],"default_left":[true,true,true,true,true,true,true,true,true,true,true,true,true,true,true,true,true,true,true,true,true,true,true,false,true,true,false,true,false,false,true,true,false,true,true,true,true,true,true,true,true,false,true,true,true,true,true,false,false,true,false,false,false,true,false,false,false,false,false,false,false,false,false,false,false,false,false,false,false,false,false,false,false,false,false,false,false,false,false,false,false,false,false,false,false,false,false],"id":9,"left_children":[1,3,5,7,9,11,13,15,17,19,21,23,25,27,29,31,33,35,37,39,41,43,45,-1,47,49,-1,51,-1,-1,53,55,-1,57,59,61,63,65,67,69,71,-1,73,75,77,79,81,-1,-1,83,-1,-1,-1,85,-1,-1,-1,-1,-1,-1,-1,-1,-1,-1,-1,-1,-1,-1,-1,-1,-1,-1,-1,-1,-1,-1,-1,-1,-1,-1,-1,-1,-1,-1,-1,-1,-1],"loss_changes":[8.482118E0,1.5477788E1,1.3998812E1,1.2572486E1,1.5641457E1,1.0871973E1,9.6769705E0,1.4138224E1,1.6932343E1,1.2983992E1,1.2572941E1,4.6684523E0,6.412033E0,4.437647E-1,5.5054317E0,1.0614907E1,1.338907E1,1.8686235E1,1.5123905E1,4.831524E0,1.3064155E1,1.1395809E1,4.5816593E0,0E0,2.0444119E-1,3.0934677E0,0E0,7.534865E-1,0E0,0E0,4.196617E0,1.037295E1,0E0,8.038802E-1,1.3168031E1,1.2500374E1,1.4028724E1,1.9841913E1,1.9154486E1,5.39806E0,5.717206E0,0E0,4.929923E0,1.0373335E1,6.4539895E0,5.293996E0,2.2204852E0,0E0,0E0,9.7271526E-1,0E0,0E0,0E0,1.5648298E0,0E0,0E0,0E0,0E0,0E0,0E0,0E0,0E0,0E0,0E0,0E0,0E0,0E0,0E0,0E0,0E0,0E0,0E0,0E0,0E0,0E0,0E0,0E0,0E0,0E0,0E0,0E0,0E0,0E0,0E0,0E0,0E0,0E0],"parents":[2147483647,0,0,1,1,2,2,3,3,4,4,5,5,6,6,7,7,8,8,9,9,10,10,11,11,12,12,13,13,14,14,15,15,16,16,17,17,18,18,19,19,20,20,21,21,22,22,24,24,25,25,27,27,30,30,31,31,33,33,34,34,35,35,36,36,37,37,38,38,39,39,40,40,42,42,43,43,44,44,45,45,46,46,49,49,53,53],"right_children":[2,4,6,8,10,12,14,16,18,20,22,24,26,28,30,32,34,36,38,40,42,44,46,-1,48,50,-1,52,-1,-1,54,56,-1,58,60,62,64,66,68,70,72,-1,74,76,78,80,82,-1,-1,84,-1,-1,-1,86,-1,-1,-1,-1,-1,-1,-1,-1,-1,-1,-1,-1,-1,-1,-1,-1,-1,-1,-1,-1,-1,-1,-1,-1,-1,-1,-1,-1,-1,-1,-1,-1,-1],"split_conditions":[2.4138184E0,7.696533E-1,2.9873834E0,5.6735374E1,2.010403E0,-1.7314453E0,-1.9053798E0,2.9551716E1,4.3284622E1,1.2681885E0,1.03516815E2,2.6440976E0,2.2043457E0,-2.3721368E0,2.6323242E0,2.4527347E0,-2.8127441E0,1.5738525E0,-2.2199707E0,2.4039478E0,1.0099991E2,1.7175293E0,1.9321558E2,3.0363774E-1,1.1512241E0,-1.564331E0,1.7750326E-1,3.953807E1,-2.9791895E-1,-2.7776536E-1,1.0101318E0,1.6907854E0,-4.0191713E-1,-2.4991837E0,1.132569E2,2.6931786E1,4.823157E1,8.555375E1,1.1735535E-1,1.3995768E0,1.3123779E0,-3.700613E-1,2.3850098E0,1.4391582E2,-7.852503E-1,1.6501951E0,2.2374619E2,-2.4775688E-1,-3.8583845E-2,1.1345741E2,-4.41557E-1,7.02261E-2,-1.9171478E-1,3.9145187E1,-2.0569445E-1,1.9673178E-1,-2.1591155E-1,-9.2547625E-2,-3.2736441E-1,1.2879448E-1,-3.894392E-1,-2.9591044E-2,-4.5464888E-1,2.0105888E-1,-3.1715167E-1,2.3559333E-1,-1.7698096E-1,-2.1459182E-1,2.4339635E-2,3.4148353E-1,-7.085004E-2,-2.9594275E-1,2.8458223E-1,-2.1151835E-1,3.7362805E-1,-2.7926877E-2,-3.0138066E-1,-2.4290913E-1,3.276504E-1,-1.0145355E-1,2.8403744E-1,-3.3516452E-1,1.15945175E-1,-1.7385304E-1,1.0979035E-1,3.717131E-1,1.2490641E-1],"split_indices":[5,5,21,9,6,19,17,0,1,4,1,20,2,11,5,21,4,4,5,13,9,4,1,0,13,2,0,10,0,0,4,6,0,11,15,1,18,9,19,17,19,0,4,12,17,21,0,0,0,12,0,0,0,0,0,0,0,0,0,0,0,0,0,0,0,0,0,0,0,0,0,0,0,0,0,0,0,0,0,0,0,0,0,0,0,0,0],"split_type":[0,0,0,0,0,0,0,0,0,0,0,0,0,0,0,0,0,0,0,0,0,0,0,0,0,0,0,0,0,0,0,0,0,0,0,0,0,0,0,0,0,0,0,0,0,0,0,0,0,0,0,0,0,0,0,0,0,0,0,0,0,0,0,0,0,0,0,0,0,0,0,0,0,0,0,0,0,0,0,0,0,0,0,0,0,0,0],"sum_hessian":[5.703798E2,5.2221014E2,4.8169662E1,3.6967728E2,1.5253288E2,2.7068954E1,2.110071E1,1.4960738E2,2.2006992E2,5.4354256E1,9.817863E1,5.2322707E0,2.1836683E1,6.097045E0,1.5003665E1,2.9010822E1,1.2059656E2,5.2376884E1,1.6769302E2,4.3702168E1,1.065209E1,7.272638E1,2.5452248E1,3.0956128E0,2.136658E0,2.0504454E1,1.3322303E0,2.2536502E0,3.8433948E0,1.2733002E0,1.3730365E1,2.0011288E1,8.999536E0,8.450823E0,1.1214574E2,3.383683E1,1.8540056E1,4.767778E1,1.2001524E2,3.9575165E1,4.1270013E0,5.5555735E0,5.096516E0,6.2828594E1,9.897783E0,2.3107117E1,2.345131E0,1.0586141E0,1.0780438E0,2.57561E0,1.7928843E1,1.0955781E0,1.1580721E0,1.2696189E1,1.0341759E0,9.3875885E0,1.0623698E1,2.9433105E0,5.5075126E0,1.0850033E2,3.6454074E0,8.329272E0,2.5507557E1,1.224966E1,6.2903967E0,3.3443653E1,1.4234126E1,5.537566E1,6.463959E1,3.6820786E1,2.7543795E0,2.21134E0,1.9156613E0,1.0137945E0,4.0827217E0,4.6659843E1,1.616875E1,1.430131E0,8.467652E0,3.2657344E0,1.9841381E1,1.318481E0,1.02665E0,1.5670531E0,1.0085567E0,7.530787E0,5.1654015E0],"tree_param":{"num_deleted":"0","num_feature":"23","num_nodes":"87","size_leaf_vector":"0"}}]},"name":"gbtree"},"learner_model_param":{"base_score":"5E-1","num_class":"0","num_feature":"23"},"objective":{"name":"binary:logitraw","reg_loss_param":{"scale_pos_weight":"0.333260953"}}},"version":[1,5,1]}