{"learner":{"attributes":{"best_iteration":"9","best_ntree_limit":"10","best_score":"0.945688"},"feature_names":["lep1pt","lep1eta","lep1phi","lep2pt","lep2eta","lep2phi","drll","ptll","yVlep","phiVlep","mll","mT","mT2","PuppiMET_T1Smear_pt","PuppiMET_T1Smear_phi","photonet","photoneta","photonphi","drl1a","drl2a","ml1g","ml2g","mllg"],"feature_types":["float","float","float","float","float","float","float","float","float","float","float","float","float","float","float","float","float","float","float","float","float","float","float"],"gradient_booster":{"model":{"gbtree_model_param":{"num_trees":"10","size_leaf_vector":"0"},"tree_info":[0,0,0,0,0,0,0,0,0,0],"trees":[{"base_weights":[-5.2028143E-1,4.4544426E-1,-7.363066E-1,9.4464195E-1,-2.5489074E-1,-8.9151084E-1,4.69715E-1,-1.4584514E0,1.0555849E0,2.0453097E-1,-1.6381829E0,2.4739619E-1,-9.655763E-1,-1.843396E0,6.0807437E-1,1.1456943E0,-1.0848131E0,8.492908E-1,-1.0618914E0,-2.247872E0,8.018009E-1,-1.9231303E0,6.97525E-1,-1.2772619E0,-5.767742E-1,7.320067E-1,-1.7984186E0,1.2245395E0,-6.004492E-1,-1.763759E-1,-1.4309288E0,-3.9356217E-1,1.2692765E0,-1.3362073E0,8.905659E-1,-6.3997656E-1,-2.361601E0,-1.4369348E0,9.634415E-1,-2.2702043E0,-1.0812981E0,4.7513306E-1,-8.590221E-1,-1.7245227E0,8.647857E-1,-2.1760581E-1,1.320608E0,8.1768423E-1,-1.549677E0,7.1090937E-1,-1.3416215E0,-3.7311655E-1,1.4090449E0,-1.5894221E0,4.5906812E-1,-1.4309288E0,1.1605047E0,-5.67935E-1,-2.3946755E0,8.3068085E-1,-1.1720878E0,7.370073E-1,-1.9177729E0,-1.0746285E0,2.824716E-1,-9.607691E-1,9.531339E-1],"categories":[],"categories_nodes":[],"categories_segments":[],"categories_sizes":[],"default_left":[true,true,true,true,true,true,true,false,true,true,true,true,true,false,true,true,true,true,true,true,false,false,true,true,true,true,false,true,true,false,false,true,true,true,false,false,false,false,true,true,true,true,true,false,true,false,false,false,false,false,false,false,false,false,false,false,false,false,false,false,false,false,false,false,false,false,false],"id":0,"left_children":[1,3,5,7,9,11,13,-1,15,17,19,21,23,-1,25,27,29,31,33,35,-1,-1,37,39,41,43,-1,45,47,-1,-1,49,51,53,-1,-1,-1,-1,55,57,59,61,63,-1,65,-1,-1,-1,-1,-1,-1,-1,-1,-1,-1,-1,-1,-1,-1,-1,-1,-1,-1,-1,-1,-1,-1],"loss_changes":[1.3388927E2,4.13733E1,9.8417786E1,1.9909649E1,3.1952183E1,3.9396362E1,2.0435287E1,0E0,1.4057739E1,3.212282E1,2.041957E1,2.9812668E1,5.2107483E1,0E0,1.8523731E1,9.580246E0,7.531023E-1,1.4014709E1,8.336712E0,3.676834E-1,0E0,0E0,1.5500042E1,4.448053E1,5.8556595E1,1.9620352E1,0E0,8.849243E0,5.906696E0,0E0,0E0,8.600698E0,5.022524E0,6.2301025E0,0E0,0E0,0E0,0E0,1.2377588E1,6.871399E0,3.627507E1,2.778096E1,3.8395805E1,0E0,9.527756E0,0E0,0E0,0E0,0E0,0E0,0E0,0E0,0E0,0E0,0E0,0E0,0E0,0E0,0E0,0E0,0E0,0E0,0E0,0E0,0E0,0E0,0E0],"parents":[2147483647,0,0,1,1,2,2,3,3,4,4,5,5,6,6,8,8,9,9,10,10,11,11,12,12,14,14,15,15,16,16,17,17,18,18,19,19,22,22,23,23,24,24,25,25,27,27,28,28,31,31,32,32,33,33,38,38,39,39,40,40,41,41,42,42,44,44],"right_children":[2,4,6,8,10,12,14,-1,16,18,20,22,24,-1,26,28,30,32,34,36,-1,-1,38,40,42,44,-1,46,48,-1,-1,50,52,54,-1,-1,-1,-1,56,58,60,62,64,-1,66,-1,-1,-1,-1,-1,-1,-1,-1,-1,-1,-1,-1,-1,-1,-1,-1,-1,-1,-1,-1,-1,-1],"split_conditions":[3.3761482E1,2.4783547E0,2.971742E2,2.2969236E1,-5.0377417E-1,-2.8580894E0,2.1605562E1,-4.3753543E-1,4.902617E1,8.489583E1,2.4242663E0,8.815053E1,6.0376045E1,-5.530188E-1,1.7805643E2,6.1261124E1,2.7755545E1,-1.9758482E0,2.149834E2,-2.75708E0,2.4054028E-1,-5.769391E-1,3.815383E1,7.4964066E1,4.8795486E1,5.3654564E1,-5.395256E-1,6.0887665E-1,2.054815E1,-5.291277E-2,-4.2927867E-1,3.4478615E1,2.9778439E1,-4.0290833E-2,2.6716977E-1,-1.9199298E-1,-7.0848036E-1,-4.3108046E-1,1.5685117E0,-1.9702148E0,6.964758E-1,1.5122127E2,2.5253906E0,-5.173568E-1,4.1180027E1,-6.528175E-2,3.9618242E-1,2.4530528E-1,-4.6490312E-1,2.1327282E-1,-4.0248647E-1,-1.1193497E-1,4.227135E-1,-4.7682664E-1,1.3772044E-1,-4.2927867E-1,3.4815142E-1,-1.703805E-1,-7.184027E-1,2.4920426E-1,-3.5162634E-1,2.2110221E-1,-5.7533187E-1,-3.2238856E-1,8.474148E-2,-2.8823075E-1,2.8594017E-1],"split_indices":[21,6,10,0,8,14,15,0,15,12,9,20,0,0,7,0,0,8,10,2,0,0,3,11,7,3,0,18,21,0,0,7,3,1,0,0,0,0,19,16,19,20,2,0,7,0,0,0,0,0,0,0,0,0,0,0,0,0,0,0,0,0,0,0,0,0,0],"split_type":[0,0,0,0,0,0,0,0,0,0,0,0,0,0,0,0,0,0,0,0,0,0,0,0,0,0,0,0,0,0,0,0,0,0,0,0,0,0,0,0,0,0,0,0,0,0,0,0,0,0,0,0,0,0,0,0,0,0,0,0,0,0,0,0,0,0,0],"sum_hessian":[6.392101E2,1.1665406E2,5.22556E2,6.7903625E1,4.875044E1,4.6320627E2,5.9349743E1,2.4605525E0,6.544307E1,3.7235767E1,1.1514673E1,2.8140995E1,4.3506528E2,2.6541445E0,5.66956E1,6.3245213E1,2.1978564E0,2.4892101E1,1.2343665E1,9.27566E0,2.2390137E0,4.271478E0,2.3869516E1,2.402124E2,1.9485287E2,5.4580563E1,2.1150334E0,6.0798634E1,2.4465792E0,1.0228378E0,1.1750185E0,6.3029265E0,1.8589174E1,1.1099797E1,1.2438682E0,1.0505301E0,8.22513E0,2.1564448E0,2.1713072E1,3.784881E1,2.023636E2,4.1077633E1,1.5377525E2,2.184137E0,5.2396427E1,3.7181396E0,5.7080494E1,1.0365568E0,1.4100223E0,3.0268478E0,3.2760787E0,1.3269453E0,1.7262228E1,9.828237E0,1.2715605E0,1.1750185E0,2.0538054E1,2.957998E0,3.4890812E1,8.804128E0,1.9355946E2,3.7649372E1,3.4282596E0,1.293938E2,2.4381445E1,1.9628526E0,5.0433575E1],"tree_param":{"num_deleted":"0","num_feature":"23","num_nodes":"67","size_leaf_vector":"0"}},{"base_weights":[-3.572413E-1,1.3931586E-1,-5.920651E-1,2.1362515E-1,-1.4209826E0,-6.721446E-1,2.589185E-1,6.4454424E-1,-2.7214952E-2,-1.8867778E0,5.281662E-1,8.044058E-2,-7.6962256E-1,-1.3289058E0,5.1028764E-1,8.638606E-1,-8.721828E-1,-1.9418249E0,8.799009E-2,-5.981018E-1,-2.0244973E0,-1.0500048E0,6.5880185E-1,-6.9364065E-1,-1.8720413E0,7.321018E-1,-1.9547151E0,-3.306604E-1,9.700611E-1,1.0252253E0,-1.9514052E0,-1.4094563E0,7.752239E-1,-8.442342E-2,1.0641344E0,-1.3697081E0,9.586088E-1,-1.5036144E0,8.501102E-1,2.8886698E-2,-7.946103E-1,-2.0121775E0,-9.709428E-1,1.025227E0,-1.2575988E0,1.1644357E0,-6.9804794E-1,-1.165128E0,1.1039134E0,-1.8864241E0,7.3420596E-1,9.5145655E-1,-3.4247848E-1,1.3037393E0,-1.2830869E0,-1.8535103E0,5.1357597E-3,-8.2868457E-1,1.0464171E0,-8.162273E-1,7.371858E-1,-1.4930882E0,-6.619246E-1,2.502101E-1,1.1438228E0,-2.0119917E0,4.8635063E-1,-4.3064058E-1,1.2816116E0],"categories":[],"categories_nodes":[],"categories_segments":[],"categories_sizes":[],"default_left":[true,true,true,true,true,true,true,true,true,true,false,true,true,true,true,true,true,false,true,false,false,true,true,true,true,false,false,true,true,true,false,true,false,true,true,true,false,false,true,true,true,false,false,true,true,true,false,false,false,false,false,false,false,false,false,false,false,false,false,false,false,false,false,false,false,false,false,false,false],"id":1,"left_children":[1,3,5,7,9,11,13,15,17,19,-1,21,23,25,27,29,31,-1,33,-1,-1,35,37,39,41,-1,-1,43,45,47,-1,49,-1,51,53,55,-1,-1,57,59,61,-1,-1,63,65,67,-1,-1,-1,-1,-1,-1,-1,-1,-1,-1,-1,-1,-1,-1,-1,-1,-1,-1,-1,-1,-1,-1,-1],"loss_changes":[7.51114E1,2.4350784E1,2.9957458E1,2.0654026E1,9.6753845E0,2.9386948E1,1.5969632E1,2.4480919E1,2.851738E1,1.9726372E-1,0E0,3.1253258E1,2.835347E1,8.542611E0,1.3388763E1,3.0539387E1,9.508978E0,0E0,2.0652107E1,0E0,0E0,1.1720167E1,1.4324945E1,2.4298798E1,8.5424805E-1,0E0,0E0,1.7241812E1,7.980337E0,1.1639782E1,0E0,9.079208E0,0E0,2.8330276E1,1.2028788E1,9.582972E0,0E0,0E0,1.0626392E1,2.5601795E1,2.607309E1,0E0,0E0,2.3814917E-1,1.1487665E1,4.322426E0,0E0,0E0,0E0,0E0,0E0,0E0,0E0,0E0,0E0,0E0,0E0,0E0,0E0,0E0,0E0,0E0,0E0,0E0,0E0,0E0,0E0,0E0,0E0],"parents":[2147483647,0,0,1,1,2,2,3,3,4,4,5,5,6,6,7,7,8,8,9,9,11,11,12,12,13,13,14,14,15,15,16,16,18,18,21,21,22,22,23,23,24,24,27,27,28,28,29,29,31,31,33,33,34,34,35,35,38,38,39,39,40,40,43,43,44,44,45,45],"right_children":[2,4,6,8,10,12,14,16,18,20,-1,22,24,26,28,30,32,-1,34,-1,-1,36,38,40,42,-1,-1,44,46,48,-1,50,-1,52,54,56,-1,-1,58,60,62,-1,-1,64,66,68,-1,-1,-1,-1,-1,-1,-1,-1,-1,-1,-1,-1,-1,-1,-1,-1,-1,-1,-1,-1,-1,-1,-1],"split_conditions":[1.5586848E0,2.6589355E0,2.9636725E2,2.2783213E0,3.074463E0,3.8451126E1,2.1892219E0,2.1220703E0,2.023169E0,3.337919E1,1.5844986E-1,-1.5016937E-1,2.7080245E0,-3.0183163E0,-7.255783E-2,1.137207E0,3.0574927E0,-5.825475E-1,1.4509132E0,-1.7943054E-1,-6.073492E-1,8.420811E1,-2.5002441E0,4.081539E1,2.3435059E0,2.1963055E-1,-5.864146E-1,-2.0251684E0,9.7717285E-1,2.2941807E1,-5.8542156E-1,2.210205E0,2.3256718E-1,6.033864E-1,3.047256E0,2.1607218E0,2.8758267E-1,-4.5108435E-1,3.1916918E1,7.067721E-1,7.603405E1,-6.0365325E-1,-2.9128286E-1,-3.380743E0,3.1137994E2,5.48136E1,-2.094144E-1,-3.4953842E-1,3.3117405E-1,-5.6592727E-1,2.202618E-1,2.85437E-1,-1.0274355E-1,3.911218E-1,-3.8492608E-1,-5.560531E-1,1.540728E-3,-2.4860539E-1,3.1392515E-1,-2.448682E-1,2.2115575E-1,-4.479265E-1,-1.9857739E-1,7.5063035E-2,3.4314686E-1,-6.035975E-1,1.459052E-1,-1.2919217E-1,3.844835E-1],"split_indices":[18,17,10,6,17,7,18,5,19,7,0,2,14,8,9,16,19,0,18,0,0,0,5,21,1,0,0,8,16,0,0,1,0,18,19,14,0,0,7,9,11,0,0,8,0,21,0,0,0,0,0,0,0,0,0,0,0,0,0,0,0,0,0,0,0,0,0,0,0],"split_type":[0,0,0,0,0,0,0,0,0,0,0,0,0,0,0,0,0,0,0,0,0,0,0,0,0,0,0,0,0,0,0,0,0,0,0,0,0,0,0,0,0,0,0,0,0,0,0,0,0,0,0,0,0,0,0,0,0,0,0,0,0,0,0,0,0,0,0,0,0],"sum_hessian":[6.4245374E2,2.0640262E2,4.3605112E2,1.978434E2,8.559216E0,3.98739E2,3.7312096E1,7.033015E1,1.2751325E2,6.9341383E0,1.6250772E0,4.5744015E1,3.52995E2,4.513703E0,3.2798393E1,6.1821323E1,8.508823E0,6.3373013E0,1.2117596E2,1.1853572E0,5.748781E0,1.5206474E1,3.0537542E1,3.3175845E2,2.1236555E1,1.011764E0,3.5019386E0,1.1692699E1,2.1105694E1,5.9071323E1,2.7500012E0,6.525185E0,1.9836378E0,1.03762245E2,1.741371E1,1.3392866E1,1.8136076E0,1.9245152E0,2.8613026E1,4.0764713E1,2.9099374E2,1.7311323E1,3.9252331E0,4.704749E0,6.98795E0,1.917347E1,1.9322249E0,1.5697253E0,5.75016E1,5.4357276E0,1.0894576E0,2.015787E1,8.360438E1,1.6204145E1,1.2095628E0,9.649192E0,3.7436743E0,2.6582868E0,2.595474E1,1.8517727E1,2.2246984E1,4.4817055E1,2.4617668E2,1.0371046E0,3.6676447E0,4.7705984E0,2.2173514E0,1.1290414E0,1.8044428E1],"tree_param":{"num_deleted":"0","num_feature":"23","num_nodes":"69","size_leaf_vector":"0"}},{"base_weights":[-2.5859493E-1,2.6431996E-1,-3.9005828E-1,4.0180734E-1,-6.5268654E-1,-4.7036827E-1,3.0226424E-1,7.7012366E-1,5.378035E-2,4.4496086E-1,-1.056414E0,-4.0198928E-1,-1.1884525E0,-7.2290456E-1,4.969968E-1,8.545108E-1,-1.1999029E0,-5.937955E-1,7.094456E-1,-3.8142332E-1,1.052346E0,-3.0362135E-2,-1.3476703E0,-3.2549882E-1,-1.0833486E0,-1.4953885E0,-4.0874846E-2,4.4214103E-1,-1.5018235E0,7.382743E-1,-5.4007965E-1,-1.1159455E0,9.246306E-1,5.191463E-1,-1.1337717E0,1.0186892E0,1.3757013E-1,-6.7897195E-1,8.4607244E-1,-3.2913303E-1,-1.4437251E0,-4.555221E-1,1.081522E-1,1.3857664E0,-1.3644273E0,8.061879E-2,-1.7318937E0,7.202929E-1,-1.2575595E0,-2.5095934E-1,8.604516E-1,-3.0955762E-1,1.0011299E0,-1.5737855E0,3.0318552E-1,-6.3121206E-1,1.0036063E0,9.268391E-1,-1.2015853E0,-1.336812E0,9.1272926E-1,1.134344E0,-3.0379722E-1,-9.3805045E-1,8.033114E-1,-1.5797743E0,-5.5287784E-1,-9.4170153E-1,-1.2633796E-1,3.834607E-1,-1.0144277E0,-1.5275447E0,1.0679802E0,7.7505744E-1,-1.0899765E0,-4.024457E-1,-1.7719526E0,-1.0339524E0,1.4588856E0,-1.7661358E0,9.419614E-1,1.2273853E0,3.764645E-1,-9.373217E-1,8.367576E-1],"categories":[],"categories_nodes":[],"categories_segments":[],"categories_sizes":[],"default_left":[true,true,true,true,true,true,true,true,true,true,true,true,true,true,true,true,false,true,true,false,false,true,true,true,true,true,true,true,false,true,true,false,true,true,true,true,true,false,false,false,true,true,true,false,true,true,true,true,false,false,false,true,true,false,true,false,false,false,false,false,false,false,false,false,false,false,false,false,false,false,false,false,false,false,false,false,false,false,false,false,false,false,false,false,false],"id":2,"left_children":[1,3,5,7,9,11,13,15,17,19,21,23,25,27,29,31,-1,33,35,-1,-1,37,39,41,43,45,47,49,-1,51,53,-1,55,57,59,61,63,-1,-1,-1,65,67,69,-1,71,73,75,77,-1,-1,-1,79,81,-1,83,-1,-1,-1,-1,-1,-1,-1,-1,-1,-1,-1,-1,-1,-1,-1,-1,-1,-1,-1,-1,-1,-1,-1,-1,-1,-1,-1,-1,-1,-1],"loss_changes":[4.3213085E1,1.6221169E1,2.8027283E1,1.41480255E1,7.9526367E0,2.1607681E1,1.0887798E1,9.953547E0,2.5043694E1,3.0335698E0,3.7367296E0,2.1129791E1,1.3533531E1,8.673536E0,1.1637009E1,8.228085E0,0E0,1.8448997E1,5.036397E0,0E0,0E0,2.744821E0,4.858532E-1,2.102544E1,3.0465775E1,1.1479294E1,9.400637E0,1.4652717E0,0E0,1.0461811E1,8.369796E0,0E0,6.8804436E0,8.405914E0,9.665606E0,3.226488E0,8.937881E0,0E0,0E0,0E0,1.7871857E-1,4.5716698E1,2.7160034E1,0E0,1.6497986E1,4.848565E0,6.980591E-1,9.643212E0,0E0,0E0,0E0,1.6531002E1,3.7359543E0,0E0,4.639898E0,0E0,0E0,0E0,0E0,0E0,0E0,0E0,0E0,0E0,0E0,0E0,0E0,0E0,0E0,0E0,0E0,0E0,0E0,0E0,0E0,0E0,0E0,0E0,0E0,0E0,0E0,0E0,0E0,0E0,0E0],"parents":[2147483647,0,0,1,1,2,2,3,3,4,4,5,5,6,6,7,7,8,8,9,9,10,10,11,11,12,12,13,13,14,14,15,15,17,17,18,18,21,21,22,22,23,23,24,24,25,25,26,26,27,27,29,29,30,30,32,32,33,33,34,34,35,35,36,36,40,40,41,41,42,42,44,44,45,45,46,46,47,47,51,51,52,52,54,54],"right_children":[2,4,6,8,10,12,14,16,18,20,22,24,26,28,30,32,-1,34,36,-1,-1,38,40,42,44,46,48,50,-1,52,54,-1,56,58,60,62,64,-1,-1,-1,66,68,70,-1,72,74,76,78,-1,-1,-1,80,82,-1,84,-1,-1,-1,-1,-1,-1,-1,-1,-1,-1,-1,-1,-1,-1,-1,-1,-1,-1,-1,-1,-1,-1,-1,-1,-1,-1,-1,-1,-1,-1],"split_conditions":[3.8585922E1,2.3742676E0,2.971742E2,-2.2297668E-1,-3.511429E-2,2.3747559E0,8.581201E1,1.3225098E0,7.7057105E-1,2.3353643E1,-2.5765314E0,1.1304257E2,2.9680176E0,1.9020841E0,4.9465942E-1,-2.956787E0,-3.5997087E-1,1.014901E2,-1.1720295E0,-1.14427E-1,3.157038E-1,2.612146E1,-2.3734922E0,1.1286621E0,6.6033363E-1,1.4374001E0,7.035888E-2,6.1776733E-1,-4.5054707E-1,-1.4249268E0,1.1011963E0,-3.3478364E-1,2.4410982E1,1.1846924E0,2.3190918E0,4.884217E1,-6.3287985E-1,-2.0369159E-1,2.5382173E-1,-9.8739915E-2,1.11063614E2,4.7584892E1,1.5667725E0,4.1572994E-1,2.9465332E0,2.9001873E0,-2.9667196E0,6.008911E-1,-3.7726787E-1,-7.5287804E-2,2.581355E-1,5.6765393E2,3.927012E2,-4.721357E-1,2.3642364E0,-1.8936363E-1,3.010819E-1,2.7805173E-1,-3.604756E-1,-4.0104362E-1,2.738188E-1,3.403032E-1,-9.113917E-2,-2.8141513E-1,2.4099343E-1,-4.739323E-1,-1.6586336E-1,-2.8251046E-1,-3.790139E-2,1.15038216E-1,-3.0432832E-1,-4.5826343E-1,3.2039407E-1,2.3251724E-1,-3.26993E-1,-1.20733716E-1,-5.315858E-1,-3.1018573E-1,4.3766567E-1,-5.2984077E-1,2.8258842E-1,3.682156E-1,1.1293935E-1,-2.8119653E-1,2.510273E-1],"split_indices":[21,5,10,4,17,17,3,1,9,15,9,12,17,19,16,2,0,22,14,0,0,3,8,4,6,19,9,16,0,5,16,0,0,4,16,15,14,0,0,0,12,0,1,0,2,18,14,4,0,0,0,10,10,0,19,0,0,0,0,0,0,0,0,0,0,0,0,0,0,0,0,0,0,0,0,0,0,0,0,0,0,0,0,0,0],"split_type":[0,0,0,0,0,0,0,0,0,0,0,0,0,0,0,0,0,0,0,0,0,0,0,0,0,0,0,0,0,0,0,0,0,0,0,0,0,0,0,0,0,0,0,0,0,0,0,0,0,0,0,0,0,0,0,0,0,0,0,0,0,0,0,0,0,0,0,0,0,0,0,0,0,0,0,0,0,0,0,0,0,0,0,0,0],"sum_hessian":[6.2610785E2,1.2558085E2,5.0052698E2,1.096959E2,1.5884953E1,4.487878E2,5.173917E1,5.2705227E1,5.6990673E1,4.2440825E0,1.164087E1,4.111922E2,3.759564E1,7.8261476E0,4.391302E1,5.108329E1,1.6219349E0,2.8719685E1,2.8270987E1,1.9555129E0,2.2885695E0,2.81794E0,8.82293E0,3.7101877E2,4.0173416E1,2.9422964E1,8.172676E0,3.309069E0,4.5170784E0,3.585858E1,8.054438E0,1.2428483E0,4.9840443E1,9.394766E0,1.9324919E1,1.784171E1,1.0429277E1,1.7489345E0,1.0690055E0,1.1418278E0,7.6811023E0,2.8539673E2,8.562204E1,3.7041774E0,3.646924E1,3.9252524E0,2.5497711E1,5.278433E0,2.8942432E0,1.396036E0,1.913033E0,7.1557307E0,2.8702852E1,3.2294085E0,4.8250294E0,2.069922E0,4.777052E1,7.9682245E0,1.4265413E0,1.7896162E1,1.4287579E0,1.6537708E1,1.3040018E0,3.8308473E0,6.5984297E0,5.9925823E0,1.68852E0,1.1447109E2,1.7092563E2,6.9287865E1,1.6334177E1,3.4525932E1,1.943308E0,2.6757798E0,1.2494726E0,1.0689363E0,2.4428774E1,1.4454417E0,3.8329911E0,3.1169176E0,4.038813E0,2.0362598E1,8.340254E0,1.2235931E0,3.601436E0],"tree_param":{"num_deleted":"0","num_feature":"23","num_nodes":"85","size_leaf_vector":"0"}},{"base_weights":[-1.9224639E-1,1.1696264E-1,-3.3564502E-1,6.963879E-1,-3.9892633E-2,-2.920641E-1,-1.6409909E0,-3.954932E-1,9.568712E-1,-1.2329434E0,1.0274197E-1,-3.2212433E-1,1.0498602E0,-1.1667055E0,1.0357685E0,-3.7328306E-1,1.1201391E0,-1.4109329E0,6.5093505E-1,1.8185996E-1,-1.269119E0,-2.7039868E-1,-1.435243E0,1.9633313E0,-3.112892E-1,3.9121437E-1,-1.5812364E0,7.580762E-1,-1.1159002E0,1.1892129E0,-1.7479477E-2,8.4405495E-3,-1.5262095E0,2.8762555E-1,-7.5715923E-1,-6.0476568E-2,-1.5266309E0,-5.7141703E-1,-7.519376E-2,-1.683533E0,7.686E-1,-1.0980872E0,7.912207E-1,1.2728418E0,-4.8938274E-1,4.5938033E-1,-2.0719752E-1,-1.5946921E0,2.1888052E-1,-1.7323352E-1,-9.9630696E-1,1.0353833E0,-1.7119361E-1],"categories":[],"categories_nodes":[],"categories_segments":[],"categories_sizes":[],"default_left":[true,true,true,true,true,true,false,true,true,true,true,true,true,true,false,true,true,true,false,true,true,true,true,false,true,false,false,false,false,true,false,false,false,true,true,false,false,true,true,false,false,false,false,false,false,false,false,false,false,false,false,false,false],"id":3,"left_children":[1,3,5,7,9,11,-1,13,15,17,19,21,23,25,-1,27,29,31,-1,33,35,37,39,-1,41,-1,-1,-1,-1,43,-1,-1,-1,45,47,-1,-1,49,51,-1,-1,-1,-1,-1,-1,-1,-1,-1,-1,-1,-1,-1,-1],"loss_changes":[2.6655937E1,1.7380457E1,2.2865116E1,1.1962452E1,2.5856281E1,1.640561E1,0E0,1.0648746E1,7.623123E0,6.358206E0,1.4989486E1,2.2087162E1,1.1754087E1,4.5115576E0,0E0,4.5233974E0,2.3624191E0,2.489828E0,0E0,1.3072863E1,2.254342E0,2.1948118E1,1.0651894E1,0E0,4.7395487E0,0E0,0E0,0E0,0E0,4.568699E0,0E0,0E0,0E0,1.0043724E1,1.1285411E1,0E0,0E0,2.470963E1,2.450463E1,0E0,0E0,0E0,0E0,0E0,0E0,0E0,0E0,0E0,0E0,0E0,0E0,0E0,0E0],"parents":[2147483647,0,0,1,1,2,2,3,3,4,4,5,5,7,7,8,8,9,9,10,10,11,11,12,12,13,13,15,15,16,16,17,17,19,19,20,20,21,21,22,22,24,24,29,29,33,33,34,34,37,37,38,38],"right_children":[2,4,6,8,10,12,-1,14,16,18,20,22,24,26,-1,28,30,32,-1,34,36,38,40,-1,42,-1,-1,-1,-1,44,-1,-1,-1,46,48,-1,-1,50,52,-1,-1,-1,-1,-1,-1,-1,-1,-1,-1,-1,-1,-1,-1],"split_conditions":[1.5844209E0,-1.99646E0,2.8208008E0,-2.7485352E0,-1.6173096E0,2.7836914E0,-4.9229726E-1,1.510498E0,2.0144129E0,3.074463E0,1.5841064E0,2.4138184E0,-2.5995808E0,-1.5693359E0,3.1073058E-1,-2.5876465E0,1.0880127E0,-2.9277315E0,1.9528052E-1,1.094774E2,7.9601875E1,1.0300376E2,4.0225315E0,5.8899945E-1,1.9322675E2,1.1736432E-1,-4.7437093E-1,2.2742286E-1,-3.3477005E-1,1.1147987E2,-5.2438434E-3,2.532165E-3,-4.5786285E-1,3.1305566E0,1.0588957E2,-1.814297E-2,-4.5798928E-1,7.630577E1,8.658288E-1,-5.050599E-1,2.3058E-1,-3.2942617E-1,2.3736623E-1,3.8185257E-1,-1.4681482E-1,1.378141E-1,-6.215926E-2,-4.7840765E-1,6.566416E-2,-5.197006E-2,-2.988921E-1,3.10615E-1,-5.1358085E-2],"split_indices":[18,17,5,17,2,5,0,4,19,17,4,5,9,1,0,17,16,14,0,13,11,20,19,0,20,0,0,0,0,0,0,0,0,19,12,0,0,20,6,0,0,0,0,0,0,0,0,0,0,0,0,0,0],"split_type":[0,0,0,0,0,0,0,0,0,0,0,0,0,0,0,0,0,0,0,0,0,0,0,0,0,0,0,0,0,0,0,0,0,0,0,0,0,0,0,0,0,0,0,0,0,0,0,0,0,0,0,0,0],"sum_hessian":[5.992839E2,1.8992815E2,4.0935577E2,3.972901E1,1.5019913E2,3.9731458E2,1.2041193E1,7.5525026E0,3.217651E1,1.5223109E1,1.3497601E2,3.893527E2,7.961868E0,5.0280566E0,2.524446E0,3.3770597E0,2.879945E1,1.413836E1,1.0847484E0,1.2843628E2,6.5397434E0,3.7325098E2,1.610172E1,4.4996996E0,3.462168E0,1.0685191E0,3.9595377E0,1.3300078E0,2.047052E0,2.7108147E1,1.6913035E0,1.1316303E0,1.300673E1,1.1605789E2,1.2378382E1,1.3655111E0,5.1742325E0,1.4607178E2,2.271792E2,1.4683534E1,1.418188E0,2.022697E0,1.4394711E0,2.6051943E1,1.0562044E0,8.620683E1,2.9851057E1,6.3207507E0,6.0576315E0,7.613239E1,6.9939384E1,1.7296688E1,2.0988252E2],"tree_param":{"num_deleted":"0","num_feature":"23","num_nodes":"53","size_leaf_vector":"0"}},{"base_weights":[-1.4136633E-1,2.2115734E-1,-2.2499263E-1,2.808232E-1,-1.2781943E0,-2.1681383E-2,-4.2792693E-1,-3.5362888E-2,5.296047E-1,-1.5060043E-1,8.2777333E-1,-1.5001216E0,-2.9044133E-1,-2.4242692E-1,6.737724E-1,-2.105012E-1,7.1032405E-1,3.53756E-2,-9.752949E-1,-5.2303755E-1,1.3245202E0,3.2387464E-3,-1.571526E0,-7.0669156E-1,-8.640446E-2,-5.040181E-1,5.6546855E-1,8.9121354E-1,-6.8587697E-1,7.96113E-1,-1.1217259E0,-5.915054E-1,7.9994035E-1,-7.6767534E-1,2.2278538E-1,1.1290746E0,-1.1908846E0,-1.2507128E0,1.1597853E0,1.5037811E0,-9.4797504E-1,-5.25951E-1,-1.6457306E0,1.1018041E0,-7.893458E-1,-4.553123E-1,2.6835644E-1,-6.877381E-1,3.6867636E-1,1.0171814E0,-5.3069055E-1,-1.8098746E-1,1.1582357E0,-1.602568E-1,9.998442E-1,1.8580167E-3,-1.3491422E0,-9.7842276E-1,9.157919E-2,9.27269E-1,-4.1165113E-2,-1.1010193E0,9.927993E-1,-1.6549822E-2,7.5791836E-1,-1.3492079E0,9.772924E-2,1.7914661E0,7.2063315E-1,1.2998788E-1,-8.9185447E-1,-8.230436E-2,-1.0137058E0,3.7011138E-1,-8.879934E-1,4.2529824E-1,-7.52859E-1],"categories":[],"categories_nodes":[],"categories_segments":[],"categories_sizes":[],"default_left":[true,true,true,true,false,true,true,true,true,true,true,true,true,true,true,true,true,true,true,true,true,false,true,true,true,true,true,true,false,true,true,true,true,true,true,false,true,false,false,true,false,true,false,false,true,true,true,false,false,false,false,false,false,false,false,false,false,false,false,false,false,false,false,false,false,false,false,false,false,false,false,false,false,false,false,false,false],"id":4,"left_children":[1,3,5,7,-1,9,11,13,15,17,19,21,23,25,27,29,31,33,35,37,39,-1,41,43,45,47,49,51,-1,53,55,57,59,61,63,-1,65,-1,-1,67,-1,69,-1,-1,71,73,75,-1,-1,-1,-1,-1,-1,-1,-1,-1,-1,-1,-1,-1,-1,-1,-1,-1,-1,-1,-1,-1,-1,-1,-1,-1,-1,-1,-1,-1,-1],"loss_changes":[1.7733917E1,1.0185362E1,1.9567057E1,8.392797E0,0E0,2.6196074E1,3.456048E1,7.184402E0,8.126709E0,3.1866709E1,2.1845926E1,2.8757515E0,1.7915552E1,8.26186E0,3.884354E0,1.2337196E1,6.0923767E0,2.5804245E1,1.8687107E1,1.270751E1,1.0930107E1,0E0,1.1153259E0,1.12563095E1,1.8860466E1,4.9097514E0,5.344431E0,3.066784E0,0E0,1.4292216E0,1.7818766E0,1.0614218E0,4.9098167E0,2.013742E1,1.7798313E1,0E0,7.3052483E0,0E0,0E0,3.6683846E0,0E0,8.747451E-1,0E0,0E0,1.054977E1,2.552893E1,1.2118988E1,0E0,0E0,0E0,0E0,0E0,0E0,0E0,0E0,0E0,0E0,0E0,0E0,0E0,0E0,0E0,0E0,0E0,0E0,0E0,0E0,0E0,0E0,0E0,0E0,0E0,0E0,0E0,0E0,0E0,0E0],"parents":[2147483647,0,0,1,1,2,2,3,3,5,5,6,6,7,7,8,8,9,9,10,10,11,11,12,12,13,13,14,14,15,15,16,16,17,17,18,18,19,19,20,20,22,22,23,23,24,24,25,25,26,26,27,27,29,29,30,30,31,31,32,32,33,33,34,34,36,36,39,39,41,41,44,44,45,45,46,46],"right_children":[2,4,6,8,-1,10,12,14,16,18,20,22,24,26,28,30,32,34,36,38,40,-1,42,44,46,48,50,52,-1,54,56,58,60,62,64,-1,66,-1,-1,68,-1,70,-1,-1,72,74,76,-1,-1,-1,-1,-1,-1,-1,-1,-1,-1,-1,-1,-1,-1,-1,-1,-1,-1,-1,-1,-1,-1,-1,-1,-1,-1,-1,-1,-1,-1],"split_conditions":[3.8585922E1,9.279027E1,-2.886963E-1,4.917662E1,-3.8345832E-1,-3.7539673E-1,7.247925E-2,2.287888E0,-1.5057373E0,8.842261E1,-1.6159683E-1,2.4378899E1,-5.777588E-1,2.255929E0,4.2037277E1,-2.25708E0,2.4278229E1,7.603405E1,6.6033363E-1,2.0590692E2,2.8617525E0,9.71624E-4,2.2008408E1,-3.102295E0,9.70423E1,2.1982422E0,4.4271435E1,-2.2229004E0,-2.057631E-1,-8.020848E-1,-1.9419503E0,5.3011497E1,1.9645753E0,9.28326E1,2.9332764E0,3.3872238E-1,2.7670898E0,-3.7521383E-1,3.479356E-1,7.5186554E1,-2.8439254E-1,5.23199E1,-4.937192E-1,3.3054125E-1,5.675184E1,4.429499E1,2.3789062E0,-2.0632145E-1,1.10602915E-1,3.0515444E-1,-1.5920717E-1,-5.429624E-2,3.474707E-1,-4.8077043E-2,2.9995328E-1,5.5740506E-4,-4.047427E-1,-2.9352683E-1,2.7473759E-2,2.7818072E-1,-1.2349535E-2,-3.3030578E-1,2.978398E-1,-4.964947E-3,2.2737552E-1,-4.047624E-1,2.9318774E-2,5.374399E-1,2.1618995E-1,3.8996365E-2,-2.6755634E-1,-2.4691308E-2,-3.0411178E-1,1.1103342E-1,-2.6639804E-1,1.2758948E-1,-2.258577E-1],"split_indices":[21,7,1,7,0,1,1,9,2,13,14,13,5,14,7,17,0,11,6,21,19,0,15,5,21,2,7,1,0,9,8,3,14,0,6,0,2,0,0,12,0,21,0,0,21,7,1,0,0,0,0,0,0,0,0,0,0,0,0,0,0,0,0,0,0,0,0,0,0,0,0,0,0,0,0,0,0],"split_type":[0,0,0,0,0,0,0,0,0,0,0,0,0,0,0,0,0,0,0,0,0,0,0,0,0,0,0,0,0,0,0,0,0,0,0,0,0,0,0,0,0,0,0,0,0,0,0,0,0,0,0,0,0,0,0,0,0,0,0,0,0,0,0,0,0,0,0,0,0,0,0,0,0,0,0,0,0],"sum_hessian":[5.823176E2,1.0884129E2,4.7347635E2,1.05457375E2,3.3839147E0,2.370714E2,2.3640494E2,4.6815536E1,5.864184E1,2.065471E2,3.0524288E1,2.5742035E1,2.106629E2,3.674447E1,1.0071067E1,1.1476592E1,4.7165253E1,1.6932083E2,3.722627E1,8.192737E0,2.2331553E1,1.2105043E0,2.453153E1,6.848498E1,1.4217793E2,2.8041084E1,8.7033825E0,8.979546E0,1.0915216E0,5.512906E0,5.963686E0,2.6769905E0,4.4488262E1,3.1452147E1,1.378687E2,3.0656211E0,3.416065E1,5.8987956E0,2.2939413E0,2.101231E1,1.3192418E0,2.1615927E0,2.2369938E1,2.4542859E0,6.603069E1,6.95603E1,7.261762E1,2.3339567E1,4.701518E0,6.2145123E0,2.4888704E0,1.8546365E0,7.124909E0,1.0056236E0,4.5072827E0,1.1708342E0,4.792852E0,1.4329627E0,1.2440277E0,3.8550022E1,5.938237E0,2.6759798E1,4.6923485E0,9.5932495E1,4.193619E1,3.0380926E1,3.779722E0,1.4425621E1,6.586689E0,1.0049005E0,1.1566923E0,1.6235016E1,4.9795677E1,2.3972565E1,4.5587738E1,6.345007E1,9.167558E0],"tree_param":{"num_deleted":"0","num_feature":"23","num_nodes":"77","size_leaf_vector":"0"}},{"base_weights":[-1.0680737E-1,-4.0219113E-2,-4.6120787E-1,1.8700726E-2,-4.7206894E-1,-1.1941003E0,-1.8383946E-1,-3.459626E-1,8.566871E-2,1.0462245E0,-6.361699E-1,1.1513122E0,-1.3568279E0,3.667157E-1,-6.119152E-1,-7.6781607E-1,2.5590557E-1,2.8596982E-1,-1.2732278E-1,1.4192575E-1,1.2092751E0,-9.488505E-1,1.951586E-1,1.1279628E-1,-1.4461241E0,-1.3435657E0,7.176569E-1,-8.347612E-1,8.441117E-1,-9.63472E-2,-1.1518193E0,7.051802E-1,-6.934212E-1,4.2997947E-1,-4.5088598E-1,-1.0445944E0,-4.489304E-2,6.450938E-1,-1.1359619E0,8.499264E-1,-1.2565956E0,-4.4785675E-1,-1.4866569E0,1.1716765E0,-5.449513E-1,-2.4565516E-1,-1.1373708E0,-7.16814E-2,1.0820925E0,3.7990376E-1,-8.457616E-1,-1.2820188E0,-1.6339739E-1,-1.0331947E-1,1.0785083E0,-1.0831486E0,6.648789E-1,-1.2494456E0,4.766038E-1,1.189615E0,-7.0867765E-1,2.3987475E-1,-1.3701866E0,-4.0042645E-1,1.7030187E-1,-4.057903E-1,1.1527203E0,-1.2689598E0,2.3070432E-1,1.1991351E0,-4.8689554E-3,-1.1309053E0,1.3835523E0,1.0196145E0,-1.0181823E0,7.0924115E-1,-4.4563574E-1,4.5255814E-2,-1.2650048E0],"categories":[],"categories_nodes":[],"categories_segments":[],"categories_sizes":[],"default_left":[true,true,true,true,true,true,true,true,true,true,true,false,true,true,true,true,true,true,true,false,false,true,true,false,true,false,true,true,true,true,true,true,true,true,true,true,true,true,true,true,false,false,false,true,true,true,true,false,false,false,false,false,false,false,false,false,false,false,false,false,false,false,false,false,false,false,false,false,false,false,false,false,false,false,false,false,false,false,false],"id":5,"left_children":[1,3,5,7,9,11,13,15,17,19,21,-1,23,25,27,29,31,33,35,-1,-1,37,39,-1,41,-1,43,45,47,49,51,53,55,57,59,61,63,65,67,69,-1,-1,-1,71,73,75,77,-1,-1,-1,-1,-1,-1,-1,-1,-1,-1,-1,-1,-1,-1,-1,-1,-1,-1,-1,-1,-1,-1,-1,-1,-1,-1,-1,-1,-1,-1,-1,-1],"loss_changes":[1.3057427E1,1.1905325E1,1.757691E1,1.0100192E1,1.4660489E1,1.0666275E1,1.5470966E1,1.6491564E1,1.4934027E1,6.919594E-1,1.352347E1,0E0,3.1506424E0,1.8324074E1,1.2635046E1,9.682604E0,1.2088662E1,1.9322891E1,1.2801556E1,0E0,0E0,1.1904667E1,1.51879015E1,0E0,2.0549774E-1,0E0,1.4769365E1,5.4949474E0,1.2496014E0,5.6428385E0,2.88842E0,5.8330708E0,5.6118712E0,1.2443256E1,1.3513159E1,6.1696577E0,1.2077273E1,2.9073005E0,6.4519234E0,3.2397041E0,0E0,0E0,0E0,1.0564877E1,6.3706613E0,2.6587029E0,3.2457066E0,0E0,0E0,0E0,0E0,0E0,0E0,0E0,0E0,0E0,0E0,0E0,0E0,0E0,0E0,0E0,0E0,0E0,0E0,0E0,0E0,0E0,0E0,0E0,0E0,0E0,0E0,0E0,0E0,0E0,0E0,0E0,0E0],"parents":[2147483647,0,0,1,1,2,2,3,3,4,4,5,5,6,6,7,7,8,8,9,9,10,10,12,12,13,13,14,14,15,15,16,16,17,17,18,18,21,21,22,22,24,24,26,26,27,27,28,28,29,29,30,30,31,31,32,32,33,33,34,34,35,35,36,36,37,37,38,38,39,39,43,43,44,44,45,45,46,46],"right_children":[2,4,6,8,10,12,14,16,18,20,22,-1,24,26,28,30,32,34,36,-1,-1,38,40,-1,42,-1,44,46,48,50,52,54,56,58,60,62,64,66,68,70,-1,-1,-1,72,74,76,78,-1,-1,-1,-1,-1,-1,-1,-1,-1,-1,-1,-1,-1,-1,-1,-1,-1,-1,-1,-1,-1,-1,-1,-1,-1,-1,-1,-1,-1,-1,-1,-1],"split_conditions":[3.0476665E0,1.0454248E2,1.9825262E2,7.603421E1,8.658288E-1,-2.0983887E0,-4.6331787E-1,9.99591E-1,-2.9577637E-1,2.2271951E2,9.5874023E-1,3.453937E-1,5.590428E1,-1.6091309E0,2.4778496E2,2.5359558E1,1.4324951E0,2.084961E0,-4.3293E-2,4.257773E-2,3.6278254E-1,2.264254E1,1.787854E0,3.3838883E-2,-1.9537354E0,-4.0306973E-1,2.6225646E0,2.0945665E2,8.3236E-3,6.8414307E-1,5.512301E2,-7.3114014E-1,1.762207E0,-2.0534668E0,3.4105755E1,-1.6829584E0,2.8314404E1,1.2087355E2,3.3865424E2,2.3988342E-1,-3.769787E-1,-1.3435704E-1,-4.459971E-1,4.6652325E1,-2.642334E0,8.7785034E1,-1.8612127E0,-2.150442E-2,3.2462776E-1,1.1397114E-1,-2.5372848E-1,-3.8460565E-1,-4.9019217E-2,-3.0995844E-2,3.235525E-1,-3.249446E-1,1.9946368E-1,-3.7483367E-1,1.4298114E-1,3.568845E-1,-2.126033E-1,7.196243E-2,-4.1105598E-1,-1.2012794E-1,5.1090565E-2,-1.2173709E-1,3.458161E-1,-3.8068795E-1,6.92113E-2,3.5974053E-1,-1.4606867E-3,-3.392716E-1,4.150657E-1,3.0588436E-1,-3.054547E-1,2.1277235E-1,-1.3369073E-1,1.3576745E-2,-3.7950143E-1],"split_indices":[18,13,22,11,6,4,4,9,1,22,4,0,11,4,21,15,5,2,1,0,0,15,18,0,16,0,19,22,9,16,20,16,1,16,13,8,15,13,10,17,0,0,0,12,2,10,8,0,0,0,0,0,0,0,0,0,0,0,0,0,0,0,0,0,0,0,0,0,0,0,0,0,0,0,0,0,0,0,0],"split_type":[0,0,0,0,0,0,0,0,0,0,0,0,0,0,0,0,0,0,0,0,0,0,0,0,0,0,0,0,0,0,0,0,0,0,0,0,0,0,0,0,0,0,0,0,0,0,0,0,0,0,0,0,0,0,0,0,0,0,0,0,0,0,0,0,0,0,0,0,0,0,0,0,0,0,0,0,0,0,0],"sum_hessian":[5.5309235E2,4.6654645E2,8.654587E1,4.113766E2,5.5169857E1,2.2853859E1,6.369201E1,6.3179073E1,3.4819754E2,4.856949E0,5.031291E1,1.0886028E0,2.1765257E1,2.7923054E1,3.5768955E1,3.698225E1,2.6196825E1,1.7926799E2,1.6892953E2,1.0276906E0,3.8292582E0,3.6458656E1,1.3854253E1,1.2316564E0,2.05336E1,4.272574E0,2.3650478E1,3.1391193E1,4.3777604E0,1.3910036E1,2.3072212E1,1.7956148E1,8.240678E0,1.5030847E2,2.895952E1,1.2966525E1,1.5596301E2,3.5730765E0,3.288558E1,9.833649E0,4.020604E0,1.2713457E0,1.9262255E1,1.744829E1,6.2021885E0,1.1267652E1,2.0123543E1,1.047105E0,3.3306553E0,8.806557E0,5.103479E0,2.0124311E1,2.9479017E0,5.9006414E0,1.2055507E1,6.5608034E0,1.6798743E0,3.3632941E0,1.4694518E2,3.4418826E0,2.551764E1,2.6753743E0,1.0291151E1,5.8481796E1,9.7481224E1,1.229138E0,2.3439384E0,3.003427E1,2.85131E0,6.695507E0,3.1381416E0,1.1047477E0,1.6343542E1,1.1721898E0,5.029999E0,1.5101616E0,9.75749E0,2.0231287E0,1.8100414E1],"tree_param":{"num_deleted":"0","num_feature":"23","num_nodes":"79","size_leaf_vector":"0"}},{"base_weights":[-8.4140144E-2,2.3394716E-1,-1.3798715E-1,6.983902E-1,2.0095062E-2,-1.0719282E-1,-1.0854077E0,8.711191E-1,-6.329225E-1,-4.8799142E-1,3.8136816E-1,-3.6497933E-1,-9.978533E-3,-1.352776E0,8.2285637E-1,1.0102E0,-9.910091E-1,-9.088385E-1,2.199445E-3,4.515686E-1,-7.869908E-1,4.609555E-1,-8.710145E-1,-1.5324838E-1,-1.2901372E0,-8.2706034E-1,4.7579534E-2,-9.225445E-2,1.0769455E0,-2.857785E-1,9.77511E-1,-1.4501828E0,-3.157915E-1,7.1192175E-1,4.1315537E-2,2.23089E-2,-1.2900882E0,1.1709737E0,-1.4720823E0,-1.1505021E0,2.9624773E-3,-2.1751498E-1,1.7144452E-1,4.0657684E-1,1.111518E0,-5.569611E-1,8.930765E-2,3.5079935E-1,-8.8770545E-1,6.2458556E-2,8.96462E-1,9.1918486E-1,-2.992445E-1,-1.1369948E0,1.8129809E-1,-2.4211124E-1,-1.4439085E0,-1.2369609E0,-5.242307E-2,-7.806215E-1,3.7850985E-1,7.380885E-3,-1.2105522E0,9.306182E-1,8.336869E-2],"categories":[],"categories_nodes":[],"categories_segments":[],"categories_sizes":[],"default_left":[true,true,true,true,true,true,true,true,true,true,true,true,true,false,false,true,false,false,false,true,true,true,false,true,true,true,true,false,true,true,false,false,true,true,true,true,true,false,false,true,true,true,true,false,false,false,false,false,false,false,false,false,false,false,false,false,false,false,false,false,false,false,false,false,false],"id":6,"left_children":[1,3,5,7,9,11,13,15,17,19,21,23,25,-1,-1,27,-1,-1,-1,29,31,33,-1,35,37,39,41,-1,43,45,-1,-1,47,49,51,53,55,-1,-1,57,59,61,63,-1,-1,-1,-1,-1,-1,-1,-1,-1,-1,-1,-1,-1,-1,-1,-1,-1,-1,-1,-1,-1,-1],"loss_changes":[9.08021E0,7.6187725E0,1.3082597E1,6.1161137E0,1.0033948E1,1.1004726E1,8.323486E0,6.657627E0,5.9050906E-1,6.741855E0,3.5827146E0,2.335994E1,1.508922E1,0E0,0E0,1.631237E0,0E0,0E0,0E0,2.6540499E0,5.0450993E0,3.199891E0,0E0,1.978731E1,1.1692688E1,5.6715994E0,9.884612E0,0E0,4.858017E-3,3.877619E-1,0E0,0E0,4.7236457E0,2.2363262E0,4.02319E0,1.6193808E1,1.7879467E0,0E0,0E0,1.3778038E0,2.3312E0,2.1435856E1,1.3626488E1,0E0,0E0,0E0,0E0,0E0,0E0,0E0,0E0,0E0,0E0,0E0,0E0,0E0,0E0,0E0,0E0,0E0,0E0,0E0,0E0,0E0,0E0],"parents":[2147483647,0,0,1,1,2,2,3,3,4,4,5,5,6,6,7,7,8,8,9,9,10,10,11,11,12,12,15,15,19,19,20,20,21,21,23,23,24,24,25,25,26,26,28,28,29,29,32,32,33,33,34,34,35,35,36,36,39,39,40,40,41,41,42,42],"right_children":[2,4,6,8,10,12,14,16,18,20,22,24,26,-1,-1,28,-1,-1,-1,30,32,34,-1,36,38,40,42,-1,44,46,-1,-1,48,50,52,54,56,-1,-1,58,60,62,64,-1,-1,-1,-1,-1,-1,-1,-1,-1,-1,-1,-1,-1,-1,-1,-1,-1,-1,-1,-1,-1,-1],"split_conditions":[3.3349434E1,2.0078702E0,2.8208008E0,1.281324E0,3.6320624E-1,2.7213272E1,2.2126465E0,1.967041E0,1.9303769E0,-2.5041957E0,1.6740399E2,8.017738E1,6.815504E1,-4.0583283E-1,2.4685691E-1,-2.7760844E0,-2.9730275E-1,-2.7265155E-1,6.598335E-4,2.3201315E2,1.5958877E0,3.184805E0,-2.6130435E-1,3.006086E0,-2.3816304E0,1.5319194E0,-1.1234546E0,-2.7676336E-2,-1.9216309E0,-1.9435809E0,2.932533E-1,-4.3505487E-1,6.2559944E1,6.873305E1,3.6924E1,-8.956299E-1,3.259588E1,3.512921E-1,-4.416247E-1,2.7784798E0,8.641568E1,-1.8280548E0,-8.8540524E-1,1.2197306E-1,3.334554E-1,-1.6708834E-1,2.6792297E-2,1.0523981E-1,-2.6631165E-1,1.8737568E-2,2.6893863E-1,2.7575547E-1,-8.977335E-2,-3.4109846E-1,5.438943E-2,-7.263337E-2,-4.3317255E-1,-3.7108827E-1,-1.5726922E-2,-2.3418647E-1,1.1355296E-1,2.2142655E-3,-3.6316568E-1,2.7918547E-1,2.5010608E-2],"split_indices":[21,6,5,8,9,15,1,5,8,9,11,7,11,0,0,14,0,0,0,22,14,19,0,19,8,9,9,0,2,8,0,0,13,10,13,4,7,0,0,8,10,9,9,0,0,0,0,0,0,0,0,0,0,0,0,0,0,0,0,0,0,0,0,0,0],"split_type":[0,0,0,0,0,0,0,0,0,0,0,0,0,0,0,0,0,0,0,0,0,0,0,0,0,0,0,0,0,0,0,0,0,0,0,0,0,0,0,0,0,0,0,0,0,0,0,0,0,0,0,0,0,0,0,0,0,0,0,0,0,0,0,0,0],"sum_hessian":[5.272522E2,7.5849014E1,4.5140317E2,2.319924E1,5.2649773E1,4.3827106E2,1.313213E1,2.0840937E1,2.358303E0,2.1733501E1,3.0916271E1,1.1926295E2,3.190081E2,1.1773615E1,1.3585144E0,1.981823E1,1.0227063E0,1.343625E0,1.014678E0,5.1234803E0,1.6610022E1,2.9663153E1,1.2531188E0,9.800031E1,2.1262634E1,2.0113407E1,2.9889468E2,1.109534E0,1.8708696E1,2.3231564E0,2.8003237E0,6.036407E0,1.0573614E1,1.812623E1,1.1536922E1,8.57402E1,1.2260114E1,1.0894976E0,2.0173136E1,1.4195586E1,5.91782E0,9.494288E1,2.0395181E2,1.5433288E0,1.7165367E1,1.0669073E0,1.2562492E0,5.061193E0,5.512421E0,4.3069577E0,1.3819271E1,2.7497613E0,8.787162E0,9.598594E0,7.61416E1,1.8986446E0,1.0361469E1,1.30422125E1,1.1533737E0,1.567853E0,4.349967E0,7.822061E1,1.672227E1,2.0207369E1,1.8374445E2],"tree_param":{"num_deleted":"0","num_feature":"23","num_nodes":"65","size_leaf_vector":"0"}},{"base_weights":[-6.8225674E-2,1.1398996E0,-8.15879E-2,1.4301978E0,2.6364384E-2,-4.954624E-1,-3.5637062E-2,-8.382748E-1,3.9508972E-1,7.4582654E-1,-8.436502E-2,-1.0837424E0,1.0038327E0,-5.478781E-1,9.4318473E-1,-3.0663037E-1,1.1088022E0,-1.42973205E-2,-4.683839E-1,-1.3104674E-1,-1.4246763E0,1.2866225E0,-2.0934E-2,2.7491432E-1,-9.4472945E-1,1.208331E0,-3.8331848E-1,8.5320014E-1,-6.940008E-1,-4.4860014E-1,1.2593557E0,-5.641294E-2,7.197037E-1,6.746564E-1,-6.810319E-1,6.1854345E-1,-6.189515E-1,-1.4880292E0,-7.0578486E-2,1.3282821E0,4.1570914E-1,-9.7718847E-1,2.2558412E-1,-2.708034E-1,1.40833E0,-1.1043123E0,-2.21861E-2,1.1956441E0,-3.0382055E-1,-8.23862E-2,9.614726E-1,-8.2698345E-1,4.118869E-1],"categories":[],"categories_nodes":[],"categories_segments":[],"categories_sizes":[],"default_left":[true,true,true,false,false,true,true,true,true,true,true,true,true,true,true,true,true,true,true,true,true,false,false,false,false,true,false,false,true,false,true,true,true,true,true,false,false,false,false,false,false,false,false,false,false,false,false,false,false,false,false,false,false],"id":7,"left_children":[1,3,5,-1,-1,7,9,11,13,15,17,19,21,23,25,27,29,31,33,35,37,-1,-1,-1,-1,39,-1,-1,41,-1,43,45,47,49,51,-1,-1,-1,-1,-1,-1,-1,-1,-1,-1,-1,-1,-1,-1,-1,-1,-1,-1],"loss_changes":[8.250379E0,1.7707753E0,9.504928E0,0E0,0E0,1.5583514E1,1.726546E1,1.7544367E1,8.044942E0,1.0508297E1,1.1459594E1,1.0400463E1,1.417511E0,2.2145672E0,3.8323193E0,4.010809E0,5.2563343E0,1.1213027E1,1.6434666E1,3.9273958E0,1.9455681E0,0E0,0E0,0E0,0E0,2.2974491E-1,0E0,0E0,1.8494744E0,0E0,4.6001854E0,1.2268004E1,9.952436E0,2.4267468E0,9.25939E0,0E0,0E0,0E0,0E0,0E0,0E0,0E0,0E0,0E0,0E0,0E0,0E0,0E0,0E0,0E0,0E0,0E0,0E0],"parents":[2147483647,0,0,1,1,2,2,5,5,6,6,7,7,8,8,9,9,10,10,11,11,12,12,13,13,14,14,15,15,16,16,17,17,18,18,19,19,20,20,25,25,28,28,30,30,31,31,32,32,33,33,34,34],"right_children":[2,4,6,-1,-1,8,10,12,14,16,18,20,22,24,26,28,30,32,34,36,38,-1,-1,-1,-1,40,-1,-1,42,-1,44,46,48,50,52,-1,-1,-1,-1,-1,-1,-1,-1,-1,-1,-1,-1,-1,-1,-1,-1,-1,-1],"split_conditions":[-2.4597168E0,-5.8532715E-1,-1.5878906E0,4.2905936E-1,7.909316E-3,1.0415759E2,-1.3807373E0,1.425798E2,-1.7810059E0,3.5193333E1,1.0260866E2,1.5105479E0,2.9823935E0,6.965633E1,-1.8607178E0,2.8749596E1,-1.704956E0,2.0100098E0,8.7943643E-1,-1.8580322E0,2.9530065E0,3.8598678E-1,-6.2802006E-3,8.24743E-2,-2.8341883E-1,5.911745E-1,-1.1499555E-1,2.5596005E-1,7.796418E1,-1.3458005E-1,3.057441E1,-2.8024902E0,7.971802E-1,5.0714266E-1,2.0571674E2,1.8556304E-1,-1.8568546E-1,-4.4640878E-1,-2.1173546E-2,3.9848465E-1,1.2471274E-1,-2.9315656E-1,6.767524E-2,-8.124102E-2,4.22499E-1,-3.312937E-1,-6.6558304E-3,3.5869324E-1,-9.114617E-2,-2.4715861E-2,2.8844178E-1,-2.4809505E-1,1.23566076E-1],"split_indices":[4,1,4,0,0,12,4,3,1,15,12,19,6,11,4,21,5,16,18,1,9,0,0,0,0,9,0,0,0,0,0,17,2,9,21,0,0,0,0,0,0,0,0,0,0,0,0,0,0,0,0,0,0],"split_type":[0,0,0,0,0,0,0,0,0,0,0,0,0,0,0,0,0,0,0,0,0,0,0,0,0,0,0,0,0,0,0,0,0,0,0,0,0,0,0,0,0,0,0,0,0,0,0,0,0,0,0,0,0],"sum_hessian":[5.0431195E2,4.5945582E0,4.997174E2,3.4188812E0,1.175677E0,4.8959732E1,4.5075766E2,3.5393814E1,1.3565921E1,2.5617464E1,4.251402E2,3.1595306E1,3.7985072E0,4.986799E0,8.579123E0,6.60919E0,1.9008274E1,3.6041626E2,6.472395E1,8.691742E0,2.2903564E1,2.7767272E0,1.0217798E0,1.7225971E0,3.2642016E0,7.224207E0,1.3549151E0,1.353654E0,5.2555356E0,1.5010425E0,1.750723E1,3.4173148E2,1.8684776E1,9.811553E0,5.49124E1,3.3213096E0,5.370433E0,2.1785402E1,1.1181619E0,5.6876593E0,1.5365479E0,3.97025E0,1.2852858E0,1.4807035E0,1.6026527E1,9.819837E0,3.3191165E2,1.2639312E1,6.0454655E0,2.8917146E0,6.9198384E0,4.8657818E1,6.2545815E0],"tree_param":{"num_deleted":"0","num_feature":"23","num_nodes":"53","size_leaf_vector":"0"}},{"base_weights":[-4.8317652E-2,6.05004E-1,-7.018374E-2,8.90235E-1,-8.0765736E-1,-5.460483E-2,-1.0396248E0,2.5825197E-1,1.1269317E0,-8.027706E-2,5.479713E-1,-1.316577E0,3.2327467E-1,-8.749247E-1,8.7936103E-1,-3.8513866E-1,-2.8647153E-2,-8.730004E-1,7.1220887E-1,-1.0438746E0,-9.684525E-2,5.533919E-1,-6.813858E-2,1.284228E0,2.3240262E-1,1.4474468E-1,-1.1776224E0,3.990636E-1,-4.0340826E-1,-4.89633E-1,9.764978E-1,1.369099E-1,-1.9222522E-1,-1.0032082E0,6.0915256E-1],"categories":[],"categories_nodes":[],"categories_segments":[],"categories_sizes":[],"default_left":[true,true,true,true,false,true,true,true,false,true,true,false,false,false,false,true,true,false,true,true,true,true,true,false,true,false,false,false,false,false,false,false,false,false,false],"id":8,"left_children":[1,3,5,7,-1,9,11,13,-1,15,17,-1,-1,-1,-1,19,21,-1,23,25,27,29,31,-1,33,-1,-1,-1,-1,-1,-1,-1,-1,-1,-1],"loss_changes":[7.040246E0,7.152992E0,7.115288E0,1.767458E0,0E0,7.290296E0,3.239643E0,4.321503E0,0E0,7.074427E0,5.1187377E0,0E0,0E0,0E0,0E0,1.2264832E1,8.911096E0,0E0,4.5933447E0,3.3054352E0,7.2142906E0,1.135128E1,9.247236E0,0E0,5.69174E0,0E0,0E0,0E0,0E0,0E0,0E0,0E0,0E0,0E0,0E0],"parents":[2147483647,0,0,1,1,2,2,3,3,5,5,6,6,7,7,9,9,10,10,15,15,16,16,18,18,19,19,20,20,21,21,22,22,24,24],"right_children":[2,4,6,8,-1,10,12,14,-1,16,18,-1,-1,-1,-1,20,22,-1,24,26,28,30,32,-1,34,-1,-1,-1,-1,-1,-1,-1,-1,-1,-1],"split_conditions":[5.8761877E-1,1.3243754E0,2.9983373E0,-1.1960639E0,-2.4229722E-1,2.8852017E0,1.3544257E2,8.4444244E1,3.380795E-1,4.1575382E1,3.3056442E1,-3.949731E-1,9.6982405E-2,-2.6247743E-1,2.638083E-1,4.3599373E1,2.2829063E1,-2.6190013E-1,-9.623413E-1,7.4812746E-1,5.558743E1,2.2461352E0,-7.953307E-1,3.8526842E-1,2.6668453E0,4.3423407E-2,-3.5328674E-1,1.1971908E-1,-1.21022485E-1,-1.4688991E-1,2.9294935E-1,4.1072972E-2,-5.766757E-2,-3.0096245E-1,1.8274577E-1],"split_indices":[18,8,9,8,0,9,21,3,0,12,0,0,0,0,0,0,0,0,17,18,7,18,8,0,19,0,0,0,0,0,0,0,0,0,0],"split_type":[0,0,0,0,0,0,0,0,0,0,0,0,0,0,0,0,0,0,0,0,0,0,0,0,0,0,0,0,0,0,0,0,0,0,0],"sum_hessian":[4.8884915E2,1.496781E1,4.7388135E2,1.2761041E1,2.2067692E0,4.6742615E2,6.4552093E0,4.0468817E0,8.714159E0,4.4915698E2,1.8269167E1,5.3932467E0,1.0619626E0,1.288125E0,2.7587569E0,6.411492E1,3.8504205E2,1.4456899E0,1.6823477E1,1.8719936E1,4.5394985E1,2.3638357E1,3.614037E2,6.9095006E0,9.913977E0,1.8850691E0,1.6834867E1,1.7226677E1,2.8168308E1,6.776341E0,1.6862015E1,1.3621321E2,2.2519049E2,1.9279999E0,7.985976E0],"tree_param":{"num_deleted":"0","num_feature":"23","num_nodes":"35","size_leaf_vector":"0"}},{"base_weights":[-3.5392664E-2,9.503649E-1,-4.7995273E-2,1.1041286E0,1.417992E-1,8.847176E-3,-3.2733512E-1,-4.7821943E-2,4.3885386E-1,-9.3850964E-1,-1.4068338E-1,4.092666E-2,-4.1878772E-1,1.0809689E0,1.2164346E-1,-1.0703069E0,2.7694362E-1,2.3284277E-1,-6.26486E-1,7.426661E-2,-1.2691965E0,-6.745861E-1,3.154298E-1,-1.375165E-1,1.4814452E0,-8.566158E-1,5.481229E-1,-1.1402397E0,-4.6202576E-1,4.362778E-1,-1.1277105E0,-1.1635771E0,-6.920451E-2,-4.084345E-2,4.60856E-1,-1.1356762E-1,-9.4708693E-1,6.551852E-1,-1.0651523E0,7.965223E-1,-8.95638E-1,-1.2641145E0,7.693578E-1,-4.5788264E-1,8.325406E-1,9.927932E-1,4.312679E-2,-5.36677E-2,-1.2815493E0,-3.2046577E-1,1.0340691E0],"categories":[],"categories_nodes":[],"categories_segments":[],"categories_sizes":[],"default_left":[true,true,true,false,false,true,true,true,true,true,true,true,true,true,true,true,false,true,true,true,false,true,true,true,false,true,true,false,false,true,false,true,true,false,false,false,false,false,false,false,false,false,false,false,false,false,false,false,false,false,false],"id":9,"left_children":[1,3,5,-1,-1,7,9,11,13,15,17,19,21,23,25,27,-1,29,31,33,-1,35,37,39,-1,41,43,-1,-1,45,-1,47,49,-1,-1,-1,-1,-1,-1,-1,-1,-1,-1,-1,-1,-1,-1,-1,-1,-1,-1],"loss_changes":[6.007324E0,6.025648E-1,7.5416656E0,0E0,0E0,9.658058E0,9.028747E0,1.155097E1,9.268253E0,3.2777271E0,1.1522123E1,1.2482173E1,1.2931567E1,7.588043E0,1.3826729E1,1.9615555E-1,0E0,1.0503582E1,8.157051E0,1.2368388E1,0E0,7.619192E0,9.224915E0,4.0120425E0,0E0,7.6713853E0,6.9350686E0,0E0,0E0,6.9995694E0,0E0,1.7580166E0,4.3704042E0,0E0,0E0,0E0,0E0,0E0,0E0,0E0,0E0,0E0,0E0,0E0,0E0,0E0,0E0,0E0,0E0,0E0,0E0],"parents":[2147483647,0,0,1,1,2,2,5,5,6,6,7,7,8,8,9,9,10,10,11,11,12,12,13,13,14,14,15,15,17,17,18,18,19,19,21,21,22,22,23,23,25,25,26,26,29,29,31,31,32,32],"right_children":[2,4,6,-1,-1,8,10,12,14,16,18,20,22,24,26,28,-1,30,32,34,-1,36,38,40,-1,42,44,-1,-1,46,-1,48,50,-1,-1,-1,-1,-1,-1,-1,-1,-1,-1,-1,-1,-1,-1,-1,-1,-1,-1],"split_conditions":[5.276544E-1,-5.3622437E-1,3.0323138E0,3.312386E-1,4.253976E-2,2.8690333E0,2.5394032E1,8.549568E1,2.8989778E0,1.3229788E2,1.0147095E-1,2.7855408E0,4.2604852E2,9.646165E1,2.9727578E0,1.27733444E2,8.308309E-2,7.649228E1,9.692793E1,1.088623E0,-3.8075897E-1,-1.0763094E0,1.7009264E2,3.5113358E1,4.4443357E-1,2.905415E2,-7.708752E-1,-3.4207192E-1,-1.3860774E-1,5.633503E1,-3.3831316E-1,-1.7855009E0,7.1899784E-1,-1.2253036E-2,1.382568E-1,-3.4070287E-2,-2.841261E-1,1.9655557E-1,-3.195457E-1,2.389567E-1,-2.6869142E-1,-3.7923437E-1,2.3080735E-1,-1.373648E-1,2.4976218E-1,2.9783797E-1,1.2938038E-2,-1.6100312E-2,-3.8446483E-1,-9.613974E-2,3.1022072E-1],"split_indices":[19,4,18,0,0,18,15,7,18,21,4,18,22,11,18,21,0,13,7,4,0,8,7,7,0,10,14,0,0,7,0,8,9,0,0,0,0,0,0,0,0,0,0,0,0,0,0,0,0,0,0],"split_type":[0,0,0,0,0,0,0,0,0,0,0,0,0,0,0,0,0,0,0,0,0,0,0,0,0,0,0,0,0,0,0,0,0,0,0,0,0,0,0,0,0,0,0,0,0,0,0,0,0,0,0],"sum_hessian":[4.788885E2,5.105855E0,4.7378262E2,3.982894E0,1.1229612E0,3.94479E2,7.930362E1,3.493307E2,4.5148315E1,1.7610725E1,6.1692894E1,2.8260977E2,6.672093E1,1.4132594E1,3.101572E1,1.599566E1,1.6150652E0,3.517109E1,2.6521803E1,2.765163E2,6.0934596E0,4.954194E1,1.7178993E1,3.6583502E0,1.0474244E1,9.110186E0,2.1905535E1,1.3561943E1,2.4337173E0,3.11872E1,3.9838896E0,1.2951544E1,1.357026E1,2.1376147E2,6.2754826E1,1.6659824E1,3.2882114E1,1.4207913E1,2.9710793E0,1.6163203E0,2.04203E0,7.462497E0,1.6476889E0,4.6936975E0,1.7211838E1,1.2279719E1,1.890748E1,1.3841422E0,1.1567402E1,1.1630942E1,1.9393172E0],"tree_param":{"num_deleted":"0","num_feature":"23","num_nodes":"51","size_leaf_vector":"0"}}]},"name":"gbtree"},"learner_model_param":{"base_score":"5E-1","num_class":"0","num_feature":"23"},"objective":{"name":"binary:logitraw","reg_loss_param":{"scale_pos_weight":"0.294054061"}}},"version":[1,5,1]}