{"learner":{"attributes":{"best_iteration":"9","best_ntree_limit":"10","best_score":"0.947568"},"feature_names":["lep1pt","lep2pt","lep1eta","lep2eta","lep1phi","lep2phi","drll","ptll","yVlep","phiVlep","mll","mT","mT2","PuppiMET_T1Smear_pt","PuppiMET_T1Smear_phi","photonet","photoneta","drl1a","drl2a","ml1g","ml2g","mllg"],"feature_types":["float","float","float","float","float","float","float","float","float","float","float","float","float","float","float","float","float","float","float","float","float","float"],"gradient_booster":{"model":{"gbtree_model_param":{"num_trees":"10","size_leaf_vector":"0"},"tree_info":[0,0,0,0,0,0,0,0,0,0],"trees":[{"base_weights":[-5.2028143E-1,4.4544426E-1,-7.363066E-1,9.4464195E-1,-2.5489074E-1,-8.9151084E-1,4.69715E-1,-1.4584514E0,1.0555849E0,2.0453097E-1,-1.6381829E0,2.4739619E-1,-9.655763E-1,-1.843396E0,6.0807437E-1,1.1456943E0,-1.0848131E0,8.492908E-1,-1.0618914E0,-2.247872E0,8.018009E-1,-1.9231303E0,6.97525E-1,-1.2772619E0,-5.767742E-1,7.320067E-1,-1.7984186E0,1.2245395E0,-6.004492E-1,-1.763759E-1,-1.4309288E0,-3.9356217E-1,1.2692765E0,-1.3362073E0,8.905659E-1,-6.3997656E-1,-2.361601E0,-1.4369348E0,9.634415E-1,-2.2702043E0,-1.0812981E0,4.7513306E-1,-8.590221E-1,-1.7245227E0,8.647857E-1,-2.1760581E-1,1.320608E0,8.1768423E-1,-1.549677E0,7.1090937E-1,-1.3416215E0,-3.7311655E-1,1.4090449E0,-1.5894221E0,4.5906812E-1,-1.4309288E0,1.1605047E0,-5.67935E-1,-2.3946755E0,8.3068085E-1,-1.1720878E0,7.370073E-1,-1.9177729E0,-1.0746285E0,2.824716E-1,-9.607691E-1,9.531339E-1],"categories":[],"categories_nodes":[],"categories_segments":[],"categories_sizes":[],"default_left":[true,true,true,true,true,true,true,false,true,true,true,true,true,false,true,true,true,true,true,true,false,false,true,true,true,true,false,true,true,false,false,true,true,true,false,false,false,false,true,true,true,true,true,false,true,false,false,false,false,false,false,false,false,false,false,false,false,false,false,false,false,false,false,false,false,false,false],"id":0,"left_children":[1,3,5,7,9,11,13,-1,15,17,19,21,23,-1,25,27,29,31,33,35,-1,-1,37,39,41,43,-1,45,47,-1,-1,49,51,53,-1,-1,-1,-1,55,57,59,61,63,-1,65,-1,-1,-1,-1,-1,-1,-1,-1,-1,-1,-1,-1,-1,-1,-1,-1,-1,-1,-1,-1,-1,-1],"loss_changes":[1.3388927E2,4.13733E1,9.8417786E1,1.9909649E1,3.1952183E1,3.9396362E1,2.0435287E1,0E0,1.4057739E1,3.212282E1,2.041957E1,2.9812668E1,5.2107483E1,0E0,1.8523731E1,9.580246E0,7.531023E-1,1.4014709E1,8.336712E0,3.676834E-1,0E0,0E0,1.5500042E1,4.448053E1,5.8556595E1,1.9620352E1,0E0,8.849243E0,5.906696E0,0E0,0E0,8.600698E0,5.022524E0,6.2301025E0,0E0,0E0,0E0,0E0,1.2377588E1,6.871399E0,3.627507E1,2.778096E1,3.8395805E1,0E0,9.527756E0,0E0,0E0,0E0,0E0,0E0,0E0,0E0,0E0,0E0,0E0,0E0,0E0,0E0,0E0,0E0,0E0,0E0,0E0,0E0,0E0,0E0,0E0],"parents":[2147483647,0,0,1,1,2,2,3,3,4,4,5,5,6,6,8,8,9,9,10,10,11,11,12,12,14,14,15,15,16,16,17,17,18,18,19,19,22,22,23,23,24,24,25,25,27,27,28,28,31,31,32,32,33,33,38,38,39,39,40,40,41,41,42,42,44,44],"right_children":[2,4,6,8,10,12,14,-1,16,18,20,22,24,-1,26,28,30,32,34,36,-1,-1,38,40,42,44,-1,46,48,-1,-1,50,52,54,-1,-1,-1,-1,56,58,60,62,64,-1,66,-1,-1,-1,-1,-1,-1,-1,-1,-1,-1,-1,-1,-1,-1,-1,-1,-1,-1,-1,-1,-1,-1],"split_conditions":[3.3761482E1,2.4783547E0,2.971742E2,2.2969236E1,-5.0377417E-1,-2.8580894E0,2.1605562E1,-4.3753543E-1,4.902617E1,8.489583E1,2.4242663E0,8.815053E1,6.0376045E1,-5.530188E-1,1.7805643E2,6.1261124E1,2.7755545E1,-1.9758482E0,2.149834E2,-1.1430054E0,2.4054028E-1,-5.769391E-1,3.815383E1,7.4964066E1,4.8795486E1,5.3654564E1,-5.395256E-1,6.0887665E-1,2.054815E1,-5.291277E-2,-4.2927867E-1,3.4478615E1,2.9778439E1,-4.0290833E-2,2.6716977E-1,-1.9199298E-1,-7.0848036E-1,-4.3108046E-1,1.5685117E0,-1.9702148E0,6.964758E-1,1.5122127E2,2.5253906E0,-5.173568E-1,4.1180027E1,-6.528175E-2,3.9618242E-1,2.4530528E-1,-4.6490312E-1,2.1327282E-1,-4.0248647E-1,-1.1193497E-1,4.227135E-1,-4.7682664E-1,1.3772044E-1,-4.2927867E-1,3.4815142E-1,-1.703805E-1,-7.184027E-1,2.4920426E-1,-3.5162634E-1,2.2110221E-1,-5.7533187E-1,-3.2238856E-1,8.474148E-2,-2.8823075E-1,2.8594017E-1],"split_indices":[20,6,10,0,8,14,15,0,15,12,9,19,0,0,7,0,0,8,10,3,0,0,1,11,7,1,0,17,20,0,0,7,1,2,0,0,0,0,18,16,18,19,4,0,7,0,0,0,0,0,0,0,0,0,0,0,0,0,0,0,0,0,0,0,0,0,0],"split_type":[0,0,0,0,0,0,0,0,0,0,0,0,0,0,0,0,0,0,0,0,0,0,0,0,0,0,0,0,0,0,0,0,0,0,0,0,0,0,0,0,0,0,0,0,0,0,0,0,0,0,0,0,0,0,0,0,0,0,0,0,0,0,0,0,0,0,0],"sum_hessian":[6.392101E2,1.1665406E2,5.22556E2,6.7903625E1,4.875044E1,4.6320627E2,5.9349743E1,2.4605525E0,6.544307E1,3.7235767E1,1.1514673E1,2.8140995E1,4.3506528E2,2.6541445E0,5.66956E1,6.3245213E1,2.1978564E0,2.4892101E1,1.2343665E1,9.27566E0,2.2390137E0,4.271478E0,2.3869516E1,2.402124E2,1.9485287E2,5.4580563E1,2.1150334E0,6.0798634E1,2.4465792E0,1.0228378E0,1.1750185E0,6.3029265E0,1.8589174E1,1.1099797E1,1.2438682E0,1.0505301E0,8.22513E0,2.1564448E0,2.1713072E1,3.784881E1,2.023636E2,4.1077633E1,1.5377525E2,2.184137E0,5.2396427E1,3.7181396E0,5.7080494E1,1.0365568E0,1.4100223E0,3.0268478E0,3.2760787E0,1.3269453E0,1.7262228E1,9.828237E0,1.2715605E0,1.1750185E0,2.0538054E1,2.957998E0,3.4890812E1,8.804128E0,1.9355946E2,3.7649372E1,3.4282596E0,1.293938E2,2.4381445E1,1.9628526E0,5.0433575E1],"tree_param":{"num_deleted":"0","num_feature":"22","num_nodes":"67","size_leaf_vector":"0"}},{"base_weights":[-3.572413E-1,1.411657E-1,-5.9295875E-1,5.500555E-1,-1.1571043E-1,-6.7279726E-1,2.555898E-1,7.814281E-1,-1.115684E0,-1.2789998E0,9.616946E-2,8.044058E-2,-7.703613E-1,-1.3289058E0,5.0653774E-1,-1.613735E0,9.084974E-1,-1.6704175E0,6.73625E-1,8.8935894E-1,-1.8934166E0,-1.35289E0,2.0782818E-1,-1.0500048E0,6.5880185E-1,-6.944251E-1,-1.8720413E0,7.321018E-1,-1.9547151E0,-3.4085533E-1,9.700611E-1,1.0567731E0,-1.0967145E0,-1.9592158E0,-1.344811E-2,-7.975026E-2,1.1654322E0,-2.0333598E0,-7.405054E-1,-1.7619152E0,7.321018E-1,7.689385E-1,-1.0855053E-1,-1.3697081E0,9.586088E-1,-1.5036144E0,8.501102E-1,2.27447E-2,-7.946103E-1,-2.0121775E0,-9.709428E-1,1.025227E0,-1.2741652E0,1.1644357E0,-6.9804794E-1,-1.2371066E0,1.120858E0,-1.7642345E0,7.3420596E-1,-3.5231444E-3,-1.1544734E0,-4.99474E-1,1.1818612E0,1.3466105E-1,-1.5065218E0,-1.8535103E0,5.1357597E-3,-8.2868457E-1,1.0464171E0,-8.229348E-1,7.317643E-1,-1.4930882E0,-6.619246E-1,2.502101E-1,1.1438228E0,-2.035338E0,4.8635063E-1,-4.3064058E-1,1.2816116E0],"categories":[],"categories_nodes":[],"categories_segments":[],"categories_sizes":[],"default_left":[true,true,true,true,true,true,true,true,true,true,true,true,true,true,true,false,true,true,false,true,true,true,true,true,true,true,true,false,false,true,true,true,true,false,false,false,false,false,true,false,false,true,true,true,false,false,true,true,true,false,false,true,true,true,false,false,false,false,false,false,false,false,false,false,false,false,false,false,false,false,false,false,false,false,false,false,false,false,false],"id":1,"left_children":[1,3,5,7,9,11,13,15,17,19,21,23,25,27,29,-1,31,33,-1,35,37,39,41,43,45,47,49,-1,-1,51,53,55,57,-1,-1,-1,-1,-1,59,-1,-1,61,63,65,-1,-1,67,69,71,-1,-1,73,75,77,-1,-1,-1,-1,-1,-1,-1,-1,-1,-1,-1,-1,-1,-1,-1,-1,-1,-1,-1,-1,-1,-1,-1,-1,-1],"loss_changes":[7.5678734E1,2.1848967E1,2.9780151E1,3.1781713E1,3.1724218E1,2.9437881E1,1.5905771E1,2.3077328E1,1.1242921E1,2.809517E1,1.7980024E1,3.1253258E1,2.8313782E1,8.542611E0,1.3604971E1,0E0,2.1397823E1,3.8345757E0,0E0,1.4460359E0,1.0381203E0,8.077505E0,1.8266846E1,1.1720167E1,1.4324945E1,2.392627E1,8.5424805E-1,0E0,0E0,1.7485216E1,7.980337E0,1.0778992E1,7.6232495E0,0E0,0E0,0E0,0E0,0E0,9.964392E-1,0E0,0E0,1.9997662E1,2.2770193E1,9.582972E0,0E0,0E0,1.0626392E1,2.564069E1,2.607309E1,0E0,0E0,2.3814917E-1,1.1689986E1,4.322426E0,0E0,0E0,0E0,0E0,0E0,0E0,0E0,0E0,0E0,0E0,0E0,0E0,0E0,0E0,0E0,0E0,0E0,0E0,0E0,0E0,0E0,0E0,0E0,0E0,0E0],"parents":[2147483647,0,0,1,1,2,2,3,3,4,4,5,5,6,6,7,7,8,8,9,9,10,10,11,11,12,12,13,13,14,14,16,16,17,17,19,19,20,20,21,21,22,22,23,23,24,24,25,25,26,26,29,29,30,30,31,31,32,32,38,38,41,41,42,42,43,43,46,46,47,47,48,48,51,51,52,52,53,53],"right_children":[2,4,6,8,10,12,14,16,18,20,22,24,26,28,30,-1,32,34,-1,36,38,40,42,44,46,48,50,-1,-1,52,54,56,58,-1,-1,-1,-1,-1,60,-1,-1,62,64,66,-1,-1,68,70,72,-1,-1,74,76,78,-1,-1,-1,-1,-1,-1,-1,-1,-1,-1,-1,-1,-1,-1,-1,-1,-1,-1,-1,-1,-1,-1,-1,-1,-1],"split_conditions":[1.5586848E0,1.333002E2,2.9636725E2,2.1220703E0,2.5044594E0,3.8451126E1,2.1892219E0,-1.2318115E0,2.091919E0,-1.7666016E0,-2.2297363E0,-1.5016937E-1,2.7080245E0,-3.0183163E0,-7.255783E-2,-4.8412052E-1,1.1612549E0,2.991211E0,2.020875E-1,-1.1734351E-1,2.6802764E0,3.1459842E2,2.8640811E0,8.420811E1,-2.5002441E0,4.081539E1,2.3435059E0,2.1963055E-1,-5.864146E-1,-2.0251684E0,9.7717285E-1,-2.9841309E0,6.479219E1,-5.8776474E-1,-4.034433E-3,-2.3925079E-2,3.4962967E-1,-6.1000794E-1,5.982666E-1,-5.285746E-1,2.1963055E-1,-1.2029679E0,9.096185E1,2.1607218E0,2.8758267E-1,-4.5108435E-1,3.1916918E1,7.067721E-1,7.603405E1,-6.0365325E-1,-2.9128286E-1,-3.380743E0,3.1137994E2,5.48136E1,-2.094144E-1,-3.71132E-1,3.362574E-1,-5.292704E-1,2.202618E-1,-1.0569433E-3,-3.4634203E-1,-1.498422E-1,3.5455835E-1,4.0398315E-2,-4.5195657E-1,-5.560531E-1,1.540728E-3,-2.4860539E-1,3.1392515E-1,-2.4688046E-1,2.195293E-1,-4.479265E-1,-1.9857739E-1,7.5063035E-2,3.4314686E-1,-6.106014E-1,1.459052E-1,-1.2919217E-1,3.844835E-1],"split_indices":[17,21,10,5,18,7,17,3,16,16,4,4,14,8,9,0,2,5,0,14,8,1,18,0,5,20,2,0,0,8,16,5,1,0,0,0,0,0,5,0,0,9,13,14,0,0,7,9,11,0,0,8,0,20,0,0,0,0,0,0,0,0,0,0,0,0,0,0,0,0,0,0,0,0,0,0,0,0,0],"split_type":[0,0,0,0,0,0,0,0,0,0,0,0,0,0,0,0,0,0,0,0,0,0,0,0,0,0,0,0,0,0,0,0,0,0,0,0,0,0,0,0,0,0,0,0,0,0,0,0,0,0,0,0,0,0,0,0,0,0,0,0,0,0,0,0,0,0,0,0,0,0,0,0,0,0,0,0,0,0,0],"sum_hessian":[6.4245374E2,2.0641203E2,4.360417E2,7.920073E1,1.272113E2,3.9873273E2,3.7308956E1,7.000751E1,9.19322E0,1.8824152E1,1.0838715E2,4.5744015E1,3.529887E2,4.513703E0,3.2795254E1,2.9375327E0,6.706998E1,7.0683036E0,2.1249173E0,4.057436E0,1.4766717E1,6.9590654E0,1.01428085E2,1.5206474E1,3.0537542E1,3.3175217E2,2.1236555E1,1.011764E0,3.5019386E0,1.1689559E1,2.1105694E1,6.289238E1,4.1775985E0,5.863864E0,1.2044398E0,1.0572526E0,3.0001833E0,1.2487305E1,2.2794127E0,5.9473014E0,1.011764E0,3.6054157E1,6.537393E1,1.3392866E1,1.8136076E0,1.9245152E0,2.8613026E1,4.0758434E1,2.9099374E2,1.7311323E1,3.9252331E0,4.704749E0,6.98481E0,1.917347E1,1.9322249E0,1.2118211E0,6.1680557E1,3.088141E0,1.0894576E0,1.1825838E0,1.0968288E0,8.803141E0,2.7251019E1,5.6455734E1,8.918194E0,9.649192E0,3.7436743E0,2.6582868E0,2.595474E1,1.8514587E1,2.2243845E1,4.4817055E1,2.4617668E2,1.0371046E0,3.6676447E0,4.767459E0,2.2173514E0,1.1290414E0,1.8044428E1],"tree_param":{"num_deleted":"0","num_feature":"22","num_nodes":"79","size_leaf_vector":"0"}},{"base_weights":[-2.6080886E-1,2.4892648E-1,-3.879372E-1,3.9263633E-1,-7.0824546E-1,-4.630776E-1,2.6949024E-1,7.6200527E-1,4.081679E-2,-9.559028E-1,6.579261E-1,-4.1158208E-1,-1.3426164E0,-7.0642006E-1,4.586889E-1,8.522693E-1,-1.3219669E0,-6.0552716E-1,6.899083E-1,-2.5394467E-1,-1.2443244E0,-3.1051558E-1,-8.753003E-1,1.6899441E-1,-1.683725E0,4.4252825E-1,-1.4760784E0,6.1063844E-1,-1.0958788E0,-1.1263659E0,9.203999E-1,4.7720852E-1,-1.141579E0,-2.7052552E-2,9.2800593E-1,7.610439E-1,-1.0074987E0,-1.4102677E0,1.2748188E-1,-4.5980456E-1,1.6526839E-1,-1.0576645E0,1.1607583E0,-9.4597256E-1,6.4768386E-1,-1.6223714E-2,-1.8104718E0,-2.5021818E-1,8.604516E-1,7.122191E-1,-1.0444146E0,-2.2149745E-1,-1.3326945E0,5.72261E-1,1.3422718E0,9.004507E-1,-1.2851715E0,-1.3251994E0,8.5524416E-1,-9.71638E-1,8.978508E-1,-2.2411527E-1,9.970172E-1,-8.876176E-1,-1.8213758E-1,3.7272075E-1,-1.2190377E0,-1.4693385E0,-3.9290962E-1,-4.6409965E-1,1.5311805E0,1.1254555E0,-4.543991E-1,9.928596E-1,2.385634E-1],"categories":[],"categories_nodes":[],"categories_segments":[],"categories_sizes":[],"default_left":[true,true,true,true,true,true,true,true,true,true,false,true,true,true,true,true,false,true,true,true,true,true,true,true,true,true,false,true,true,false,true,true,true,true,true,false,false,false,false,true,true,true,true,false,true,false,false,false,false,true,false,false,false,false,false,false,false,false,false,false,false,false,false,false,false,false,false,false,false,false,false,false,false,false,false],"id":2,"left_children":[1,3,5,7,9,11,13,15,17,19,-1,21,23,25,27,29,-1,31,33,35,37,39,41,43,45,47,-1,49,51,-1,53,55,57,59,61,-1,-1,-1,-1,63,65,67,69,-1,71,-1,-1,-1,-1,73,-1,-1,-1,-1,-1,-1,-1,-1,-1,-1,-1,-1,-1,-1,-1,-1,-1,-1,-1,-1,-1,-1,-1,-1,-1],"loss_changes":[4.0545414E1,1.7501106E1,2.482373E1,1.4199438E1,6.2797127E0,1.9786766E1,9.909885E0,1.1164932E1,2.439106E1,2.629015E0,0E0,1.967794E1,1.2863651E1,8.456434E0,1.10844145E1,8.01384E0,0E0,1.7471832E1,4.9718447E0,4.9677424E0,2.4683905E0,2.5010807E1,2.9306847E1,3.4949968E0,4.1966934E0,1.4628851E0,0E0,7.6045847E0,5.918484E-1,0E0,6.6612206E0,8.8869915E0,8.393753E0,8.032771E0,1.9553261E0,0E0,0E0,0E0,0E0,3.1611126E1,2.4743374E1,1.8559814E1,4.739216E0,0E0,2.8133733E0,0E0,0E0,0E0,0E0,4.952997E0,0E0,0E0,0E0,0E0,0E0,0E0,0E0,0E0,0E0,0E0,0E0,0E0,0E0,0E0,0E0,0E0,0E0,0E0,0E0,0E0,0E0,0E0,0E0,0E0,0E0],"parents":[2147483647,0,0,1,1,2,2,3,3,4,4,5,5,6,6,7,7,8,8,9,9,11,11,12,12,13,13,14,14,15,15,17,17,18,18,19,19,20,20,21,21,22,22,23,23,24,24,25,25,27,27,28,28,30,30,31,31,32,32,33,33,34,34,39,39,40,40,41,41,42,42,44,44,49,49],"right_children":[2,4,6,8,10,12,14,16,18,20,-1,22,24,26,28,30,-1,32,34,36,38,40,42,44,46,48,-1,50,52,-1,54,56,58,60,62,-1,-1,-1,-1,64,66,68,70,-1,72,-1,-1,-1,-1,74,-1,-1,-1,-1,-1,-1,-1,-1,-1,-1,-1,-1,-1,-1,-1,-1,-1,-1,-1,-1,-1,-1,-1,-1,-1],"split_conditions":[3.8585922E1,2.3742676E0,2.971742E2,-2.2297668E-1,1.6551514E0,1.2704052E2,8.581201E1,1.3225098E0,7.7057105E-1,4.6770844E1,1.9737783E-1,3.0476665E0,2.8178432E1,1.9020841E0,1.6999524E2,-2.956787E0,-3.9659008E-1,1.014901E2,2.3750296E1,3.928076E1,1.9171255E2,1.1286621E0,9.921211E1,1.5793939E2,-1.9813232E0,6.1776733E-1,-4.4282353E-1,2.6245117E0,2.9337811E0,-3.379098E-1,-2.1757507E-1,1.1846924E0,2.3190918E0,6.650001E1,8.013318E1,2.2831318E-1,-3.0224964E-1,-4.2308033E-1,3.8244564E-2,4.7526787E1,1.3015137E0,1.2857413E2,-4.6835327E-1,-2.8379178E-1,1.2634688E2,-4.867114E-3,-5.4314154E-1,-7.506546E-2,2.581355E-1,1.3878937E2,-3.133244E-1,-6.644924E-2,-3.9980838E-1,1.716783E-1,4.0268156E-1,2.7013522E-1,-3.8555148E-1,-3.9755982E-1,2.5657326E-1,-2.9149142E-1,2.6935527E-1,-6.723458E-2,2.9910517E-1,-2.662853E-1,-5.4641277E-2,1.1181623E-1,-3.657113E-1,-4.408016E-1,-1.1787289E-1,-1.392299E-1,4.5935416E-1,3.3763665E-1,-1.3631974E-1,2.9785788E-1,7.1569026E-2],"split_indices":[20,5,10,3,2,13,1,2,9,13,0,17,15,18,7,4,0,21,15,7,19,3,1,21,3,16,0,4,6,0,16,3,16,12,21,0,0,0,0,0,5,20,5,0,10,0,0,0,0,0,0,0,0,0,0,0,0,0,0,0,0,0,0,0,0,0,0,0,0,0,0,0,0,0,0],"split_type":[0,0,0,0,0,0,0,0,0,0,0,0,0,0,0,0,0,0,0,0,0,0,0,0,0,0,0,0,0,0,0,0,0,0,0,0,0,0,0,0,0,0,0,0,0,0,0,0,0,0,0,0,0,0,0,0,0,0,0,0,0,0,0,0,0,0,0,0,0,0,0,0,0,0,0],"sum_hessian":[6.2319305E2,1.2420822E2,4.9898483E2,1.085068E2,1.5701423E1,4.4806863E2,5.0916214E1,5.2364433E1,5.614237E1,1.3546112E1,2.1553113E0,4.246727E2,2.3395931E1,7.8242106E0,4.3092003E1,5.075701E1,1.6074247E0,2.8164352E1,2.7978016E1,4.492578E0,9.053534E0,3.5004965E2,7.4623024E1,4.400378E0,1.8995554E1,3.309224E0,4.514987E0,3.980819E1,3.2838109E0,1.1725184E0,4.958449E1,9.362807E0,1.8801544E1,7.195939E0,2.0782076E1,1.9099966E0,2.5825813E0,8.051528E0,1.0020058E0,2.6647128E2,8.357838E1,6.892971E1,5.6933146E0,1.028535E0,3.371843E0,1.4215403E0,1.7574013E1,1.3961909E0,1.913033E0,3.8042934E1,1.7652566E0,1.1122879E0,2.1715229E0,2.845731E1,2.112718E1,7.9440784E0,1.4187291E0,1.7526243E1,1.2753018E0,3.5350912E0,3.660848E0,1.0474657E0,1.973461E1,1.0401475E2,1.6245654E2,7.33212E1,1.0257176E1,4.1820488E1,2.7109224E1,1.0100101E0,4.6833043E0,2.3373535E0,1.0344898E0,2.32005E1,1.4842434E1],"tree_param":{"num_deleted":"0","num_feature":"22","num_nodes":"75","size_leaf_vector":"0"}},{"base_weights":[-1.9339305E-1,9.8906755E-2,-3.2721087E-1,4.5150688E-1,-7.9091005E-2,-2.8575772E-1,-1.5798959E0,6.1562514E-1,-6.171932E-1,-1.5986804E0,2.407195E-2,-1.7809103E-1,-7.19802E-1,7.4718213E-1,-1.351992E0,-1.0715587E0,7.371659E-1,-1.279683E-1,8.289892E-1,-7.434152E-1,-6.431648E-2,1.1930177E0,-9.0603495E-1,2.2947451E-1,1.1112051E0,1.7372495E-1,-1.3974522E0,7.480565E-1,-3.1848124E-1,1.1036832E0,-1.2565026E0,-1.4966248E0,-2.6183504E-1,2.518593E-1,-3.0330995E-1,-1.0032498E0,1.786756E0,6.3225603E-1,-1.0354717E0,7.268002E-1,-1.6259837E0,-7.7128285E-1,1.2034016E0,9.836857E-1,-7.560181E-1,-4.6920884E-1,6.109372E-1,-5.73992E-1,1.24622E0,4.178773E-1,-7.1150637E-1,-4.255049E-2,1.0648932E0,2.1643555E-1,-5.639741E-1,-8.137613E-1,1.0764908E0,1.1377317E0,-1.1011093E0],"categories":[],"categories_nodes":[],"categories_segments":[],"categories_sizes":[],"default_left":[true,true,true,true,true,true,false,true,true,false,true,true,true,true,false,true,false,true,true,true,true,true,true,true,true,false,false,true,true,true,false,false,true,true,true,false,false,true,true,false,false,false,false,false,false,false,false,false,false,false,false,false,false,false,false,false,false,false,false],"id":3,"left_children":[1,3,5,7,9,11,-1,13,15,-1,17,19,21,23,-1,25,-1,27,29,31,33,35,37,39,41,-1,-1,43,45,47,-1,-1,49,51,53,-1,-1,55,57,-1,-1,-1,-1,-1,-1,-1,-1,-1,-1,-1,-1,-1,-1,-1,-1,-1,-1,-1,-1],"loss_changes":[2.3485435E1,1.190176E1,2.0918343E1,1.1530357E1,1.9867798E1,1.8544495E1,0E0,1.5405344E1,6.305255E0,0E0,1.4722424E1,2.0629745E1,2.925399E1,9.689909E0,0E0,3.1317425E0,0E0,1.7148773E1,1.233396E1,1.9110573E1,2.0381662E1,1.15053425E1,1.5117802E1,2.2448208E1,6.2605133E0,0E0,0E0,7.264019E0,1.2043898E1,4.8803997E0,0E0,0E0,1.06919365E1,2.7865623E1,2.0916866E1,0E0,0E0,4.896311E0,1.0864082E1,0E0,0E0,0E0,0E0,0E0,0E0,0E0,0E0,0E0,0E0,0E0,0E0,0E0,0E0,0E0,0E0,0E0,0E0,0E0,0E0],"parents":[2147483647,0,0,1,1,2,2,3,3,4,4,5,5,7,7,8,8,10,10,11,11,12,12,13,13,15,15,17,17,18,18,19,19,20,20,21,21,22,22,23,23,24,24,27,27,28,28,29,29,32,32,33,33,34,34,37,37,38,38],"right_children":[2,4,6,8,10,12,-1,14,16,-1,18,20,22,24,-1,26,-1,28,30,32,34,36,38,40,42,-1,-1,44,46,48,-1,-1,50,52,54,-1,-1,56,58,-1,-1,-1,-1,-1,-1,-1,-1,-1,-1,-1,-1,-1,-1,-1,-1,-1,-1,-1,-1],"split_conditions":[1.5844209E0,2.2783213E0,2.8208008E0,2.1220703E0,2.023169E0,9.569244E1,-4.7396877E-1,1.1693115E0,3.0574927E0,-4.7960413E-1,1.4509132E0,4.1647545E1,8.658288E-1,2.3994446E-1,-4.0559763E-1,6.9152206E-1,2.2114979E-1,6.033864E-1,2.9470568E0,4.945738E1,-3.140564E-1,1.01863174E2,-1.9793701E0,3.0520874E1,2.4812702E1,5.2117486E-2,-4.1923568E-1,1.5681385E0,3.4273993E2,1.01727776E2,-3.769508E-1,-4.4898745E-1,5.809159E1,-5.9246826E-1,-1.4165577E0,-3.0097494E-1,5.3602684E-1,2.6653494E2,-3.0979004E0,2.1804006E-1,-4.8779514E-1,-2.3138486E-1,3.6102048E-1,2.9510573E-1,-2.2680543E-1,-1.4076266E-1,1.8328115E-1,-1.7219761E-1,3.7386602E-1,1.2536319E-1,-2.1345192E-1,-1.2765148E-2,3.19468E-1,6.493067E-2,-1.6919222E-1,-2.4412839E-1,3.2294723E-1,3.413195E-1,-3.303328E-1],"split_indices":[17,6,5,5,18,12,0,2,18,0,17,12,6,5,0,17,0,17,18,0,2,13,3,0,0,0,0,8,10,10,0,0,7,2,14,0,0,21,5,0,0,0,0,0,0,0,0,0,0,0,0,0,0,0,0,0,0,0,0],"split_type":[0,0,0,0,0,0,0,0,0,0,0,0,0,0,0,0,0,0,0,0,0,0,0,0,0,0,0,0,0,0,0,0,0,0,0,0,0,0,0,0,0,0,0,0,0,0,0,0,0,0,0,0,0,0,0,0,0,0,0],"sum_hessian":[5.9859393E2,1.8806415E2,4.105298E2,6.257373E1,1.25490425E2,3.985687E2,1.1961092E1,5.461115E1,7.96258E0,7.056188E0,1.18434235E2,3.2048196E2,7.808673E1,5.177001E1,2.8411381E0,6.118673E0,1.8439075E0,1.0032494E2,1.8109291E1,5.2765602E1,2.6771634E2,6.448404E0,7.163833E1,2.2046385E1,2.9723627E1,1.3659849E0,4.752688E0,1.7398031E1,8.292692E1,1.6417599E1,1.6916912E0,1.9757065E1,3.3008537E1,1.1522539E2,1.5249097E2,1.2255002E0,5.2229037E0,5.2585382E0,6.637979E1,1.7865986E1,4.180399E0,1.0438763E0,2.867975E1,1.534073E1,2.0573015E0,7.1781044E1,1.1145869E1,1.0485904E0,1.5369009E1,1.3170712E1,1.9837826E1,8.528888E1,2.993651E1,5.0990086E1,1.0150088E2,1.0403368E0,4.218201E0,1.4672408E0,6.4912544E1],"tree_param":{"num_deleted":"0","num_feature":"22","num_nodes":"59","size_leaf_vector":"0"}},{"base_weights":[-1.4408001E-1,2.0258762E-1,-2.2338612E-1,2.5988817E-1,-1.2437656E0,-9.1857636E-1,-1.7433502E-1,-5.443751E-1,3.548314E-1,6.457094E-1,-1.0962493E0,1.962148E-2,-3.6966592E-1,4.0912354E-1,-1.3999411E0,8.2549524E-1,1.5330163E-1,-2.2884484E-3,8.936479E-1,-1.2196115E0,7.588445E-1,1.7783438E-1,-5.927997E-1,-1.458763E0,-2.2866015E-1,-9.4002956E-1,8.560563E-1,-1.6380397E0,-2.4679834E-1,8.107613E-2,1.0518669E0,-5.829585E-1,5.631935E-1,-4.8198274E-1,-1.3660161E0,7.685448E-2,1.0949632E0,1.0343091E0,-8.5834736E-1,1.191169E-1,-1.5395113E0,-6.101012E-1,1.915429E-2,9.607727E-1,2.1328378E-1,-1.2347932E0,5.806332E-1,1.1366721E0,-3.283497E-1,3.9623687E-1,-8.1019217E-1,7.7918327E-1,-2.2949436E-1,-1.1863356E0,6.0114753E-1,-3.6185348E-1,-1.4044574E0,-1.8955417E-1,5.15891E-1,1.2860764E0,-8.826335E-1,1.219829E-1,1.3394849E0,-1.0938747E0,7.881913E-1,-4.4969004E-1,-1.6103714E0,9.1394156E-1,-8.3613443E-1,-3.4749037E-1,4.7495198E-1],"categories":[],"categories_nodes":[],"categories_segments":[],"categories_sizes":[],"default_left":[true,true,true,true,false,true,true,true,true,true,true,true,true,true,true,true,true,false,false,true,false,true,true,true,true,false,true,false,false,true,true,true,true,true,true,true,true,true,true,false,true,true,true,false,false,false,false,false,false,false,false,false,false,false,false,false,false,false,false,false,false,false,false,false,false,false,false,false,false,false,false],"id":4,"left_children":[1,3,5,7,-1,9,11,13,15,17,19,21,23,25,27,29,31,-1,-1,33,-1,35,37,39,41,-1,43,-1,-1,45,47,49,51,53,55,57,59,61,63,-1,65,67,69,-1,-1,-1,-1,-1,-1,-1,-1,-1,-1,-1,-1,-1,-1,-1,-1,-1,-1,-1,-1,-1,-1,-1,-1,-1,-1,-1,-1],"loss_changes":[1.581745E1,9.218451E0,1.5776514E1,8.139691E0,0E0,9.203611E0,1.6593037E1,9.858487E0,8.759724E0,6.0407066E-1,7.2922173E0,2.1481436E1,3.3170586E1,4.5173125E0,1.3050356E0,4.60948E0,2.0495356E1,0E0,0E0,2.2001114E0,0E0,1.6223942E1,2.055735E1,3.346077E0,1.8382675E1,0E0,1.4161158E-1,0E0,0E0,5.6996083E0,2.8639984E0,5.7479E0,7.6155386E0,5.2363E0,3.232956E-1,1.8776968E1,7.7075653E0,1.7411776E0,1.6251377E1,0E0,1.1049919E0,2.7140856E1,2.0014832E1,0E0,0E0,0E0,0E0,0E0,0E0,0E0,0E0,0E0,0E0,0E0,0E0,0E0,0E0,0E0,0E0,0E0,0E0,0E0,0E0,0E0,0E0,0E0,0E0,0E0,0E0,0E0,0E0],"parents":[2147483647,0,0,1,1,2,2,3,3,5,5,6,6,7,7,8,8,9,9,10,10,11,11,12,12,13,13,14,14,15,15,16,16,19,19,21,21,22,22,23,23,24,24,26,26,29,29,30,30,31,31,32,32,33,33,34,34,35,35,36,36,37,37,38,38,40,40,41,41,42,42],"right_children":[2,4,6,8,-1,10,12,14,16,18,20,22,24,26,28,30,32,-1,-1,34,-1,36,38,40,42,-1,44,-1,-1,46,48,50,52,54,56,58,60,62,64,-1,66,68,70,-1,-1,-1,-1,-1,-1,-1,-1,-1,-1,-1,-1,-1,-1,-1,-1,-1,-1,-1,-1,-1,-1,-1,-1,-1,-1,-1,-1],"split_conditions":[3.8585922E1,9.279027E1,6.4661514E1,2.4389557E1,-3.731297E-1,2.0813717E1,-2.886963E-1,7.3120475E-1,-2.1447754E0,6.696714E1,3.6617383E2,8.842261E1,6.97937E-2,-7.584894E-1,5.311638E1,4.2431396E1,2.4656624E-1,-6.8653456E-4,2.680944E-1,1.5844209E0,2.2765335E-1,1.3687744E0,8.658288E-1,6.989232E1,3.297653E1,-2.820089E-1,1.06628224E-1,-4.9141192E-1,-7.4039504E-2,9.7595215E-1,1.3608398E0,-1.798706E0,2.4179688E0,1.3893404E0,-2.6349902E0,7.714934E1,7.543203E1,1.09443054E2,1.9867184E2,3.573507E-2,3.9482006E1,2.1565636E1,3.5690308E-1,2.8823182E-1,6.398514E-2,-3.7043798E-1,1.7418997E-1,3.4100166E-1,-9.8504916E-2,1.1887106E-1,-2.4305765E-1,2.3375499E-1,-6.884831E-2,-3.5590068E-1,1.8034427E-1,-1.0855605E-1,-4.2133725E-1,-5.6866255E-2,1.547673E-1,3.8582295E-1,-2.6479006E-1,3.659487E-2,4.0184548E-1,-3.2816243E-1,2.3645741E-1,-1.3490702E-1,-4.831114E-1,2.7418247E-1,-2.5084034E-1,-1.04247116E-1,1.424856E-1],"split_indices":[20,7,11,0,0,15,2,17,5,0,20,13,2,14,1,7,9,0,0,17,0,16,6,11,15,0,8,0,0,4,2,2,5,17,14,1,12,13,1,0,7,0,5,0,0,0,0,0,0,0,0,0,0,0,0,0,0,0,0,0,0,0,0,0,0,0,0,0,0,0,0],"split_type":[0,0,0,0,0,0,0,0,0,0,0,0,0,0,0,0,0,0,0,0,0,0,0,0,0,0,0,0,0,0,0,0,0,0,0,0,0,0,0,0,0,0,0,0,0,0,0,0,0,0,0,0,0,0,0,0,0,0,0,0,0,0,0,0,0,0,0,0,0,0,0],"sum_hessian":[5.7268317E2,1.0633049E2,4.6635266E2,1.0306755E2,3.2629392E0,2.9567814E1,4.3678485E2,1.0382635E1,9.268492E1,2.7471173E0,2.6820696E1,2.1961482E2,2.1717003E2,5.1570697E0,5.2255654E0,2.685953E1,6.5825386E1,1.034411E0,1.7127062E0,2.5469553E1,1.3511435E0,1.7509135E2,4.452348E1,2.3822779E1,1.9334726E2,1.0087304E0,4.1483393E0,3.982721E0,1.2428445E0,6.579877E0,2.0279652E1,2.3389765E1,4.2435623E1,4.9288263E0,2.0540726E1,1.5870143E2,1.6389921E1,5.8406496E0,3.8682827E1,1.1366506E0,2.2686129E1,7.5568596E1,1.1777866E2,3.14177E0,1.0065693E0,1.4056137E0,5.174263E0,1.927197E1,1.0076817E0,4.2654295E0,1.9124336E1,3.3362206E1,9.07342E0,2.9288979E0,1.9999286E0,1.141283E0,1.9399443E1,9.912209E1,5.957933E1,1.5264455E1,1.1254666E0,1.8148496E0,4.0258E0,3.4135593E1,4.547236E0,1.833484E0,2.0852644E1,9.36708E0,6.6201515E1,6.540464E1,5.237402E1],"tree_param":{"num_deleted":"0","num_feature":"22","num_nodes":"71","size_leaf_vector":"0"}},{"base_weights":[-1.0817331E-1,-4.463508E-1,-4.624456E-2,-7.709148E-1,6.919078E-2,1.23523295E-1,-2.0330627E-1,-9.092331E-2,-1.1878865E0,5.345361E-1,-5.546731E-1,4.602592E-1,-6.639865E-2,-1.1334387E0,-1.3023917E-1,2.9132596E-1,-9.758705E-1,-1.2899289E0,-3.636247E-1,-2.7919775E-1,1.0815598E0,9.3773E-1,-8.5248923E-1,6.7377657E-1,-4.095366E-1,2.5358286E-1,-4.2593643E-1,4.4947136E-2,-1.3487096E0,1.9901761E-1,-3.3331665E-1,-1.520696E-1,1.0206627E0,3.776427E-2,-1.1817449E0,3.7492838E-2,-1.3448141E0,3.5085508E-1,-6.8979657E-1,-8.5011E-1,7.393737E-1,3.035286E-1,1.3831846E0,-1.1946572E0,8.90329E-1,-1.5502294E0,7.865637E-1,-7.617836E-1,8.763507E-1,4.3805984E-1,-1.1036384E0,-6.40981E-1,8.929034E-1,5.2246666E-1,-6.0268074E-1,-3.8338527E-1,-1.3927503E0,1.4760711E0,8.3238095E-2,-1.1370693E0,-1.3032465E-1,-6.931412E-1,5.9163773E-1,9.883001E-2,1.28958E0,-2.1789739E-1,-8.396484E-1,-1.0996414E0,-8.1565335E-2,8.5853726E-1,-7.9178095E-1,1.4737045E0,3.5947353E-1,-1.3207027E0,3.463351E-2,-3.639615E-1,9.426739E-1,4.4092406E-2,-1.015439E0,1.3319274E0,-1.5573084E-1,7.271998E-1,-5.620705E-1,-1.2634146E0,-1.7300314E-1,7.253979E-1,-8.476207E-1,1.333495E0,-4.651718E-1,-7.548136E-2,1.9129803E0,-1.1918206E-1,8.9688164E-1,7.6853496E-1,-1.2611889E0,-7.5123805E-1,1.987372E-1],"categories":[],"categories_nodes":[],"categories_segments":[],"categories_sizes":[],"default_left":[true,true,true,true,true,true,true,true,true,true,true,true,true,true,true,true,true,true,true,true,true,false,true,true,true,true,true,true,true,true,true,true,true,false,false,false,false,false,true,true,false,true,true,true,false,false,true,true,true,true,true,true,true,false,false,false,false,true,true,true,true,false,false,false,false,false,false,false,false,false,false,false,false,false,false,false,false,false,false,false,false,false,false,false,false,false,false,false,false,false,false,false,false,false,false,false,false],"id":5,"left_children":[1,3,5,7,9,11,13,15,17,19,21,23,25,27,29,31,33,35,37,39,41,-1,43,45,47,49,51,53,55,57,59,61,63,-1,-1,-1,-1,-1,65,67,-1,69,71,73,-1,-1,75,77,79,81,83,85,87,-1,-1,-1,-1,89,91,93,95,-1,-1,-1,-1,-1,-1,-1,-1,-1,-1,-1,-1,-1,-1,-1,-1,-1,-1,-1,-1,-1,-1,-1,-1,-1,-1,-1,-1,-1,-1,-1,-1,-1,-1,-1,-1],"loss_changes":[1.1456208E1,1.4226753E1,1.2405253E1,1.4653746E1,1.0063299E1,1.4339994E1,1.6268887E1,7.344924E0,2.2384453E0,9.106024E0,7.405835E0,1.5284288E1,1.6666973E1,4.490631E0,1.5116919E1,5.1180615E0,1.4065142E0,2.1087074E0,1.3929355E0,5.7143517E0,2.4039345E0,0E0,8.765312E0,1.7589943E1,8.1639E0,1.9708141E1,1.9900557E1,1.4483771E0,9.516716E-2,1.2665952E1,2.2627592E1,4.600896E0,1.343081E0,0E0,0E0,0E0,0E0,0E0,8.065891E-2,1.0743175E0,0E0,3.5021248E0,2.4771309E-1,1.7846298E0,0E0,0E0,1.1618343E1,2.809731E0,2.0993643E0,2.016285E1,1.1898317E0,1.7323805E1,6.587335E0,0E0,0E0,0E0,0E0,4.9778185E0,1.3342767E1,7.5960426E0,2.315114E1,0E0,0E0,0E0,0E0,0E0,0E0,0E0,0E0,0E0,0E0,0E0,0E0,0E0,0E0,0E0,0E0,0E0,0E0,0E0,0E0,0E0,0E0,0E0,0E0,0E0,0E0,0E0,0E0,0E0,0E0,0E0,0E0,0E0,0E0,0E0,0E0],"parents":[2147483647,0,0,1,1,2,2,3,3,4,4,5,5,6,6,7,7,8,8,9,9,10,10,11,11,12,12,13,13,14,14,15,15,16,16,17,17,18,18,19,19,20,20,22,22,23,23,24,24,25,25,26,26,27,27,28,28,29,29,30,30,31,31,32,32,38,38,39,39,41,41,42,42,43,43,46,46,47,47,48,48,49,49,50,50,51,51,52,52,57,57,58,58,59,59,60,60],"right_children":[2,4,6,8,10,12,14,16,18,20,22,24,26,28,30,32,34,36,38,40,42,-1,44,46,48,50,52,54,56,58,60,62,64,-1,-1,-1,-1,-1,66,68,-1,70,72,74,-1,-1,76,78,80,82,84,86,88,-1,-1,-1,-1,90,92,94,96,-1,-1,-1,-1,-1,-1,-1,-1,-1,-1,-1,-1,-1,-1,-1,-1,-1,-1,-1,-1,-1,-1,-1,-1,-1,-1,-1,-1,-1,-1,-1,-1,-1,-1,-1,-1],"split_conditions":[7.603421E1,9.99591E-1,-2.9577637E-1,2.6887138E1,1.0939941E0,5.6819515E1,-4.3293E-2,6.8414307E-1,6.7894885E2,-6.921997E-1,2.082288E1,9.2710205E1,2.1234131E-1,-1.6829584E0,5.6491997E1,2.0400961E2,6.2389626E1,-2.7875977E0,-8.244428E-1,6.712935E1,6.631471E1,2.8131902E-1,1.4401167E2,-2.0463867E0,4.977985E1,3.0358944E0,2.0590692E2,2.392678E1,2.1189182E1,3.4101143E1,2.8301228E1,2.0359802E-1,1.06812675E2,1.1329281E-2,-3.5452348E-1,1.1247852E-2,-4.0344423E-1,1.0525653E-1,6.965633E1,6.917749E1,2.2181211E-1,1.1334848E0,2.0372055E0,1.6950684E0,2.6709872E-1,-4.6506885E-1,-1.5637207E0,1.1789579E0,5.3191895E1,8.674916E1,2.748291E0,8.7943643E-1,1.2136229E2,1.5674001E-1,-1.8080422E-1,-1.1501559E-1,-4.178251E-1,3.0478954E1,2.331543E0,2.1361803E1,-5.777588E-1,-2.0794238E-1,1.7749132E-1,2.9649002E-2,3.8687402E-1,-6.536922E-2,-2.5189453E-1,-3.2989246E-1,-2.4469601E-2,2.5756118E-1,-2.375343E-1,4.4211134E-1,1.07842065E-1,-3.9621082E-1,1.03900535E-2,-1.0918845E-1,2.828022E-1,1.3227723E-2,-3.046317E-1,3.9957824E-1,-4.6719253E-2,2.1815994E-1,-1.6862115E-1,-3.7902442E-1,-5.1900942E-2,2.1761937E-1,-2.5428623E-1,4.0004852E-1,-1.3955155E-1,-2.264441E-2,5.7389414E-1,-3.5754617E-2,2.6906452E-1,2.305605E-1,-3.7835667E-1,-2.2537142E-1,5.9621163E-2],"split_indices":[11,9,2,15,5,7,2,16,21,16,15,12,4,8,20,21,11,5,9,12,20,0,7,16,7,17,20,15,15,13,15,4,19,0,0,0,0,0,11,11,0,18,9,16,0,0,3,17,7,0,5,17,0,0,0,0,0,15,4,10,5,0,0,0,0,0,0,0,0,0,0,0,0,0,0,0,0,0,0,0,0,0,0,0,0,0,0,0,0,0,0,0,0,0,0,0,0],"split_type":[0,0,0,0,0,0,0,0,0,0,0,0,0,0,0,0,0,0,0,0,0,0,0,0,0,0,0,0,0,0,0,0,0,0,0,0,0,0,0,0,0,0,0,0,0,0,0,0,0,0,0,0,0,0,0,0,0,0,0,0,0,0,0,0,0,0,0,0,0,0,0,0,0,0,0,0,0,0,0,0,0,0,0,0,0,0,0,0,0,0,0,0,0,0,0,0,0],"sum_hessian":[5.470065E2,8.370528E1,4.633012E2,5.1062843E1,3.2642433E1,2.2274734E2,2.4055388E2,1.9872732E1,3.119011E1,1.8778543E1,1.386389E1,7.981325E1,1.429341E2,1.6463528E1,2.2409035E2,1.4346584E1,5.526149E0,2.7251469E1,3.9386413E0,7.745783E0,1.103276E1,1.9489104E0,1.1914979E1,6.426327E1,1.5549975E1,7.5783226E1,6.715087E1,2.665249E0,1.3798278E1,8.5494705E1,1.3859564E2,9.414559E0,4.932025E0,1.070761E0,4.4553876E0,1.0946159E0,2.6156853E1,1.2107711E0,2.7278702E0,5.0696306E0,2.6761525E0,3.6427412E0,7.3900185E0,1.0222516E1,1.6924634E0,2.486582E0,6.1776688E1,1.2526214E1,3.0237622E0,6.731134E1,8.47189E0,5.817851E1,8.972365E0,1.6453408E0,1.0199083E0,1.025507E0,1.2772771E1,6.130128E0,7.936458E1,2.7017504E1,1.1157814E2,5.4890714E0,3.9254882E0,1.4226788E0,3.509346E0,1.2489332E0,1.478937E0,3.501841E0,1.5677896E0,2.5611434E0,1.0815978E0,6.3857946E0,1.0042236E0,9.204382E0,1.018134E0,7.2216945E0,5.4554993E1,3.1966057E0,9.329607E0,1.8962173E0,1.1275449E0,5.242736E1,1.4883974E1,6.925332E0,1.5465585E0,7.3128386E0,5.086567E1,6.7882094E0,2.184156E0,1.528688E0,4.60144E0,6.423705E1,1.5127525E1,1.3346567E0,2.5682846E1,3.8205135E1,7.3373E1],"tree_param":{"num_deleted":"0","num_feature":"22","num_nodes":"97","size_leaf_vector":"0"}},{"base_weights":[-8.3079286E-2,-3.979105E-2,-5.0802875E-1,-4.6906775E-1,1.6132537E-2,4.25673E-1,-7.7384216E-1,3.3349356E-1,-8.8955456E-1,9.668501E-1,-3.092839E-2,9.63479E-1,-4.0135145E-1,-1.009762E0,5.675408E-1,-1.400515E0,8.436029E-1,1.352186E-1,-1.1735085E0,-6.7513365E-1,1.2218559E0,2.1464124E-2,-5.3723234E-1,1.1714855E0,-4.7902837E-2,-1.0818284E0,6.369838E-1,-1.1263945E0,5.820954E-1,-5.256791E-1,9.4121206E-1,-1.25052E-1,1.1985266E0,-9.5174533E-1,6.8368036E-1,-1.4649098E0,-3.7653607E-1,-9.128024E-1,-6.415005E-2,-2.9769188E-1,1.3796576E0,-1.571298E-2,8.2448334E-1,1.1038339E0,-8.282066E-1,-1.2432318E0,-5.6228465E-1,1.1376346E0,1.7985064E-1,5.413316E-1,-6.2245446E-1,1.37211E0,-1.9296739E-1,-3.9125982E-1,9.6026367E-1,-1.0212054E0,6.273926E-2,1.4825704E0,1.4131072E-1,7.578005E-2,-3.5275385E-1,-5.187143E-1,1.1572165E0,2.8421799E-2,1.325804E0,1.4953382E-1,-1.1198596E0,-2.843667E-1,-1.2897755E0,3.105835E-1,-8.344343E-1],"categories":[],"categories_nodes":[],"categories_segments":[],"categories_sizes":[],"default_left":[true,true,true,true,true,true,true,true,true,true,true,true,true,true,true,false,true,true,true,true,true,true,true,false,false,false,false,true,false,false,true,true,true,false,true,false,true,false,false,false,true,true,true,true,true,true,true,false,false,false,false,false,false,false,false,false,false,false,false,false,false,false,false,false,false,false,false,false,false,false,false],"id":6,"left_children":[1,3,5,7,9,11,13,15,17,19,21,23,25,27,29,-1,31,33,35,37,39,41,43,-1,-1,-1,-1,45,-1,-1,47,49,51,-1,53,-1,55,-1,-1,-1,57,59,61,63,65,67,69,-1,-1,-1,-1,-1,-1,-1,-1,-1,-1,-1,-1,-1,-1,-1,-1,-1,-1,-1,-1,-1,-1,-1,-1],"loss_changes":[9.530289E0,1.134517E1,1.2220944E1,1.8677217E1,1.87678E1,5.3960924E0,1.248785E1,1.8388294E1,1.0638147E1,9.108816E0,1.0622623E1,1.5537133E0,4.32363E0,6.6671677E0,3.0567546E0,0E0,5.532118E0,5.843513E0,6.021435E0,4.2116654E-1,4.602312E0,1.0863884E1,1.8844938E1,0E0,0E0,0E0,0E0,1.3117714E0,0E0,0E0,5.4797745E-1,2.0285766E0,3.0549679E0,0E0,2.2699554E0,0E0,2.5911696E0,0E0,0E0,0E0,1.8312778E0,1.0769252E1,7.796427E0,1.4146185E0,9.425684E0,7.2434616E-1,1.9363866E0,0E0,0E0,0E0,0E0,0E0,0E0,0E0,0E0,0E0,0E0,0E0,0E0,0E0,0E0,0E0,0E0,0E0,0E0,0E0,0E0,0E0,0E0,0E0,0E0],"parents":[2147483647,0,0,1,1,2,2,3,3,4,4,5,5,6,6,7,7,8,8,9,9,10,10,11,11,12,12,13,13,14,14,16,16,17,17,18,18,19,19,20,20,21,21,22,22,27,27,30,30,31,31,32,32,34,34,36,36,40,40,41,41,42,42,43,43,44,44,45,45,46,46],"right_children":[2,4,6,8,10,12,14,16,18,20,22,24,26,28,30,-1,32,34,36,38,40,42,44,-1,-1,-1,-1,46,-1,-1,48,50,52,-1,54,-1,56,-1,-1,-1,58,60,62,64,66,68,70,-1,-1,-1,-1,-1,-1,-1,-1,-1,-1,-1,-1,-1,-1,-1,-1,-1,-1,-1,-1,-1,-1,-1,-1],"split_conditions":[1.1304697E2,-1.567627E0,1.1855431E0,-2.5166552E0,-1.3807373E0,1.5579889E2,2.0511346E2,5.824893E1,1.4001058E0,-1.3557129E0,2.2687988E0,1.0048876E2,3.4180814E2,3.7901187E2,1.2386741E2,-4.201545E-1,7.582384E1,-2.1132054E0,8.423819E1,1.4614311E2,3.057441E1,2.0590692E2,-3.0299373E0,3.5144567E-1,-1.4370852E-2,-3.245485E-1,1.9109516E-1,3.2735462E0,1.7462862E-1,-1.5770374E-1,2.1491795E0,6.9488716E1,-4.496765E-1,-2.8552362E-1,5.1368095E1,-4.3947294E-1,2.1031226E2,-2.7384073E-1,-1.9245015E-2,-8.930757E-2,1.4237051E0,3.0116467E0,-4.6221924E-1,4.115865E1,3.399949E1,6.965633E1,8.676929E1,3.412904E-1,5.3955194E-2,1.6239949E-1,-1.8673635E-1,4.11633E-1,-5.7890218E-2,-1.1737795E-1,2.880791E-1,-3.0636165E-1,1.882178E-2,4.4477114E-1,4.239322E-2,2.2734016E-2,-1.0582616E-1,-1.556143E-1,3.47165E-1,8.52654E-3,3.9774123E-1,4.4860147E-2,-3.3595788E-1,-8.531001E-2,-3.8693267E-1,9.317505E-2,-2.503303E-1],"split_indices":[12,3,17,8,3,10,11,12,18,5,5,13,10,20,20,0,11,8,1,11,0,20,9,0,0,0,0,6,0,0,6,11,2,0,13,0,10,0,0,0,14,18,2,10,20,11,13,0,0,0,0,0,0,0,0,0,0,0,0,0,0,0,0,0,0,0,0,0,0,0,0],"split_type":[0,0,0,0,0,0,0,0,0,0,0,0,0,0,0,0,0,0,0,0,0,0,0,0,0,0,0,0,0,0,0,0,0,0,0,0,0,0,0,0,0,0,0,0,0,0,0,0,0,0,0,0,0,0,0,0,0,0,0,0,0,0,0,0,0,0,0,0,0,0,0],"sum_hessian":[5.181814E2,4.712684E2,4.6912964E1,5.3466324E1,4.178021E2,1.0262676E1,3.6650288E1,1.8452974E1,3.5013348E1,1.8784094E1,3.9901797E2,6.1187305E0,4.1439457E0,3.1378687E1,5.2716E0,3.7977636E0,1.4655211E1,7.71048E0,2.7302868E1,2.3036096E0,1.6480484E1,3.6246735E2,3.6550644E1,4.943682E0,1.175048E0,2.4780552E0,1.6658902E0,2.9509016E1,1.8696702E0,1.2392449E0,4.032355E0,4.1035366E0,1.0551675E1,2.3392196E0,5.3712606E0,1.9379093E1,7.923775E0,1.3028289E0,1.0007807E0,1.4670528E0,1.5013431E1,3.473659E2,1.5101448E1,5.083971E0,3.1466675E1,2.3448526E1,6.060491E0,2.8125405E0,1.2198145E0,1.7161059E0,2.387431E0,9.393769E0,1.1579056E0,1.0143551E0,4.3569055E0,2.674296E0,5.2494793E0,1.3679388E1,1.3340425E0,2.738121E2,7.35538E1,2.8872147E0,1.2214233E1,1.0628183E0,4.0211525E0,7.3416715E0,2.4125002E1,1.4146407E0,2.2033884E1,1.4069009E0,4.65359E0],"tree_param":{"num_deleted":"0","num_feature":"22","num_nodes":"71","size_leaf_vector":"0"}},{"base_weights":[-6.3477114E-2,-2.0981039E-1,5.2945085E-2,-1.0997376E-1,-1.1023966E0,1.3082638E-1,-5.8126444E-1,6.987654E-1,-1.8364015E-1,-1.2248392E0,7.0279014E-1,2.8877696E-1,-2.0575024E-1,7.504643E-1,-8.009489E-1,1.0056009E0,-3.0031926E-3,4.4156274E-1,-2.8677943E-1,3.5213676E-1,-1.323624E0,3.678003E-1,-5.689869E-1,3.0977452E-1,-4.7248906E-1,2.2242479E-2,9.4254833E-1,-9.495024E-1,7.082882E-1,-7.6892287E-3,1.1266445E0,6.698361E-1,-1.0757831E0,-5.3235763E-1,5.7964915E-1,-4.623266E-1,1.6175579E-1,-2.3910812E-1,-1.410016E0,4.1963267E-1,-1.0935222E0,3.7015438E-1,-1.1747212E0,-6.709625E-2,1.4050224E0,-2.6553262E-2,-7.7175564E-1,-1.0827168E0,1.04601204E-1,8.9400744E-1,-4.6470895E-2,-1.0938016E0,4.10731E-1,-3.0225562E-2,8.793009E-1,-3.4151712E-1,-1.4463389E0,7.704117E-1,-4.1788816E-1,-4.5410794E-1,4.9536467E-1,9.7897905E-1,-5.484397E-1,-1.3091516E0,-9.096587E-2,4.8885015E-1,-5.14396E-1,-1.5477936E-1,1.6839216E0,5.119933E-1,-5.854771E-1,7.132436E-2,-8.763816E-1,-1.2648207E0,-1.8857114E-1,-7.3327553E-1,9.530435E-1],"categories":[],"categories_nodes":[],"categories_segments":[],"categories_sizes":[],"default_left":[true,true,true,true,true,true,true,true,true,true,false,true,true,true,true,true,true,true,true,false,true,true,true,true,true,false,false,true,false,false,false,true,false,true,true,true,true,false,false,true,false,true,true,true,true,true,true,true,true,false,false,false,false,false,false,false,false,false,false,false,false,false,false,false,false,false,false,false,false,false,false,false,false,false,false,false,false],"id":7,"left_children":[1,3,5,7,9,11,13,15,17,19,-1,21,23,25,27,29,31,33,35,-1,37,39,41,43,45,-1,-1,47,-1,-1,-1,49,-1,51,53,55,57,-1,-1,59,-1,61,63,65,67,69,71,73,75,-1,-1,-1,-1,-1,-1,-1,-1,-1,-1,-1,-1,-1,-1,-1,-1,-1,-1,-1,-1,-1,-1,-1,-1,-1,-1,-1,-1],"loss_changes":[8.542255E0,1.9668816E1,1.38903E1,1.2094257E1,5.774351E0,1.3345131E1,9.603831E0,3.658351E0,1.2047785E1,3.7659454E0,0E0,1.1766607E1,1.1202726E1,6.607697E-1,6.703251E0,1.4577198E0,5.167898E0,3.8822913E0,1.2617891E1,0E0,1.5502167E0,1.2330088E1,8.840225E0,1.1660145E1,7.1037235E0,0E0,0E0,3.611929E0,0E0,0E0,0E0,7.4852E-1,0E0,2.4724827E0,4.367293E0,1.3147263E1,1.639214E1,0E0,0E0,1.02882595E1,0E0,4.2022085E0,1.224433E0,5.6729198E0,3.4010763E0,7.0645623E0,2.87718E0,3.3775787E0,3.3343704E0,0E0,0E0,0E0,0E0,0E0,0E0,0E0,0E0,0E0,0E0,0E0,0E0,0E0,0E0,0E0,0E0,0E0,0E0,0E0,0E0,0E0,0E0,0E0,0E0,0E0,0E0,0E0,0E0],"parents":[2147483647,0,0,1,1,2,2,3,3,4,4,5,5,6,6,7,7,8,8,9,9,11,11,12,12,13,13,14,14,15,15,16,16,17,17,18,18,20,20,21,21,22,22,23,23,24,24,27,27,31,31,33,33,34,34,35,35,36,36,39,39,41,41,42,42,43,43,44,44,45,45,46,46,47,47,48,48],"right_children":[2,4,6,8,10,12,14,16,18,20,-1,22,24,26,28,30,32,34,36,-1,38,40,42,44,46,-1,-1,48,-1,-1,-1,50,-1,52,54,56,58,-1,-1,60,-1,62,64,66,68,70,72,74,76,-1,-1,-1,-1,-1,-1,-1,-1,-1,-1,-1,-1,-1,-1,-1,-1,-1,-1,-1,-1,-1,-1,-1,-1,-1,-1,-1,-1],"split_conditions":[1.03198616E2,9.41606E1,1.0449378E2,7.069377E-1,2.49292E0,4.7869873E-1,8.658288E-1,4.8898315E-1,7.2770417E-1,-3.060101E0,2.1083705E-1,3.300891E0,6.2116554E1,1.4194469E2,2.7202316E2,-9.727173E-1,2.3598275E0,-1.4602051E0,1.088623E0,1.0564103E-1,-1.9279785E0,2.562419E0,-1.9420166E0,3.4370944E0,-5.2679443E-1,6.672744E-3,2.8276452E-1,2.4446E0,2.1248646E-1,-2.3067687E-3,3.3799335E-1,1.6162341E0,-3.2273495E-1,2.3308105E0,1.9770382E1,2.1542969E0,1.3500977E0,-7.173244E-2,-4.230048E-1,2.3430595E1,-3.2805666E-1,8.7785034E1,3.548174E0,1.5336802E0,9.908014E1,4.0781845E1,2.8749596E1,2.7428432E0,1.1629807E2,2.6820225E-1,-1.3941269E-2,-3.281405E-1,1.23219304E-1,-9.067669E-3,2.6379028E-1,-1.0245514E-1,-4.339017E-1,2.311235E-1,-1.2536645E-1,-1.3623239E-1,1.486094E-1,2.9369372E-1,-1.6453192E-1,-3.9274552E-1,-2.7289761E-2,1.4665505E-1,-1.5431881E-1,-4.643381E-2,5.051765E-1,1.53598E-1,-1.7564315E-1,2.139731E-2,-2.6291448E-1,-3.7944624E-1,-5.6571346E-2,-2.1998267E-1,2.8591308E-1],"split_indices":[19,19,13,18,16,16,6,4,17,9,0,17,12,11,1,2,6,2,3,0,2,14,16,17,5,0,0,14,0,0,0,9,0,5,20,4,3,0,0,15,0,10,6,17,10,15,20,9,7,0,0,0,0,0,0,0,0,0,0,0,0,0,0,0,0,0,0,0,0,0,0,0,0,0,0,0,0],"split_type":[0,0,0,0,0,0,0,0,0,0,0,0,0,0,0,0,0,0,0,0,0,0,0,0,0,0,0,0,0,0,0,0,0,0,0,0,0,0,0,0,0,0,0,0,0,0,0,0,0,0,0,0,0,0,0,0,0,0,0,0,0,0,0,0,0,0,0,0,0,0,0,0,0,0,0,0,0],"sum_hessian":[4.9975873E2,2.2107864E2,2.7868008E2,1.9984859E2,2.123005E1,2.4890778E2,2.9772303E1,1.5975678E1,1.8387291E2,2.0182589E1,1.04746E0,1.69504E2,7.940378E1,3.8737152E0,2.5898588E1,1.0814349E1,5.1613293E0,2.5573275E1,1.5829964E2,1.0385617E0,1.9144028E1,1.557284E2,1.3775601E1,2.7020348E1,5.238343E1,1.0413988E0,2.8323164E0,2.3915472E1,1.9831158E0,1.2539182E0,9.560431E0,3.402755E0,1.7585744E0,2.8210711E0,2.2752203E1,1.1374968E2,4.4549957E1,1.6904742E0,1.7453552E1,1.5108241E2,4.645978E0,5.5538025E0,8.221799E0,2.0801401E1,6.2189474E0,2.1473938E1,3.0909494E1,2.120811E1,2.707362E0,2.4027314E0,1.0000236E0,1.6681639E0,1.1529071E0,7.792146E0,1.4960057E1,1.0251121E2,1.1238473E1,2.1570604E1,2.2979355E1,1.1652149E1,1.3943027E2,3.300539E0,2.2532635E0,7.1294727E0,1.092326E0,9.23294E0,1.1568461E1,1.0108111E0,5.208136E0,1.0979091E1,1.0494847E1,3.4475222E0,2.7461971E1,1.7275238E1,3.932873E0,1.4304572E0,1.2769047E0],"tree_param":{"num_deleted":"0","num_feature":"22","num_nodes":"77","size_leaf_vector":"0"}},{"base_weights":[-5.0426528E-2,-7.4169956E-2,6.01221E-1,-5.1626652E-2,-7.2155577E-1,8.94135E-1,-9.188112E-1,-1.6241053E-1,8.031983E-2,5.7767385E-1,-9.962376E-1,1.1753904E0,-1.14452876E-1,-1.7995965E-2,-4.3587944E-1,-1.916165E-1,2.9313567E-1,8.9532775E-1,1.7940002E-2,-3.2450625E-1,-1.1855679E0,2.0863563E-1,1.3245108E0,-8.1759953E-1,5.609564E-1,5.731276E-2,-1.0486766E0,-2.0995998E-1,-1.2049812E0,3.4311425E-2,-9.505793E-1,9.254479E-1,1.6068465E-1,-7.9259896E-1,4.8964953E-1,1.3964713E0,3.9776066E-1,-9.584089E-3,1.0712355E0,-1.2929512E0,5.2371126E-1,-3.15864E-1,1.2208982E0,-7.146957E-2,-1.2702208E0,-3.013447E-1,4.453117E-1,8.286084E-1,-1.0885825E0,1.0476992E0,-6.611076E-1,6.070977E-1,-9.989343E-2],"categories":[],"categories_nodes":[],"categories_segments":[],"categories_sizes":[],"default_left":[true,true,true,true,true,true,false,true,true,true,true,true,true,true,true,true,true,false,false,true,false,false,true,false,false,true,true,true,true,true,true,true,true,false,false,false,false,false,false,false,false,false,false,false,false,false,false,false,false,false,false,false,false],"id":8,"left_children":[1,3,5,7,9,11,-1,13,15,17,19,21,23,25,27,29,31,-1,-1,33,-1,-1,35,-1,-1,37,39,41,43,45,47,49,51,-1,-1,-1,-1,-1,-1,-1,-1,-1,-1,-1,-1,-1,-1,-1,-1,-1,-1,-1,-1],"loss_changes":[7.409939E0,6.678833E0,8.321497E0,6.529249E0,6.0743666E0,4.2846375E0,0E0,9.575247E0,1.1869432E1,5.7460725E-1,1.2795839E0,1.3856583E0,2.406441E0,1.2466685E1,1.4310201E1,1.5502745E1,9.474718E0,0E0,0E0,2.0094075E0,0E0,0E0,9.8163605E-2,0E0,0E0,1.0177956E1,4.877411E0,1.038617E1,1.3008823E0,9.858535E0,5.992117E0,4.5118256E0,1.1252932E1,0E0,0E0,0E0,0E0,0E0,0E0,0E0,0E0,0E0,0E0,0E0,0E0,0E0,0E0,0E0,0E0,0E0,0E0,0E0,0E0],"parents":[2147483647,0,0,1,1,2,2,3,3,4,4,5,5,7,7,8,8,9,9,10,10,11,11,12,12,13,13,14,14,15,15,16,16,19,19,22,22,25,25,26,26,27,27,28,28,29,29,30,30,31,31,32,32],"right_children":[2,4,6,8,10,12,-1,14,16,18,20,22,24,26,28,30,32,-1,-1,34,-1,-1,36,-1,-1,38,40,42,44,46,48,50,52,-1,-1,-1,-1,-1,-1,-1,-1,-1,-1,-1,-1,-1,-1,-1,-1,-1,-1,-1,-1],"split_conditions":[2.0898438E0,2.8459473E0,1.8449442E0,6.0071983E1,2.8749596E1,1.4099121E0,-2.7564338E-1,4.8059082E-1,-1.6519308E-1,2.9575195E0,-2.371657E0,-1.2446017E0,6.286066E1,1.4023438E0,7.9019005E1,-8.059681E-1,1.8625832E-1,2.6859835E-1,5.3820005E-3,7.786149E1,-3.5567036E-1,6.259069E-2,2.6862593E0,-2.4527986E-1,1.6828693E-1,1.3743896E0,2.0100098E0,2.525461E0,1.0340261E0,-1.9173548E0,2.7613659E1,1.3234982E2,5.4567554E1,-2.3777969E-1,1.4689487E-1,4.189414E-1,1.193282E-1,-2.8752268E-3,3.2137066E-1,-3.878854E-1,1.5711339E-1,-9.47592E-2,3.6626947E-1,-2.1440871E-2,-3.8106623E-1,-9.040341E-2,1.3359351E-1,2.4858253E-1,-3.2657477E-1,3.1430978E-1,-1.983323E-1,1.8212931E-1,-2.9968029E-2],"split_indices":[16,5,9,0,20,4,0,4,14,5,8,9,12,16,7,14,14,0,0,0,0,0,14,0,0,16,16,8,17,14,13,20,7,0,0,0,0,0,0,0,0,0,0,0,0,0,0,0,0,0,0,0,0],"split_type":[0,0,0,0,0,0,0,0,0,0,0,0,0,0,0,0,0,0,0,0,0,0,0,0,0,0,0,0,0,0,0,0,0,0,0,0,0,0,0,0,0,0,0,0,0,0,0,0,0,0,0,0,0],"sum_hessian":[4.750329E2,4.5918808E2,1.5844797E1,4.447797E2,1.4408397E1,1.3630023E1,2.2147737E0,2.4165355E2,2.0312614E2,2.3220696E0,1.2086328E1,1.0528623E1,3.1014004E0,1.58839E2,8.281454E1,8.922015E1,1.13906E2,1.0988835E0,1.2231861E0,3.2542903E0,8.832037E0,1.7276027E0,8.801021E0,1.4163548E0,1.6850456E0,1.4890347E2,9.935534E0,6.499547E1,1.781907E1,6.948936E1,1.9730791E1,1.8690714E1,9.521529E1,2.0831032E0,1.171187E0,7.6965504E0,1.1044698E0,1.406164E2,8.287076E0,8.7533865E0,1.1821469E0,6.1241936E1,3.753533E0,1.0838093E0,1.6735262E1,3.8397583E1,3.1091776E1,1.0600448E0,1.8670746E1,1.7668884E1,1.0218294E0,3.4603683E1,6.0611603E1],"tree_param":{"num_deleted":"0","num_feature":"22","num_nodes":"53","size_leaf_vector":"0"}},{"base_weights":[-3.7039403E-2,-4.3787476E-1,-1.1774119E-3,4.2813763E-1,-6.8423116E-1,-8.907427E-1,1.6511742E-2,-4.007549E-1,9.161729E-1,-1.0803968E0,-2.8517988E-1,3.4042627E-1,-1.1124337E0,2.1211746E-1,-6.0351346E-2,-7.411837E-1,3.0025417E-1,-5.428634E-3,1.1055678E0,-1.034414E-1,-1.16223E0,-5.523945E-1,4.6309415E-1,-1.2848958E0,-2.9779518E-2,4.6120355E-1,-3.7840445E-2,-5.14199E-1,2.6032472E-2,-3.129869E-1,-1.2072228E0,3.4372678E-1,-8.378888E-1,5.9553124E-2,7.30233E-1,-1.3579038E-1,8.076266E-1,4.6561593E-1,-3.4214863E-1,-7.594085E-1,4.8853576E-1,5.597577E-1,-7.9147026E-2,-1.830974E-1,6.194201E-1,2.141332E-2,-1.0649983E0,-4.287664E-1,9.9465716E-1,1.20106354E-1,1.2282641E0,-2.8504738E-1,8.5128397E-1,2.169836E-1,-7.019426E-1,-6.111118E-2,-1.2032046E0,8.5689646E-1,-9.070516E-1,-8.4652585E-1,7.7147675E-1,-8.3384776E-1,-2.6516791E-2],"categories":[],"categories_nodes":[],"categories_segments":[],"categories_sizes":[],"default_left":[true,true,true,true,true,true,true,true,true,true,true,false,true,true,true,false,false,false,false,false,true,true,true,false,false,true,true,true,true,false,false,true,true,false,false,true,true,true,true,true,true,true,true,false,false,false,false,false,false,false,false,false,false,false,false,false,false,false,false,false,false,false,false],"id":9,"left_children":[1,3,5,7,9,11,13,15,17,19,21,-1,23,25,27,-1,-1,-1,-1,-1,29,31,33,-1,-1,35,37,39,41,-1,-1,43,45,-1,-1,47,49,51,53,55,57,59,61,-1,-1,-1,-1,-1,-1,-1,-1,-1,-1,-1,-1,-1,-1,-1,-1,-1,-1,-1,-1],"loss_changes":[6.6108575E0,8.350477E0,6.673445E0,3.9995875E0,4.401046E0,2.6355767E0,6.2657027E0,1.1826861E0,1.0456138E0,1.046154E0,3.4946847E0,0E0,1.3138227E0,7.3358955E0,1.1749393E1,0E0,0E0,0E0,0E0,0E0,1.3279152E-1,3.458351E0,4.746505E-1,0E0,0E0,1.2301419E1,9.289426E0,1.2152229E1,1.4215207E1,0E0,0E0,6.512722E-1,1.9136367E0,0E0,0E0,7.879271E0,1.0682306E1,6.8649116E0,7.7404327E0,1.1978931E1,5.930018E0,1.3063E1,8.3887615E0,0E0,0E0,0E0,0E0,0E0,0E0,0E0,0E0,0E0,0E0,0E0,0E0,0E0,0E0,0E0,0E0,0E0,0E0,0E0,0E0],"parents":[2147483647,0,0,1,1,2,2,3,3,4,4,5,5,6,6,7,7,8,8,9,9,10,10,12,12,13,13,14,14,20,20,21,21,22,22,25,25,26,26,27,27,28,28,31,31,32,32,35,35,36,36,37,37,38,38,39,39,40,40,41,41,42,42],"right_children":[2,4,6,8,10,12,14,16,18,20,22,-1,24,26,28,-1,-1,-1,-1,-1,30,32,34,-1,-1,36,38,40,42,-1,-1,44,46,-1,-1,48,50,52,54,56,58,60,62,-1,-1,-1,-1,-1,-1,-1,-1,-1,-1,-1,-1,-1,-1,-1,-1,-1,-1,-1,-1],"split_conditions":[6.923608E1,2.2242012E1,-2.1081543E0,3.8020164E1,-7.1163177E-3,2.1718136E1,-7.4005127E-1,6.0642128E1,5.0828804E1,2.042584E1,8.0610916E1,1.0212789E-1,1.0239279E2,-1.104248E0,-2.8875732E-1,-2.2235511E-1,9.007625E-2,-1.6285903E-3,3.3167034E-1,-3.1032423E-2,-2.9277315E0,-1.237793E0,1.1035767E0,-3.8546875E-1,-8.933856E-3,-3.2063845E-1,2.0065866E0,3.1450703E0,-8.0322266E-2,-9.3896076E-2,-3.6216685E-1,5.266108E1,1.5844209E0,1.7865937E-2,2.1906991E-1,-1.1571045E0,5.20834E1,2.8942108E-2,-8.4776926E-1,-1.8306569E0,6.951257E1,-2.2936413E0,7.613373E-2,-5.4929223E-2,1.8582603E-1,6.4239963E-3,-3.194995E-1,-1.2862992E-1,2.9839715E-1,3.603191E-2,3.6847925E-1,-8.551422E-2,2.553852E-1,6.509508E-2,-2.105828E-1,-1.8333355E-2,-3.609614E-1,2.5706896E-1,-2.721155E-1,-2.5395778E-1,2.3144303E-1,-2.5015435E-1,-7.955038E-3],"split_indices":[11,15,16,0,4,20,16,12,12,20,0,0,0,2,16,0,0,0,0,0,14,16,2,0,0,14,6,6,16,0,0,12,17,0,0,2,20,5,14,8,12,9,16,0,0,0,0,0,0,0,0,0,0,0,0,0,0,0,0,0,0,0,0],"split_type":[0,0,0,0,0,0,0,0,0,0,0,0,0,0,0,0,0,0,0,0,0,0,0,0,0,0,0,0,0,0,0,0,0,0,0,0,0,0,0,0,0,0,0,0,0,0,0,0,0,0,0,0,0,0,0,0,0,0,0,0,0,0,0],"sum_hessian":[4.5892947E2,3.6767136E1,4.2216235E2,7.979402E0,2.8787735E1,7.268789E0,4.1489355E2,3.023332E0,4.9560704E0,1.3589296E1,1.5198439E1,1.0274148E0,6.241374E0,1.1654452E2,2.9834903E2,1.9964787E0,1.0268533E0,1.0104631E0,3.9456072E0,1.2252976E0,1.2363998E1,1.139203E1,3.8064094E0,5.22263E0,1.0187439E0,5.7950756E1,5.8593758E1,4.6914543E1,2.514345E2,1.0224049E0,1.1341594E1,2.7031863E0,8.688843E0,2.0032387E0,1.8031708E0,2.1502806E1,3.6447952E1,2.187426E1,3.6719498E1,3.7891254E1,9.02329E0,4.0680832E1,2.1075366E2,1.0440226E0,1.6591637E0,2.0056987E0,6.6831446E0,1.7569946E1,3.93286E0,1.4322978E1,2.2124975E1,7.512619E0,1.4361642E1,1.4532468E1,2.218703E1,1.5165921E1,2.2725332E1,7.444369E0,1.5789208E0,4.930832E0,3.575E1,1.27714615E1,1.9798221E2],"tree_param":{"num_deleted":"0","num_feature":"22","num_nodes":"63","size_leaf_vector":"0"}}]},"name":"gbtree"},"learner_model_param":{"base_score":"5E-1","num_class":"0","num_feature":"22"},"objective":{"name":"binary:logitraw","reg_loss_param":{"scale_pos_weight":"0.294054061"}}},"version":[1,5,1]}