{"learner":{"attributes":{"best_iteration":"9","best_ntree_limit":"10","best_score":"0.961869"},"feature_names":["lep1pt","lep1eta","lep1phi","lep2pt","lep2eta","lep2phi","drll","ptll","yVlep","phiVlep","mll","mT","mT2","PuppiMET_T1Smear_pt","PuppiMET_T1Smear_phi","photonet","photoneta","photonphi","drl1a","drl2a","ml1g","ml2g","mllg"],"feature_types":["float","float","float","float","float","float","float","float","float","float","float","float","float","float","float","float","float","float","float","float","float","float","float"],"gradient_booster":{"model":{"gbtree_model_param":{"num_trees":"10","size_leaf_vector":"0"},"tree_info":[0,0,0,0,0,0,0,0,0,0],"trees":[{"base_weights":[-5.2055955E-1,4.9617523E-1,-6.163684E-1,6.5262336E-1,-2.1184535E0,-9.381666E-1,-1.2072701E-1,-4.0062162E-1,8.667514E-1,-1.0580126E0,7.223504E-1,1.5569972E-1,-8.565113E-1,-1.4789282E0,4.1449136E-1,4.7328675E-1,1.4680669E0,-6.5045595E-1,-1.6617018E0,1.2976578E0,-9.50703E-1,3.0466503E-1,-1.768871E0,-2.0073082E0,-1.9273531E-1,-1.7311032E0,-6.1178E-1,8.8261503E-1,-5.455811E-1,8.228539E-1,-2.14228E0,-1.0067259E-1,1.5420998E0,-5.1220715E-1,-2.119299E0,-6.324902E-1,-1.8701516E0,-1.4309288E0,1.4714004E0,-2.2498229E0,1.2391794E0,4.3729654E-1,-1.8325952E0,1.6547443E-1,-2.243306E0,1.0777744E0,-2.4317122E0,-9.4103056E-1,7.590657E-1,-1.0067259E-1,1.1101257E0,-8.728311E-1,1.996613E-2,1.0531267E0,-1.858067E0,-2.4705389E0,-3.997734E-1,1.156537E0,-2.5340102E0,7.278686E-1,-1.4829139E0,-2.1397748E0,-5.836883E-1,1.504916E0,3.2766992E-1,-4.3945023E-1,6.5685886E-1,-2.3176982E0,7.3825467E-1,1.1353364E0,-1.4309288E0,-2.3007695E-1,-2.4518664E0,3.2766992E-1,1.1936877E0,-3.2421932E-1,-2.5580132E0,-1.711377E-1,-2.3757157E0,-1.3059894E0,1.2730621E0],"categories":[],"categories_nodes":[],"categories_segments":[],"categories_sizes":[],"default_left":[true,true,true,true,false,true,true,true,true,true,true,true,true,true,true,true,true,true,true,true,true,true,true,true,true,false,false,true,true,true,false,false,false,true,true,true,true,false,true,false,false,true,true,true,true,true,true,true,true,false,false,false,false,false,false,false,false,false,false,false,false,false,false,false,false,false,false,false,false,false,false,false,false,false,false,false,false,false,false,false,false],"id":0,"left_children":[1,3,5,7,-1,9,11,13,15,17,19,21,23,25,27,29,31,33,35,37,39,41,43,45,47,-1,-1,49,51,53,-1,-1,-1,55,57,59,61,-1,63,-1,-1,65,67,69,71,73,75,77,79,-1,-1,-1,-1,-1,-1,-1,-1,-1,-1,-1,-1,-1,-1,-1,-1,-1,-1,-1,-1,-1,-1,-1,-1,-1,-1,-1,-1,-1,-1,-1,-1],"loss_changes":[9.5039734E1,3.5867104E1,1.4171136E2,1.8459076E1,0E0,1.0802985E2,7.156333E1,1.3139942E1,1.5170353E1,1.2270752E2,3.6729218E1,7.397096E1,7.299269E1,3.3050156E-1,4.480501E0,4.017237E1,3.1802788E0,6.024005E1,4.2181824E1,1.5315159E1,3.1275173E1,6.843282E1,1.7392994E1,4.8491333E1,4.489305E1,0E0,0E0,1.5352955E0,6.715666E-1,2.52794E1,0E0,0E0,0E0,6.0077362E1,3.77911E1,4.2211323E1,5.687628E1,0E0,5.2996063E-1,0E0,0E0,4.3688366E1,1.9337196E1,8.722734E0,5.718704E0,3.7474155E-2,7.4499207E0,3.84444E1,3.1229263E1,0E0,0E0,0E0,0E0,0E0,0E0,0E0,0E0,0E0,0E0,0E0,0E0,0E0,0E0,0E0,0E0,0E0,0E0,0E0,0E0,0E0,0E0,0E0,0E0,0E0,0E0,0E0,0E0,0E0,0E0,0E0,0E0],"parents":[2147483647,0,0,1,1,2,2,3,3,5,5,6,6,7,7,8,8,9,9,10,10,11,11,12,12,13,13,14,14,15,15,16,16,17,17,18,18,19,19,20,20,21,21,22,22,23,23,24,24,27,27,28,28,29,29,33,33,34,34,35,35,36,36,38,38,41,41,42,42,43,43,44,44,45,45,46,46,47,47,48,48],"right_children":[2,4,6,8,-1,10,12,14,16,18,20,22,24,26,28,30,32,34,36,38,40,42,44,46,48,-1,-1,50,52,54,-1,-1,-1,56,58,60,62,-1,64,-1,-1,66,68,70,72,74,76,78,80,-1,-1,-1,-1,-1,-1,-1,-1,-1,-1,-1,-1,-1,-1,-1,-1,-1,-1,-1,-1,-1,-1,-1,-1,-1,-1,-1,-1,-1,-1,-1,-1],"split_conditions":[8.723372E-1,1.9428711E0,1.5840948E2,-2.0978427E0,-6.355361E-1,2.0330925E2,3.274231E-1,1.1976811E2,8.3446246E-1,6.7140755E1,2.579387E0,9.73999E-1,8.136105E1,1.1269511E2,1.959138E2,7.4312305E-1,8.807797E1,2.9234152E0,-1.7178447E0,6.9754555E1,2.414795E0,2.0012207E0,-1.6663818E0,2.3084106E1,1.0657959E0,-5.19331E-1,-1.83534E-1,5.0283535E1,9.277411E1,1.7977295E0,-6.4268404E-1,-3.0201778E-2,4.6262997E-1,7.1762425E-1,-3.0459096E0,3.568621E1,1.3047202E2,-4.2927867E-1,7.933493E1,-6.749469E-1,3.717538E-1,7.795516E1,2.715602E0,7.896321E1,-2.8112793E0,6.507545E1,3.326947E1,-6.2076773E-2,-1.1831864E-1,-3.0201778E-2,3.330377E-1,-2.6184934E-1,5.989839E-3,3.1593803E-1,-5.5742013E-1,-7.411617E-1,-1.1993202E-1,3.4696114E-1,-7.6020306E-1,2.1836059E-1,-4.4487417E-1,-6.419325E-1,-1.751065E-1,4.5147482E-1,9.830098E-2,-1.3183507E-1,1.9705766E-1,-6.953095E-1,2.214764E-1,3.4060094E-1,-4.2927867E-1,-6.902309E-2,-7.3555994E-1,9.830098E-2,3.5810632E-1,-9.72658E-2,-7.67404E-1,-5.1341314E-2,-7.1271473E-1,-3.9179683E-1,3.8191864E-1],"split_indices":[6,5,10,9,0,21,16,22,6,21,19,4,0,12,22,6,11,19,8,7,4,5,1,13,17,0,0,0,11,17,0,0,0,19,9,3,13,0,3,0,0,3,14,21,5,0,21,14,14,0,0,0,0,0,0,0,0,0,0,0,0,0,0,0,0,0,0,0,0,0,0,0,0,0,0,0,0,0,0,0,0],"split_type":[0,0,0,0,0,0,0,0,0,0,0,0,0,0,0,0,0,0,0,0,0,0,0,0,0,0,0,0,0,0,0,0,0,0,0,0,0,0,0,0,0,0,0,0,0,0,0,0,0,0,0,0,0,0,0,0,0,0,0,0,0,0,0,0,0,0,0,0,0,0,0,0,0,0,0,0,0,0,0,0,0],"sum_hessian":[9.715054E2,8.330322E1,8.8820215E2,7.930816E1,3.995063E0,5.380058E2,3.5019635E2,1.3252298E1,6.605586E1,5.021281E2,3.58777E1,2.551336E2,9.506274E1,5.354494E0,7.897804E0,4.1009083E1,2.5046782E1,3.009985E2,2.0112961E2,2.686433E1,9.013371E0,2.3758572E2,1.7547876E1,3.4033806E1,6.1028927E1,3.3763132E0,1.9781811E0,5.3633537E0,2.5344498E0,3.6779015E1,4.230067E0,1.1125374E0,2.3934244E1,2.76338E2,2.466047E1,3.4554173E1,1.6657544E2,1.1750185E0,2.568931E1,5.640089E0,3.3732827E0,2.2445233E2,1.3133397E1,3.584506E0,1.396337E1,3.9295514E0,3.0104256E1,3.417346E1,2.685547E1,1.1125374E0,4.2508163E0,1.2612798E0,1.27317E0,3.4428978E1,2.350037E0,1.3865219E1,2.624728E2,2.57012E0,2.209035E1,1.3347419E1,2.1206755E1,1.3716454E2,2.9410902E1,2.4651144E1,1.0381663E0,4.4751423E1,1.7970091E2,1.1131435E1,2.0019612E0,2.4094875E0,1.1750185E0,1.5081737E0,1.2455196E1,1.0381663E0,2.891385E0,1.9038099E0,2.8200445E1,2.296765E1,1.1205807E1,5.0451193E0,2.181035E1],"tree_param":{"num_deleted":"0","num_feature":"23","num_nodes":"81","size_leaf_vector":"0"}},{"base_weights":[-3.5795128E-1,4.5973167E-1,-4.246124E-1,6.710514E-1,-1.6960489E0,-5.015445E-1,4.5560357E-1,8.920431E-2,1.2564898E0,6.323816E-1,-5.6334996E-1,1.0640498E0,-4.9783722E-1,6.889678E-1,-1.8377191E0,-6.238067E-2,1.4659193E0,-1.8263074E0,9.634686E-1,6.916854E-2,-6.704844E-1,1.1506194E0,-1.1123137E0,4.2085648E-1,-1.6264116E0,9.112401E-1,-1.4855267E0,-1.6364787E0,9.9235153E-1,4.7237176E-1,1.5002966E0,-1.5439732E0,1.1359549E0,2.2618563E-1,-1.7394003E0,6.8512714E-1,-7.3542124E-1,-4.8792464E-1,1.205405E0,-1.1877424E0,1.1103643E0,-1.880765E0,-2.1808362E-2,2.7829447E-1,1.3801842E0,3.844437E-1,1.5304471E0,1.2967066E0,-6.92645E-1,-1.8926877E0,3.57224E-1,-2.0811357E0,3.5897848E-1,-1.1961347E0,1.3070037E0,-4.5366454E-1,-1.0704396E0,3.3600202E-1,1.2932986E0,-1.6044365E0,3.436392E-1,1.3129635E0,-5.517763E-1],"categories":[],"categories_nodes":[],"categories_segments":[],"categories_sizes":[],"default_left":[true,true,true,true,false,true,true,true,true,true,true,true,true,true,false,true,true,false,true,true,true,true,false,true,true,true,false,false,false,false,true,false,true,true,true,true,true,false,true,true,true,false,false,false,false,false,false,false,false,false,false,false,false,false,false,false,false,false,false,false,false,false,false],"id":1,"left_children":[1,3,5,7,-1,9,11,13,15,17,19,21,23,25,-1,27,29,-1,31,33,35,37,-1,39,41,43,-1,-1,-1,-1,45,-1,47,49,51,53,55,-1,57,59,61,-1,-1,-1,-1,-1,-1,-1,-1,-1,-1,-1,-1,-1,-1,-1,-1,-1,-1,-1,-1,-1,-1],"loss_changes":[5.319201E1,3.474469E1,6.114061E1,2.301732E1,0E0,5.836299E1,4.2775898E1,4.186725E1,9.41893E0,3.696929E1,5.327101E1,9.715435E0,3.0804207E1,1.465462E1,0E0,1.0899394E1,2.8805923E-1,0E0,1.8523808E1,3.2957615E1,5.963852E1,4.497738E0,0E0,1.9961987E1,5.363369E0,7.2105694E0,0E0,0E0,0E0,0E0,3.4514236E-1,0E0,1.1731701E1,3.0217577E1,7.3984184E0,3.809465E1,6.0071472E1,0E0,2.8078194E0,4.0777845E0,4.8605156E0,0E0,0E0,0E0,0E0,0E0,0E0,0E0,0E0,0E0,0E0,0E0,0E0,0E0,0E0,0E0,0E0,0E0,0E0,0E0,0E0,0E0,0E0],"parents":[2147483647,0,0,1,1,2,2,3,3,5,5,6,6,7,7,8,8,9,9,10,10,11,11,12,12,13,13,15,15,16,16,18,18,19,19,20,20,21,21,23,23,24,24,25,25,30,30,32,32,33,33,34,34,35,35,36,36,38,38,39,39,40,40],"right_children":[2,4,6,8,-1,10,12,14,16,18,20,22,24,26,-1,28,30,-1,32,34,36,38,-1,40,42,44,-1,-1,-1,-1,46,-1,48,50,52,54,56,-1,58,60,62,-1,-1,-1,-1,-1,-1,-1,-1,-1,-1,-1,-1,-1,-1,-1,-1,-1,-1,-1,-1,-1,-1],"split_conditions":[-2.8056264E0,2.8252115E0,2.0330925E2,8.2330986E1,-5.088147E-1,6.00646E-1,1.6910839E0,1.562095E2,1.1693115E0,-6.230469E-1,-1.9342192E0,1.0582791E2,2.3910093E0,8.1365967E-1,-5.513157E-1,-2.0872498E-1,-1.5651855E0,-5.478923E-1,2.0750357E1,1.1135729E2,-3.0324707E0,4.0004383E1,-3.3369413E-1,1.7580179E2,1.7308827E2,-4.6886444E-2,-4.4565803E-1,-4.909436E-1,2.9770547E-1,1.4171153E-1,5.5637688E1,-4.63192E-1,8.187256E-1,1.7511514E0,1.9098352E2,1.4281358E2,3.3851128E1,-1.463774E-1,2.8074746E0,1.6675731E2,2.8869953E0,-5.642295E-1,-6.542509E-3,8.3488345E-2,4.1405526E-1,1.1533312E-1,4.5913416E-1,3.8901198E-1,-2.0779352E-1,-5.678063E-1,1.071672E-1,-6.243408E-1,1.07693546E-1,-3.588404E-1,3.9210114E-1,-1.3609937E-1,-3.2113189E-1,1.0080061E-1,3.879896E-1,-4.8133096E-1,1.0309176E-1,3.9388907E-1,-1.6553289E-1],"split_indices":[14,19,21,3,0,18,6,22,17,2,8,3,19,5,0,16,4,0,21,21,5,3,0,15,0,5,0,0,0,0,21,0,1,6,0,11,15,0,18,3,18,0,0,0,0,0,0,0,0,0,0,0,0,0,0,0,0,0,0,0,0,0,0],"split_type":[0,0,0,0,0,0,0,0,0,0,0,0,0,0,0,0,0,0,0,0,0,0,0,0,0,0,0,0,0,0,0,0,0,0,0,0,0,0,0,0,0,0,0,0,0,0,0,0,0,0,0,0,0,0,0,0,0,0,0,0,0,0,0],"sum_hessian":[9.7128174E2,7.276994E1,8.985118E2,6.6900734E1,5.8692036E0,8.266883E2,7.182348E1,3.413124E1,3.2769497E1,4.225304E1,7.8443524E2,4.377322E1,2.805026E1,2.651941E1,7.6118326E0,4.586762E0,2.8182734E1,4.4785714E0,3.7774467E1,1.1367224E2,6.70763E2,4.2551937E1,1.2212846E0,1.580864E1,1.224162E1,2.4587109E1,1.9323008E0,1.6189936E0,2.9677684E0,1.4355124E0,2.6747221E1,1.9194872E0,3.585498E1,1.053968E2,8.275447E0,3.0225662E1,6.4053735E2,1.1209226E0,4.1431015E1,4.5263114E0,1.1282328E1,1.0418093E1,1.8235279E0,1.1141966E1,1.3445143E1,1.065472E0,2.568175E1,3.322505E1,2.6299312E0,5.355488E0,1.00041306E2,7.1235456E0,1.1519015E0,7.279811E0,2.2945852E1,3.4920425E2,2.913331E2,4.246773E0,3.7184242E1,3.5206306E0,1.005681E0,1.0243785E1,1.0385432E0],"tree_param":{"num_deleted":"0","num_feature":"23","num_nodes":"63","size_leaf_vector":"0"}},{"base_weights":[-2.5375807E-1,5.043022E-1,-3.2234865E-1,6.2208563E-1,-1.3456364E0,-5.0913113E-1,-1.913523E-2,1.9199601E-1,1.0593642E0,-1.1226456E0,-3.9171287E-1,-1.9446239E-1,6.2639374E-1,5.613869E-1,-1.8591357E0,1.1899077E0,-1.3217993E0,-1.5483851E0,-3.609197E-1,4.121915E-2,-5.857617E-1,3.8194105E-1,-4.2811936E-1,8.22426E-1,-1.364797E0,7.7481663E-1,-1.4333408E0,1.2905154E0,-9.246777E-1,4.100747E-1,-1.7711035E0,1.3980114E0,-1.0183734E0,2.6616874E-1,-1.2495141E0,-9.0547025E-1,-2.4960428E-1,7.933434E-1,-2.3383796E-1,-1.0571433E0,-6.1009567E-2,-1.4087731E0,9.191656E-1,-1.8462062E0,4.9122897E-1,-2.5843528E-1,1.0823821E0,1.4908985E0,4.6520406E-1,-1.1877426E0,1.331905E0,-1.9941665E-1,-1.8330058E0,1.6128368E0,5.1316005E-1,5.9745044E-1,-1.3834795E0,8.7744987E-1,-1.5734176E-1,-9.4387196E-2,-1.5753257E0,-5.170631E-1,-1.6036164E0,9.101754E-1,-4.802791E-1,9.4009614E-1,-1.521667E0,-1.3590592E0,3.5044086E-1,2.6768896E-1,-1.4289863E0,-1.9209447E0,8.956861E-2,1.0324625E0,-3.796223E-1],"categories":[],"categories_nodes":[],"categories_segments":[],"categories_sizes":[],"default_left":[true,true,true,true,false,true,true,true,true,true,true,true,true,true,false,true,false,true,true,true,true,true,true,true,true,true,false,true,false,true,true,true,true,true,true,true,true,true,true,true,true,false,true,false,false,false,false,false,false,false,false,false,false,false,false,false,false,false,false,false,false,false,false,false,false,false,false,false,false,false,false,false,false,false,false],"id":2,"left_children":[1,3,5,7,-1,9,11,13,15,17,19,21,23,25,-1,27,-1,29,31,33,35,37,39,41,43,45,-1,47,-1,49,51,53,55,57,59,61,63,65,67,69,71,-1,73,-1,-1,-1,-1,-1,-1,-1,-1,-1,-1,-1,-1,-1,-1,-1,-1,-1,-1,-1,-1,-1,-1,-1,-1,-1,-1,-1,-1,-1,-1,-1,-1],"loss_changes":[4.9756977E1,1.816648E1,4.9561943E1,1.3987387E1,0E0,3.857547E1,3.8001648E1,3.0791042E1,1.3134251E1,2.748201E1,3.8343384E1,3.5714737E1,2.9118885E1,1.5601751E1,0E0,8.806717E0,0E0,2.4787125E1,3.8781303E1,4.1592575E1,3.3630257E1,1.960807E1,4.3417595E1,1.5523258E1,6.9866257E0,1.0257534E1,0E0,5.025009E0,0E0,1.1074229E1,4.471527E0,9.232502E-1,1.5040571E1,3.168007E1,7.854847E0,4.2850403E1,4.188899E1,1.7122475E1,2.1172007E1,3.4538177E1,3.377022E1,0E0,9.77784E0,0E0,0E0,0E0,0E0,0E0,0E0,0E0,0E0,0E0,0E0,0E0,0E0,0E0,0E0,0E0,0E0,0E0,0E0,0E0,0E0,0E0,0E0,0E0,0E0,0E0,0E0,0E0,0E0,0E0,0E0,0E0,0E0],"parents":[2147483647,0,0,1,1,2,2,3,3,5,5,6,6,7,7,8,8,9,9,10,10,11,11,12,12,13,13,15,15,17,17,18,18,19,19,20,20,21,21,22,22,23,23,24,24,25,25,27,27,29,29,30,30,31,31,32,32,33,33,34,34,35,35,36,36,37,37,38,38,39,39,40,40,42,42],"right_children":[2,4,6,8,-1,10,12,14,16,18,20,22,24,26,-1,28,-1,30,32,34,36,38,40,42,44,46,-1,48,-1,50,52,54,56,58,60,62,64,66,68,70,72,-1,74,-1,-1,-1,-1,-1,-1,-1,-1,-1,-1,-1,-1,-1,-1,-1,-1,-1,-1,-1,-1,-1,-1,-1,-1,-1,-1,-1,-1,-1,-1,-1,-1],"split_conditions":[8.723372E-1,1.9428711E0,1.5840948E2,4.695295E1,-4.0369093E-1,4.243904E1,2.3198242E0,-3.486328E-1,9.576416E-1,7.1551514E-1,8.977605E1,1.774219E2,1.2881342E2,2.7574337E1,-5.5774075E-1,1.7076416E0,-3.965398E-1,-2.0932617E0,7.518921E-1,8.201294E-1,2.4398088E0,-1.7382812E-1,2.3017682E2,2.5029433E0,2.686501E0,-2.0978427E0,-4.3000224E-1,1.1962091E2,-2.7740332E-1,-2.1601562E0,1.8668926E1,-4.60083E-1,-2.5457377E0,3.3952744E1,3.832953E1,8.5359665E1,2.5383945E0,1.19381454E2,8.2643875E1,5.522067E1,-1.7033691E0,-4.2263195E-1,1.1258545E0,-5.5386186E-1,1.473687E-1,-7.7530585E-2,3.2471463E-1,4.4726956E-1,1.3956122E-1,-3.563228E-1,3.995715E-1,-5.9825E-2,-5.499018E-1,4.8385108E-1,1.5394802E-1,1.7923513E-1,-4.1504386E-1,2.6323497E-1,-4.720253E-2,-2.831616E-2,-4.7259775E-1,-1.5511893E-1,-4.810849E-1,2.7305263E-1,-1.4408374E-1,2.8202885E-1,-4.565001E-1,-4.077178E-1,1.0513226E-1,8.0306694E-2,-4.2869592E-1,-5.7628345E-1,2.6870584E-2,3.0973876E-1,-1.138867E-1],"split_indices":[6,5,10,15,0,13,2,16,4,1,11,10,0,15,0,17,0,16,1,16,18,5,10,6,8,9,0,21,0,16,21,2,14,3,10,20,18,7,0,20,4,0,1,0,0,0,0,0,0,0,0,0,0,0,0,0,0,0,0,0,0,0,0,0,0,0,0,0,0,0,0,0,0,0,0],"split_type":[0,0,0,0,0,0,0,0,0,0,0,0,0,0,0,0,0,0,0,0,0,0,0,0,0,0,0,0,0,0,0,0,0,0,0,0,0,0,0,0,0,0,0,0,0,0,0,0,0,0,0,0,0,0,0,0,0,0,0,0,0,0,0,0,0,0,0,0,0,0,0,0,0,0,0],"sum_hessian":[9.528163E2,7.853194E1,8.742843E2,7.4455185E1,4.0767484E0,5.4059393E2,3.3369037E2,3.8261646E1,3.6193542E1,8.5466644E1,4.5512732E2,2.6296674E2,7.0723625E1,3.3038082E1,5.2235656E0,3.47867E1,1.4068406E0,5.4161995E1,3.1304646E1,1.411044E2,3.1402292E2,7.56681E1,1.8729865E2,6.4919304E1,5.804324E0,3.0397238E1,2.6408432E0,3.3578793E1,1.2079062E0,5.4445405E0,4.8717457E1,8.210942E0,2.3093704E1,1.2083841E2,2.026599E1,1.6008122E2,1.539417E2,4.5188965E1,3.0479137E1,6.833333E1,1.1896532E2,2.1341763E0,6.2785126E1,4.613089E0,1.1912352E0,7.0093584E0,2.3387878E1,2.6369818E1,7.2089767E0,1.8863869E0,3.5581536E0,2.0060399E0,4.6711414E1,5.9449096E0,2.2660332E0,4.1391206E0,1.8954582E1,4.9017014E1,7.1821396E1,4.7423267E0,1.5523662E1,1.03975845E2,5.610538E1,2.5050062E1,1.2889163E2,4.305363E1,2.1353345E0,9.964044E0,2.0515093E1,1.5037307E1,5.3296024E1,8.0294E0,1.1093592E2,5.793624E1,4.8488836E0],"tree_param":{"num_deleted":"0","num_feature":"23","num_nodes":"75","size_leaf_vector":"0"}},{"base_weights":[-1.8934855E-1,4.6377578E-1,-2.4405244E-1,7.154922E-1,-8.650601E-1,7.9019105E-1,-2.8368047E-1,1.2160287E-2,1.197067E0,5.2213055E-1,-1.213653E0,-1.4167131E0,1.1728069E0,-1.7733382E0,-2.54131E-1,-1.3763429E0,8.2182705E-1,1.3721911E0,2.3900396E-1,-1.4321468E0,-3.1302914E-2,1.2771028E0,-7.5212544E-1,2.4418786E-1,-3.4239992E-1,-1.7177E0,2.7223825E-1,-1.0246724E0,1.1394105E0,1.4193536E0,3.8835827E-1,-1.1080703E0,9.686875E-1,-1.611187E0,-1.2774959E-1,-9.0230614E-2,1.3597887E0,5.3289837E-1,-1.6467013E0,3.473396E-1,-4.0785873E-1,1.3225684E0,-6.521345E-1,1.4539313E0,2.520297E-1,3.896273E-1,1.3852673E0,7.780284E-1,-3.6855826E-1,-1.6942927E0,-5.080074E-1,4.902153E-1,-1.353876E0,-5.375693E-1,1.2176807E-1],"categories":[],"categories_nodes":[],"categories_segments":[],"categories_sizes":[],"default_left":[true,true,true,true,true,true,true,true,true,false,true,false,true,false,true,true,true,true,true,true,false,true,false,true,true,false,false,false,true,true,false,false,false,false,false,false,true,true,true,true,true,false,false,false,false,false,false,false,false,false,false,false,false,false,false],"id":3,"left_children":[1,3,5,7,9,11,13,15,17,-1,19,-1,21,-1,23,25,27,29,31,33,-1,35,-1,37,39,-1,-1,-1,41,43,-1,-1,-1,-1,-1,-1,45,47,49,51,53,-1,-1,-1,-1,-1,-1,-1,-1,-1,-1,-1,-1,-1,-1],"loss_changes":[3.2790237E1,2.4377237E1,3.483874E1,2.0397242E1,6.3226175E0,2.8201227E1,3.5386467E1,2.9802187E1,5.6720047E0,0E0,2.4617367E0,0E0,6.4480743E0,0E0,3.5249065E1,5.9643593E0,1.0981468E1,8.4187317E-1,7.695868E0,1.7014923E0,0E0,3.0960655E0,0E0,6.687186E1,3.082444E1,0E0,0E0,0E0,5.7034626E0,7.7477646E-1,0E0,0E0,0E0,0E0,0E0,0E0,7.48024E-2,2.3628113E1,2.0298004E-2,1.5112429E1,4.2736427E1,0E0,0E0,0E0,0E0,0E0,0E0,0E0,0E0,0E0,0E0,0E0,0E0,0E0,0E0],"parents":[2147483647,0,0,1,1,2,2,3,3,4,4,5,5,6,6,7,7,8,8,10,10,12,12,14,14,15,15,16,16,17,17,18,18,19,19,21,21,23,23,24,24,28,28,29,29,36,36,37,37,38,38,39,39,40,40],"right_children":[2,4,6,8,10,12,14,16,18,-1,20,-1,22,-1,24,26,28,30,32,34,-1,36,-1,38,40,-1,-1,-1,42,44,-1,-1,-1,-1,-1,-1,46,48,50,52,54,-1,-1,-1,-1,-1,-1,-1,-1,-1,-1,-1,-1,-1,-1],"split_conditions":[-1.8282471E0,9.508377E1,-3.050537E0,7.7962585E1,5.1788445E1,2.0671834E2,-1.6379395E0,7.7542293E-1,1.401722E2,1.5663917E-1,2.1049669E2,-4.2501396E-1,2.6032286E0,-5.320015E-1,9.304712E-1,4.369812E-1,4.4404343E1,3.5023065E2,7.738342E-1,3.0600372E2,-9.390875E-3,9.7971275E1,-2.2563764E-1,9.015503E-1,8.723372E-1,-5.1531005E-1,8.167148E-2,-3.0740172E-1,-8.240967E-1,2.8985972E0,1.16507486E-1,-3.324211E-1,2.9060626E-1,-4.8335612E-1,-3.8324878E-2,-2.7069185E-2,5.2715233E1,1.3295757E2,1.5640869E0,8.539429E-1,1.6842936E0,3.9677054E-1,-1.9564036E-1,4.3617943E-1,7.560891E-2,1.16888195E-1,4.1558018E-1,2.3340854E-1,-1.1056748E-1,-5.0828785E-1,-1.5240222E-1,1.470646E-1,-4.0616283E-1,-1.612708E-1,3.6530424E-2],"split_indices":[16,13,17,12,20,22,16,14,11,0,0,0,19,0,18,4,3,20,1,11,0,20,0,5,6,0,0,0,1,9,0,0,0,0,0,0,21,11,16,4,8,0,0,0,0,0,0,0,0,0,0,0,0,0,0],"split_type":[0,0,0,0,0,0,0,0,0,0,0,0,0,0,0,0,0,0,0,0,0,0,0,0,0,0,0,0,0,0,0,0,0,0,0,0,0,0,0,0,0,0,0,0,0,0,0,0,0,0,0,0,0,0,0],"sum_hessian":[9.1359485E2,7.0028465E1,8.435664E2,5.926389E1,1.0764571E1,3.043037E1,8.1313605E2,2.450297E1,3.476092E1,2.0618443E0,8.702727E0,4.0969157E0,2.6333454E1,1.4668147E1,7.984679E2,8.7675495E0,1.5735419E1,2.9023472E1,5.737449E0,7.167018E0,1.5357091E0,2.5299248E1,1.0342066E0,1.1988656E2,6.7858136E2,7.228816E0,1.5387335E0,1.9824654E0,1.37529545E1,2.7273378E1,1.7500947E0,1.8336926E0,3.9037566E0,6.0952005E0,1.0718174E0,1.4374609E0,2.3861786E1,1.0462939E2,1.5257168E1,5.8444572E1,6.201368E2,1.271483E1,1.0381241E0,2.6250282E1,1.0230949E0,1.0275506E0,2.2834236E1,8.23682E1,2.2261189E1,1.4176729E1,1.080439E0,5.457312E1,3.8714507E0,4.9812607E2,1.2201072E2],"tree_param":{"num_deleted":"0","num_feature":"23","num_nodes":"55","size_leaf_vector":"0"}},{"base_weights":[-1.3678728E-1,-1.7962591E-1,4.3654877E-1,1.2225675E-1,-2.9017442E-1,9.1547996E-1,-2.5114167E-1,-1.1152395E-2,1.2313734E0,-9.092324E-2,-6.1432296E-1,9.9868715E-1,-8.0861247E-1,3.3067858E-1,-1.2587434E0,5.099433E-1,-2.4343912E-1,1.4462115E0,-7.5015026E-1,-1.8586516E-1,8.591181E-1,-1.6583663E0,-4.3990228E-1,1.12761155E-1,1.1014192E0,7.2750354E-1,-1.2010822E0,-1.3585364E0,-1.9688326E-1,-2.659232E-1,9.033526E-1,-1.6316397E0,-2.4304301E-3,-7.151295E-1,1.5992036E0,-3.4552857E-1,3.4872672E-1,1.1261363E0,-1.281769E0,1.4596548E0,-5.280805E-1,8.95119E-1,-1.0834576E0,1.1757821E0,3.888263E-1,1.0264395E0,-9.6665925E-1,-1.1941144E0,9.7719204E-1,1.32693E0,-4.6031956E-2,3.85934E-1,-9.529873E-1,2.1142228E0,1.2416662E0,-2.4455424E-1,-1.6332724E0,6.0046875E-1,-1.3925555E0,-1.2410172E0,1.314593E0,1.6636477E0,-6.706521E-2,6.801786E-1,-6.5789837E-1,1.3780403E-1,1.2187765E0,-7.055157E-1,9.565753E-1,-1.3049339E-1,1.1494727E0],"categories":[],"categories_nodes":[],"categories_segments":[],"categories_sizes":[],"default_left":[true,true,true,true,true,true,true,true,true,true,true,true,false,true,true,true,true,true,false,true,true,false,true,true,true,true,false,false,false,true,true,false,true,false,true,true,true,true,false,true,true,false,false,true,true,true,false,false,false,false,false,false,false,false,false,false,false,false,false,false,false,false,false,false,false,false,false,false,false,false,false],"id":4,"left_children":[1,3,5,7,9,11,13,15,17,19,21,23,-1,25,27,29,31,33,-1,35,37,-1,39,41,43,45,-1,-1,-1,47,49,-1,51,-1,53,55,57,59,-1,61,63,-1,-1,65,67,69,-1,-1,-1,-1,-1,-1,-1,-1,-1,-1,-1,-1,-1,-1,-1,-1,-1,-1,-1,-1,-1,-1,-1,-1,-1],"loss_changes":[2.193807E1,2.769638E1,2.0705557E1,3.299085E1,3.914712E1,6.0956516E0,1.5838372E1,2.4324492E1,1.1275562E1,3.417222E1,4.131713E1,3.1169777E0,0E0,1.1492099E1,7.750025E-1,1.915455E1,4.6489E1,8.397934E0,0E0,2.9452364E1,2.1130045E1,0E0,3.413741E1,5.4756165E0,1.2277985E0,8.334311E0,0E0,0E0,0E0,2.6115E1,1.6687542E1,0E0,4.4448956E1,0E0,1.20438E0,3.4073586E1,3.5697968E1,1.5528202E1,0E0,2.9464836E0,3.0422451E1,0E0,0E0,1.0949516E0,3.4700303E0,1.9730902E0,0E0,0E0,0E0,0E0,0E0,0E0,0E0,0E0,0E0,0E0,0E0,0E0,0E0,0E0,0E0,0E0,0E0,0E0,0E0,0E0,0E0,0E0,0E0,0E0,0E0],"parents":[2147483647,0,0,1,1,2,2,3,3,4,4,5,5,6,6,7,7,8,8,9,9,10,10,11,11,13,13,14,14,15,15,16,16,17,17,19,19,20,20,22,22,23,23,24,24,25,25,29,29,30,30,32,32,34,34,35,35,36,36,37,37,39,39,40,40,43,43,44,44,45,45],"right_children":[2,4,6,8,10,12,14,16,18,20,22,24,-1,26,28,30,32,34,-1,36,38,-1,40,42,44,46,-1,-1,-1,48,50,-1,52,-1,54,56,58,60,-1,62,64,-1,-1,66,68,70,-1,-1,-1,-1,-1,-1,-1,-1,-1,-1,-1,-1,-1,-1,-1,-1,-1,-1,-1,-1,-1,-1,-1,-1,-1],"split_conditions":[2.0330925E2,1.2464583E0,1.6910839E0,2.9816895E0,2.2549686E0,1.0582791E2,2.1096802E-1,-1.523952E0,1.2980914E2,2.8464355E0,2.461183E1,2.8074746E0,-2.4258375E-1,9.2519295E1,3.1078677E2,-9.383545E-1,-6.223171E-1,1.8609673E2,-2.2504508E-1,1.6992941E0,8.0280805E-1,-4.9750993E-1,2.4687653E1,3.8975212E1,1.6564528E2,2.803718E0,-3.6032468E-1,-4.075609E-1,-5.906498E-2,3.1246927E2,-3.183899E-1,-4.8949194E-1,7.934736E1,-2.1453886E-1,2.645334E0,1.098999E0,3.961134E1,-1.2279053E0,-3.8453072E-1,-2.0209074E0,-2.0263672E0,2.685357E-1,-3.250373E-1,5.691047E1,1.1251476E0,1.0022646E2,-2.899978E-1,-3.5823435E-1,2.9315764E-1,3.9807904E-1,-1.3809587E-2,1.15780205E-1,-2.858962E-1,6.3426685E-1,3.7249988E-1,-7.336628E-2,-4.8998174E-1,1.8014063E-1,-4.1776666E-1,-3.7230518E-1,3.9437792E-1,4.990943E-1,-2.0119563E-2,2.0405358E-1,-1.9736952E-1,4.134121E-2,3.6563295E-1,-2.1165471E-1,2.8697258E-1,-3.9148018E-2,3.4484184E-1],"split_indices":[21,18,6,2,19,3,1,9,11,17,15,18,0,12,21,17,9,22,0,8,9,0,15,0,10,19,0,0,0,22,2,0,13,0,6,1,15,16,0,9,16,0,0,13,9,11,0,0,0,0,0,0,0,0,0,0,0,0,0,0,0,0,0,0,0,0,0,0,0,0,0],"split_type":[0,0,0,0,0,0,0,0,0,0,0,0,0,0,0,0,0,0,0,0,0,0,0,0,0,0,0,0,0,0,0,0,0,0,0,0,0,0,0,0,0,0,0,0,0,0,0,0,0,0,0,0,0,0,0,0,0,0,0,0,0,0,0,0,0,0,0,0,0,0,0],"sum_hessian":[8.8901733E2,8.278487E2,6.116865E1,2.2186911E2,6.059796E2,3.586193E1,2.5306719E1,1.9893083E2,2.293828E1,3.760844E2,2.2989519E2,3.461224E1,1.2496905E0,1.6468891E1,8.837828E0,6.0966824E1,1.37964E2,2.0938288E1,1.9999909E0,3.4264655E2,3.3437855E1,3.1691156E1,1.9820403E2,3.8145442E0,3.0797697E1,1.3497278E1,2.9716127E0,7.823214E0,1.0146134E0,2.0621655E1,4.034517E1,1.9555433E1,1.1840857E2,1.1412601E0,1.9797028E1,2.6411774E2,7.852883E1,3.0151278E1,3.2865763E0,8.102591E0,1.9010144E2,2.458398E0,1.3561461E0,2.7298906E1,3.498792E0,1.1807899E1,1.689379E0,1.1828866E1,8.792789E0,2.762315E1,1.2722019E1,8.4484955E1,3.392362E1,6.098736E0,1.3698293E1,2.46017E2,1.810073E1,6.918213E1,9.346699E0,1.8115633E0,2.8339714E1,7.0684514E0,1.0341393E0,1.8032001E1,1.7206944E2,1.2530353E0,2.604587E1,1.1122549E0,2.386537E0,1.1291734E0,1.0678726E1],"tree_param":{"num_deleted":"0","num_feature":"23","num_nodes":"71","size_leaf_vector":"0"}},{"base_weights":[-1.0227516E-1,5.8085096E-1,-1.4323968E-1,-9.8121446E-1,8.3609694E-1,-1.09165736E-1,-9.122074E-1,6.5567094E-1,-1.3661989E0,2.585939E-1,1.2425661E0,-3.381421E-2,-4.5999005E-1,-1.269848E0,8.594343E-1,1.0443069E0,-1.0739793E0,1.2926567E0,5.610575E-2,-6.763927E-2,1.0608504E0,-8.10482E-1,2.5301276E-2,-3.9615276E-1,-1.4421664E0,-2.2444038E-1,1.1447853E0,1.1490794E0,1.3730586E-4,-1.2421608E0,-8.187533E-2,1.353599E0,2.3374005E-1,3.9410797E-1,-1.4374004E-1,1.2059004E0,-7.5553155E-1,-1.1050504E0,2.4184744E-1,-2.507714E-1,1.208187E0,-8.431982E-1,2.0920254E-1,1.3923137E0,3.2176846E-1,1.202599E0,3.3426797E-1,1.4166962E0,4.0679193E-1,-2.1736598E-1,7.68581E-1,-9.1100246E-1,-2.6666988E-2,1.21225566E-1,1.2634166E0,-7.7591375E-2,-1.495588E0,9.24191E-1,-1.1490037E0,1.08459204E-1,-1.2857609E0,1.1442504E-1,1.7569629E0,8.530494E-1,-4.8037112E-1],"categories":[],"categories_nodes":[],"categories_segments":[],"categories_sizes":[],"default_left":[true,true,true,true,true,true,true,false,false,true,true,true,true,true,true,true,true,true,false,true,true,true,true,true,false,false,true,true,false,false,false,true,false,true,true,true,false,true,true,true,true,false,true,false,false,false,false,false,false,false,false,false,false,false,false,false,false,false,false,false,false,false,false,false,false],"id":5,"left_children":[1,3,5,7,9,11,13,-1,-1,15,17,19,21,23,25,27,29,31,-1,33,35,37,39,41,-1,-1,43,45,-1,-1,-1,47,-1,49,51,53,-1,55,57,59,61,-1,63,-1,-1,-1,-1,-1,-1,-1,-1,-1,-1,-1,-1,-1,-1,-1,-1,-1,-1,-1,-1,-1,-1],"loss_changes":[2.3796696E1,2.0013626E1,2.0868605E1,5.446405E0,9.518166E0,2.02718E1,2.2520014E1,0E0,0E0,2.0573423E1,1.3739319E0,2.3503548E1,2.3086569E1,3.7259483E0,2.1982746E0,1.3338976E0,1.130353E0,1.1877022E0,0E0,2.1660307E1,5.9243813E0,2.4685051E1,1.9191004E1,1.8220092E0,0E0,0E0,5.976243E-1,8.128452E-2,0E0,0E0,0E0,7.278595E-1,0E0,2.0147E1,4.7452576E1,9.701843E-1,0E0,2.4651237E1,1.8190002E1,1.7882648E1,6.471424E0,0E0,1.912332E0,0E0,0E0,0E0,0E0,0E0,0E0,0E0,0E0,0E0,0E0,0E0,0E0,0E0,0E0,0E0,0E0,0E0,0E0,0E0,0E0,0E0,0E0],"parents":[2147483647,0,0,1,1,2,2,3,3,4,4,5,5,6,6,9,9,10,10,11,11,12,12,13,13,14,14,15,15,16,16,17,17,19,19,20,20,21,21,22,22,23,23,26,26,27,27,31,31,33,33,34,34,35,35,37,37,38,38,39,39,40,40,42,42],"right_children":[2,4,6,8,10,12,14,-1,-1,16,18,20,22,24,26,28,30,32,-1,34,36,38,40,42,-1,-1,44,46,-1,-1,-1,48,-1,50,52,54,-1,56,58,60,62,-1,64,-1,-1,-1,-1,-1,-1,-1,-1,-1,-1,-1,-1,-1,-1,-1,-1,-1,-1,-1,-1,-1,-1],"split_conditions":[-2.885077E0,6.1708366E1,2.7026367E0,2.2361267E1,1.2175857E2,8.215332E-1,2.494873E0,1.9670129E-1,-4.098597E-1,1.1435847E0,2.8489352E2,7.920532E-1,2.6498182E0,-2.1041646E0,6.404195E1,1.2874437E2,1.6394043E0,1.5666246E2,1.6831726E-2,-2.611084E0,8.1612366E1,1.7900235E2,2.0458984E0,1.4157831E2,-4.3264994E-1,-6.733212E-2,7.1678314E1,2.0506573E2,4.119176E-5,-3.7264824E-1,-2.4562601E-2,1.202053E2,7.012202E-2,2.1086102E2,-1.62854E0,-1.2889676E0,-2.2665948E-1,2.2140553E1,7.066226E1,2.5982666E-1,7.1362305E-1,-2.5295946E-1,2.62713E2,4.1769412E-1,9.653054E-2,3.6077973E-1,1.002804E-1,4.2500886E-1,1.2203758E-1,-6.52098E-2,2.305743E-1,-2.7330074E-1,-8.000096E-3,3.636767E-2,3.79025E-1,-2.3277413E-2,-4.486764E-1,2.7725732E-1,-3.4470114E-1,3.2537762E-2,-3.8572827E-1,3.4327514E-2,5.270889E-1,2.5591484E-1,-1.4411134E-1],"split_indices":[14,7,5,21,13,16,17,0,0,18,11,16,19,8,20,11,1,20,0,17,12,11,1,10,0,0,3,0,0,0,0,12,0,22,17,9,0,15,3,5,4,0,22,0,0,0,0,0,0,0,0,0,0,0,0,0,0,0,0,0,0,0,0,0,0],"split_type":[0,0,0,0,0,0,0,0,0,0,0,0,0,0,0,0,0,0,0,0,0,0,0,0,0,0,0,0,0,0,0,0,0,0,0,0,0,0,0,0,0,0,0,0,0,0,0,0,0,0,0,0,0,0,0,0,0,0,0,0,0,0,0,0,0],"sum_hessian":[8.463968E2,4.713822E1,7.9925854E2,6.2212086E0,4.0917015E1,7.6643866E2,3.2819912E1,1.0507017E0,5.170507E0,1.7578308E1,2.3338707E1,6.318283E2,1.3461035E2,2.7543047E1,5.276866E0,1.1194261E1,6.384047E0,2.2307415E1,1.0312917E0,6.138001E2,1.8028172E1,7.777141E1,5.683894E1,5.080858E0,2.2462189E1,1.144201E0,4.1326647E0,1.0082141E1,1.1121196E0,5.2431765E0,1.1408706E0,2.0830313E1,1.4771032E0,8.625607E1,5.2754407E2,1.700621E1,1.021961E0,6.0723557E1,1.7047853E1,4.672243E1,1.0116508E1,2.6965787E0,2.3842793E0,2.6453397E0,1.4873252E0,9.014137E0,1.0680032E0,1.9063585E1,1.766726E0,3.2920307E1,5.3335762E1,6.894133E1,4.5860272E2,1.0128558E0,1.5993356E1,1.7054314E1,4.366924E1,1.1662044E1,5.38581E0,3.534862E1,1.1373812E1,3.783716E0,6.332792E0,1.1104227E0,1.2738566E0],"tree_param":{"num_deleted":"0","num_feature":"23","num_nodes":"65","size_leaf_vector":"0"}},{"base_weights":[-7.5666934E-2,-9.424241E-1,-5.143159E-2,-1.3848866E0,7.633945E-1,3.0310887E-1,-1.22870445E-1,-1.4215467E0,-4.3522543E-1,1.2238436E0,-5.046309E-1,-1.1595515E0,4.4759923E-1,8.9984524E-1,-1.5262236E-1,-2.3330209E-1,-1.4689157E0,-1.1857647E0,5.2870387E-1,-5.405745E-1,1.3080817E0,2.7465022E-1,-2.2962673E-1,1.6885793E-1,-5.699518E-1,-1.4287663E0,-9.217034E-2,5.888084E-1,-1.2592084E0,-1.087706E0,6.3603824E-1,3.91011E-1,-1.1996026E0,6.9167465E-2,-3.6717582E-1,8.072502E-1,1.2373782E-1,-2.1530992E-1,6.9890946E-1,-1.1172837E0,1.8842472E-1,-7.007531E-1,-1.7837308E-1],"categories":[],"categories_nodes":[],"categories_segments":[],"categories_sizes":[],"default_left":[true,true,true,true,true,true,true,false,false,false,false,true,true,true,true,true,false,true,true,true,false,true,true,false,false,false,false,true,false,false,false,true,false,true,true,false,false,false,false,false,false,false,false],"id":6,"left_children":[1,3,5,7,9,11,13,-1,-1,-1,-1,15,17,19,21,23,-1,25,27,29,-1,31,33,-1,-1,-1,-1,35,-1,-1,-1,37,-1,39,41,-1,-1,-1,-1,-1,-1,-1,-1],"loss_changes":[1.7111557E1,1.7784529E1,2.0191772E1,6.336212E-3,3.659063E0,2.878332E1,2.0311043E1,0E0,0E0,0E0,0E0,3.182476E0,1.6846453E1,1.1813437E1,2.1288593E1,6.742019E-1,0E0,1.4894466E0,1.3350536E1,3.8323767E0,0E0,1.7446247E1,2.2512648E1,0E0,0E0,0E0,0E0,1.1501884E1,0E0,0E0,0E0,1.7415249E1,0E0,2.4734125E1,2.3481903E1,0E0,0E0,0E0,0E0,0E0,0E0,0E0,0E0],"parents":[2147483647,0,0,1,1,2,2,3,3,4,4,5,5,6,6,11,11,12,12,13,13,14,14,15,15,17,17,18,18,19,19,21,21,22,22,27,27,31,31,33,33,34,34],"right_children":[2,4,6,8,10,12,14,-1,-1,-1,-1,16,18,20,22,24,-1,26,28,30,-1,32,34,-1,-1,-1,-1,36,-1,-1,-1,38,-1,40,42,-1,-1,-1,-1,-1,-1,-1,-1],"split_conditions":[6.899518E-1,1.0607501E2,1.1760316E0,2.30586E0,-1.9221497E-1,-2.074707E0,-3.0534668E0,-4.2646402E-1,-1.3056764E-1,3.6715308E-1,-1.5138929E-1,-2.0356445E0,6.481053E1,1.4311905E2,-2.5285645E0,3.0600076E2,-4.4067472E-1,9.145508E-1,2.7946777E0,3.4199557E0,3.9242455E-1,8.845825E-1,-8.9068604E-1,5.065738E-2,-1.7098553E-1,-4.286299E-1,-2.7651103E-2,8.7117294E1,-3.7776256E-1,-3.263118E-1,1.9081149E-1,7.047356E-2,-3.598808E-1,-1.498169E0,6.7099045E1,2.4217507E-1,3.7121348E-2,-6.459298E-2,2.0967285E-1,-3.351851E-1,5.6527417E-2,-2.1022594E-1,-5.351193E-2],"split_indices":[19,21,19,8,1,17,5,0,0,0,0,4,11,11,17,11,0,1,2,19,0,16,4,0,0,0,0,13,0,0,0,9,0,17,12,0,0,0,0,0,0,0,0],"split_type":[0,0,0,0,0,0,0,0,0,0,0,0,0,0,0,0,0,0,0,0,0,0,0,0,0,0,0,0,0,0,0,0,0,0,0,0,0,0,0,0,0,0,0],"sum_hessian":[8.159044E2,2.11624E1,7.94742E2,1.6953157E1,4.209243E0,1.3273836E2,6.6200366E2,1.5844605E1,1.1085517E0,3.113502E0,1.0957407E0,1.1302207E1,1.2143615E2,1.788728E1,6.441164E2,3.2689536E0,8.033253E0,5.1003428E0,1.1633581E2,3.8784401E0,1.4008839E1,9.796627E1,5.4615015E2,1.7166585E0,1.5522952E0,3.9223025E0,1.17804E0,1.1320098E2,3.1348233E0,2.698967E0,1.1794732E0,9.14806E1,6.485667E0,1.7232037E2,3.7382974E2,7.652278E1,3.6678196E1,3.091088E1,6.0569725E1,1.4974573E1,1.573458E2,1.3413249E2,2.3969727E2],"tree_param":{"num_deleted":"0","num_feature":"23","num_nodes":"43","size_leaf_vector":"0"}},{"base_weights":[-5.789083E-2,4.1227946E-1,-9.858832E-2,2.7304245E-2,8.22121E-1,-6.519196E-1,-4.1707046E-2,6.446841E-1,-7.4990433E-1,-8.9283526E-1,9.105071E-1,-8.258446E-1,1.3236725E0,5.2405757E-1,-8.6093575E-2,9.1881126E-1,-1.0054681E0,-1.1209333E0,8.037011E-1,9.938364E-1,-7.239222E-1,-3.4495434E-1,-1.3756118E0,1.18610784E-1,1.5467227E0,1.1369263E0,-8.138094E-2,-2.0951882E-1,1.3194168E-1,-4.4284815E-1,1.0352588E0,-1.3719096E0,-4.6565846E-1,1.19193E0,3.8759878E-1,1.0645027E0,-5.918463E-1,1.2881469E0,-8.9135355E-1,6.716498E-1,-1.0757198E0,1.9771808E-1,-3.3633226E-1,2.8980123E-2,8.6133826E-1,1.07286744E-1,1.1456245E0,2.8181043E-2,-9.598971E-1,1.3123052E0,3.3268747E-1,7.3558813E-1,-9.000768E-1,-1.2658138E0,1.8229945E-1,1.4030039E0,1.452418E-1,-1.2941189E0,1.384772E0,-1.4161893E0,8.083291E-1,-1.0397252E0,3.4493008E-1,4.6459338E-1,-4.4416595E-1,-1.229541E0,9.935175E-2,1.0624362E0,-1.2108334E0],"categories":[],"categories_nodes":[],"categories_segments":[],"categories_sizes":[],"default_left":[true,true,true,true,true,true,true,true,true,false,true,true,true,true,true,true,false,true,false,true,false,true,false,false,false,true,true,true,true,false,true,false,true,true,true,false,true,true,false,true,true,true,true,true,true,false,false,false,false,false,false,false,false,false,false,false,false,false,false,false,false,false,false,false,false,false,false,false,false],"id":7,"left_children":[1,3,5,7,9,11,13,15,17,-1,19,21,23,25,27,29,-1,31,-1,33,-1,35,-1,-1,-1,37,39,41,43,-1,45,-1,47,49,51,-1,53,55,-1,57,59,61,63,65,67,-1,-1,-1,-1,-1,-1,-1,-1,-1,-1,-1,-1,-1,-1,-1,-1,-1,-1,-1,-1,-1,-1,-1,-1],"loss_changes":[1.519068E1,9.959735E0,2.2932856E1,1.6633419E1,5.452654E0,2.4434647E1,1.6683462E1,9.652027E0,9.7562475E0,0E0,4.751442E0,1.6194622E1,1.3972254E0,1.8029282E1,1.6583778E1,3.1649437E0,0E0,1.4692516E0,0E0,2.9713898E0,0E0,1.2797866E1,0E0,0E0,0E0,8.536837E0,1.9629343E1,2.0373878E1,1.672166E1,0E0,1.5181923E0,0E0,1.2629808E0,1.7423573E0,4.4812393E0,0E0,1.6090538E1,2.7927322E0,0E0,2.2797756E1,8.371544E0,1.748292E1,2.613554E1,1.7519936E1,1.2766336E1,0E0,0E0,0E0,0E0,0E0,0E0,0E0,0E0,0E0,0E0,0E0,0E0,0E0,0E0,0E0,0E0,0E0,0E0,0E0,0E0,0E0,0E0,0E0,0E0],"parents":[2147483647,0,0,1,1,2,2,3,3,4,4,5,5,6,6,7,7,8,8,10,10,11,11,12,12,13,13,14,14,15,15,17,17,19,19,21,21,25,25,26,26,27,27,28,28,30,30,32,32,33,33,34,34,36,36,37,37,39,39,40,40,41,41,42,42,43,43,44,44],"right_children":[2,4,6,8,10,12,14,16,18,-1,20,22,24,26,28,30,-1,32,-1,34,-1,36,-1,-1,-1,38,40,42,44,-1,46,-1,48,50,52,-1,54,56,-1,58,60,62,64,66,68,-1,-1,-1,-1,-1,-1,-1,-1,-1,-1,-1,-1,-1,-1,-1,-1,-1,-1,-1,-1,-1,-1,-1,-1],"split_conditions":[8.723372E-1,4.695295E1,5.687422E1,2.0701556E0,-9.857788E-1,1.9787706E2,1.0940831E2,-7.2247314E-1,3.6250787E0,-2.6785058E-1,1.7076416E0,9.530196E1,6.314582E1,3.1605637E1,8.199654E1,1.188414E2,-3.0164045E-1,1.7184251E2,2.4111034E-1,3.280031E-1,-2.1717666E-1,-2.74821E0,-4.1268355E-1,3.5583235E-2,4.6401682E-1,7.581496E1,2.3614454E1,-1.6707824E0,2.8552246E0,-1.3285445E-1,4.803205E1,-4.115729E-1,5.538336E1,1.4742558E0,2.8519638E1,3.1935084E-1,1.0139091E0,6.0879517E-1,-2.6740608E-1,2.182322E1,3.0830078E0,-2.4075046E0,2.4892735E1,1.6096597E2,2.621286E0,3.2186024E-2,3.4368736E-1,8.4543135E-3,-2.8796914E-1,3.9369157E-1,9.980624E-2,2.2067645E-1,-2.7002305E-1,-3.7974417E-1,5.4689836E-2,4.209012E-1,4.357254E-2,-3.882357E-1,4.154316E-1,-4.248568E-1,2.4249874E-1,-3.1191757E-1,1.0347903E-1,1.3937803E-1,-1.3324979E-1,-3.688623E-1,2.9805526E-2,3.187309E-1,-3.6325005E-1],"split_indices":[6,15,10,18,16,11,22,1,19,0,17,22,12,21,0,11,0,11,0,8,0,9,0,0,0,10,15,8,17,0,0,0,0,9,10,0,8,17,0,15,5,14,0,22,18,0,0,0,0,0,0,0,0,0,0,0,0,0,0,0,0,0,0,0,0,0,0,0,0],"split_type":[0,0,0,0,0,0,0,0,0,0,0,0,0,0,0,0,0,0,0,0,0,0,0,0,0,0,0,0,0,0,0,0,0,0,0,0,0,0,0,0,0,0,0,0,0,0,0,0,0,0,0,0,0,0,0,0,0,0,0,0,0,0,0,0,0,0,0,0,0],"sum_hessian":[7.90755E2,6.2266914E1,7.284881E2,3.2657486E1,2.960943E1,6.693125E1,6.615568E2,1.8295149E1,1.4362336E1,1.0051397E0,2.860429E1,6.2050495E1,4.880755E0,4.7339977E1,6.1421686E2,1.6068935E1,2.2262135E0,1.1818387E1,2.5439484E0,2.7589605E1,1.0146846E0,3.3966717E1,2.8083778E1,1.001542E0,3.879213E0,2.3089378E1,2.4250599E1,3.9222528E2,2.2199155E2,1.0451121E0,1.5023823E1,7.7546473E0,4.06374E0,2.0066563E1,7.5230436E0,4.569386E0,2.9397331E1,2.1826954E1,1.262426E0,1.3984449E1,1.0266149E1,9.300348E1,2.992218E2,1.9544261E2,2.6548933E1,1.8065102E0,1.3217313E1,2.5043716E0,1.5593683E0,1.71383E1,2.9282622E0,6.26004E0,1.2630041E0,1.5375973E1,1.40213585E1,1.9626953E1,2.2000005E0,3.5057878E0,1.0478662E1,8.905203E0,1.3609464E0,9.243251E0,8.376023E1,3.511318E1,2.6410864E2,9.477398E0,1.8596523E2,2.4644537E1,1.9043944E0],"tree_param":{"num_deleted":"0","num_feature":"23","num_nodes":"69","size_leaf_vector":"0"}},{"base_weights":[-4.3741055E-2,5.484935E-1,-7.501772E-2,-1.8028013E-1,1.0028154E0,4.363562E-1,-1.18941166E-1,4.695608E-1,-1.1094966E0,1.1000359E0,-1.8242617E-1,6.230186E-1,-4.5505515E-1,-7.3575366E-1,-6.654032E-2,-7.674661E-1,8.3056945E-1,3.139139E-1,1.2240455E0,-1.0992837E0,7.342766E-1,-1.1156002E0,2.2796598E-1,4.5363492E-1,-1.0770242E0,-1.3063807E0,-3.488757E-2,9.739699E-1,1.3517632E-1,-5.4835063E-1,7.8663427E-1,-4.814217E-1,8.202121E-1,-1.2242446E0,-3.2686776E-1,9.2345005E-1,-3.254677E-1,-1.0544779E0,9.2948717E-1,4.4252247E-1,-1.3871928E0,-1.3484836E0,-3.6957934E-1,-7.697442E-2,5.0495154E-1,-8.584744E-1,2.4291657E-1,9.6654093E-1,-8.373684E-2,-5.945978E-1,1.3818762E-1,1.1631387E0,2.0608719E-1,-8.9246905E-1,1.0406197E0,-7.717695E-2,-1.4285634E0,1.0635622E-1,-3.0525652E-1,8.54109E-1,-3.8074985E-1],"categories":[],"categories_nodes":[],"categories_segments":[],"categories_sizes":[],"default_left":[true,true,true,true,true,true,true,true,false,true,false,true,true,true,true,false,true,true,false,false,true,true,true,true,true,true,true,false,false,false,false,true,true,false,false,false,true,false,true,true,true,false,false,true,true,false,false,false,false,false,false,false,false,false,false,false,false,false,false,false,false],"id":8,"left_children":[1,3,5,7,9,11,13,15,-1,17,-1,19,21,23,25,-1,27,29,-1,-1,31,33,35,37,39,41,43,-1,-1,-1,-1,45,47,-1,-1,-1,49,-1,51,53,55,-1,-1,57,59,-1,-1,-1,-1,-1,-1,-1,-1,-1,-1,-1,-1,-1,-1,-1,-1],"loss_changes":[1.4050718E1,1.2782168E1,1.620763E1,9.858109E0,2.9197006E0,9.785822E0,2.1385422E1,5.014761E0,0E0,1.7555866E0,0E0,9.93631E0,4.976121E0,2.1525558E1,2.3985085E1,0E0,6.728668E-1,2.198625E0,0E0,0E0,5.132719E0,7.0287704E-2,2.600616E0,9.777609E0,1.9734493E1,1.01781845E-1,1.3628187E1,0E0,0E0,0E0,0E0,1.1983684E0,5.7325077E0,0E0,0E0,0E0,5.8966964E-1,0E0,1.4251976E0,7.0251117E0,1.7287979E0,0E0,0E0,2.329029E1,1.3743588E1,0E0,0E0,0E0,0E0,0E0,0E0,0E0,0E0,0E0,0E0,0E0,0E0,0E0,0E0,0E0,0E0],"parents":[2147483647,0,0,1,1,2,2,3,3,4,4,5,5,6,6,7,7,9,9,11,11,12,12,13,13,14,14,16,16,17,17,20,20,21,21,22,22,23,23,24,24,25,25,26,26,31,31,32,32,36,36,38,38,39,39,40,40,43,43,44,44],"right_children":[2,4,6,8,10,12,14,16,-1,18,-1,20,22,24,26,-1,28,30,-1,-1,32,34,36,38,40,42,44,-1,-1,-1,-1,46,48,-1,-1,-1,50,-1,52,54,56,-1,-1,58,60,-1,-1,-1,-1,-1,-1,-1,-1,-1,-1,-1,-1,-1,-1,-1,-1],"split_conditions":[-2.885077E0,8.338669E1,-1.8282471E0,-2.651453E-3,1.1955168E2,9.508377E1,-1.1986084E0,-6.499634E-1,-3.32849E-1,8.1449165E1,-5.4727852E-2,3.284985E1,2.4482422E0,3.1526207E1,7.268803E-1,-2.3023985E-1,2.790205E1,7.927598E1,3.6721367E-1,-3.297851E-1,2.2102722E1,7.9326355E1,3.0577643E2,2.6043024E1,6.189148E1,2.171875E0,2.0330925E2,2.9219097E-1,4.0552896E-2,-1.645052E-1,2.3599029E-1,-4.055481E-1,5.858295E1,-3.672734E-1,-9.806033E-2,2.7703503E-1,2.1049669E2,-3.163434E-1,-1.9155273E0,1.5150146E0,-3.0148926E0,-4.045451E-1,-1.1087381E-1,7.349428E1,2.5849197E0,-2.575423E-1,7.287497E-2,2.899623E-1,-2.5121052E-2,-1.7837936E-1,4.1456286E-2,3.4894162E-1,6.182616E-2,-2.6774073E-1,3.1218594E-1,-2.3153085E-2,-4.2856902E-1,3.1906866E-2,-9.1576956E-2,2.562327E-1,-1.1422496E-1],"split_indices":[14,3,16,17,12,13,16,17,0,20,0,3,5,21,19,0,15,12,0,0,15,3,11,21,11,1,21,0,0,0,0,4,15,0,0,0,0,0,5,2,17,0,0,7,19,0,0,0,0,0,0,0,0,0,0,0,0,0,0,0,0],"split_type":[0,0,0,0,0,0,0,0,0,0,0,0,0,0,0,0,0,0,0,0,0,0,0,0,0,0,0,0,0,0,0,0,0,0,0,0,0,0,0,0,0,0,0,0,0,0,0,0,0,0,0,0,0,0,0,0,0,0,0,0,0],"sum_hessian":[7.553288E2,3.7059395E1,7.182694E2,1.4462852E1,2.2596544E1,5.6107655E1,6.6216174E2,8.801944E0,5.6609073E0,2.094999E1,1.6465533E0,4.6641884E1,9.465771E0,5.082756E1,6.1133417E2,1.7340794E0,7.067865E0,3.3356972E0,1.7614292E1,2.2913098E0,4.4350574E1,4.4900966E0,4.9756737E0,1.1258931E1,3.956863E1,1.42161045E1,5.9711804E2,5.5274243E0,1.5404403E0,1.1245234E0,2.2111738E0,2.6242447E0,4.172633E1,3.461169E0,1.0289276E0,1.9086038E0,3.06707E0,2.4087932E0,8.850138E0,6.635236E0,3.293339E1,1.31841135E1,1.0319911E0,5.547279E2,4.2390198E1,1.604067E0,1.0201777E0,3.585326E1,5.8730707E0,1.7619357E0,1.3051342E0,6.2300205E0,2.6201177E0,1.9006599E0,4.734576E0,1.0959247E0,3.183747E1,3.0795056E2,2.4677733E2,3.0429913E1,1.1960284E1],"tree_param":{"num_deleted":"0","num_feature":"23","num_nodes":"61","size_leaf_vector":"0"}},{"base_weights":[-3.3007972E-2,3.5117468E-1,-7.766244E-2,4.3802977E-2,7.6213235E-1,-6.8672425E-1,-2.0508751E-2,5.711607E-1,-5.088534E-1,-1.7565314E-1,9.498678E-1,-1.1191945E-1,-1.1243349E0,-3.7613355E-3,-1.2671986E0,7.67394E-1,-9.6722317E-1,1.2852886E-1,-1.1468838E0,-9.884434E-1,7.27752E-1,1.0514699E0,6.543106E-2,-1.3178043E0,3.3390585E-1,-1.1934652E0,3.3203855E-1,-7.798814E-2,3.097779E-1,-8.511004E-1,9.241205E-1,-3.454459E-1,9.7057945E-1,-1.2304857E0,-1.5444253E-1,1.1555097E0,2.727134E-1,-1.4353436E-1,2.66005E-1,-7.5410354E-1,9.8374444E-1,-1.2472564E0,-1.2484783E-3,1.3486663E-2,-4.2532972E-1,5.072241E-1,-3.7739068E-1,-6.095933E-1,1.0435044E0,1.7567252E-1,-9.0727633E-1,1.2350242E0,3.123084E-1,8.19643E-1,-6.880539E-1,-2.0103422E-1,-1.1869036E0,1.1422955E0,-3.18886E-1,-7.722151E-2,5.1821303E-1,-1.5723354E-1,-1.1905817E0,6.537956E-1,-5.517759E-1,3.6159378E-1,-1.2859573E0],"categories":[],"categories_nodes":[],"categories_segments":[],"categories_sizes":[],"default_left":[true,true,true,true,true,true,true,true,true,true,true,true,true,true,false,true,false,true,true,false,false,true,true,false,true,true,false,true,true,false,true,true,false,false,false,true,true,false,false,true,true,false,false,true,true,true,true,false,false,false,false,false,false,false,false,false,false,false,false,false,false,false,false,false,false,false,false],"id":9,"left_children":[1,3,5,7,9,11,13,15,17,19,21,23,25,27,-1,29,-1,31,33,-1,-1,35,37,-1,39,41,-1,43,45,-1,47,49,-1,-1,-1,51,53,-1,-1,55,57,-1,-1,59,61,63,65,-1,-1,-1,-1,-1,-1,-1,-1,-1,-1,-1,-1,-1,-1,-1,-1,-1,-1,-1,-1],"loss_changes":[1.2569452E1,9.6057005E0,2.2813711E1,1.3323417E1,5.904747E0,1.4017715E1,1.2534071E1,7.792276E0,9.242083E0,5.330717E0,2.3854103E0,1.4103283E1,3.599205E0,1.3838904E1,0E0,6.1817007E0,0E0,5.1592593E0,7.456131E-1,0E0,0E0,1.6642952E0,2.0082563E-1,0E0,1.442474E1,1.9601402E0,0E0,1.5281145E1,1.5635474E1,0E0,4.2744923E0,2.6395774E0,0E0,0E0,0E0,1.0385399E0,2.7647116E0,0E0,0E0,1.6291003E0,2.9562502E0,0E0,0E0,1.7506914E1,2.0380299E1,1.4151703E1,1.7908281E1,0E0,0E0,0E0,0E0,0E0,0E0,0E0,0E0,0E0,0E0,0E0,0E0,0E0,0E0,0E0,0E0,0E0,0E0,0E0,0E0],"parents":[2147483647,0,0,1,1,2,2,3,3,4,4,5,5,6,6,7,7,8,8,9,9,10,10,11,11,12,12,13,13,15,15,17,17,18,18,21,21,22,22,24,24,25,25,27,27,28,28,30,30,31,31,35,35,36,36,39,39,40,40,43,43,44,44,45,45,46,46],"right_children":[2,4,6,8,10,12,14,16,18,20,22,24,26,28,-1,30,-1,32,34,-1,-1,36,38,-1,40,42,-1,44,46,-1,48,50,-1,-1,-1,52,54,-1,-1,56,58,-1,-1,60,62,64,66,-1,-1,-1,-1,-1,-1,-1,-1,-1,-1,-1,-1,-1,-1,-1,-1,-1,-1,-1,-1],"split_conditions":[1.0231318E0,1.1294925E2,6.0988007E1,1.8413341E0,-7.609863E-1,3.7168076E1,2.2456055E0,5.882706E1,-1.6271973E0,6.9122375E1,3.277029E0,4.3521118E-1,1.2080291E2,1.6534483E0,-3.801596E-1,-9.639282E-1,-2.9016697E-1,1.9720193E0,8.562137E1,-2.9653302E-1,2.183256E-1,1.386456E2,9.277411E1,-3.953413E-1,2.3643078E1,3.4299166E0,9.961157E-2,6.14782E-1,2.290471E0,-2.5533012E-1,2.7615662E1,1.1912331E2,2.9117385E-1,-3.6914572E-1,-4.633276E-2,1.1608887E0,3.5157845E1,-4.306031E-2,7.980151E-2,5.9378437E1,7.348397E1,-3.7417692E-1,-3.745435E-4,1.54457E-1,9.25385E1,9.196382E1,6.936783E1,-1.8287799E-1,3.130513E-1,5.2701756E-2,-2.721829E-1,3.7050727E-1,9.3692526E-2,2.4589291E-1,-2.0641617E-1,-6.0310267E-2,-3.5607108E-1,3.4268865E-1,-9.5665805E-2,-2.3166455E-2,1.5546392E-1,-4.717006E-2,-3.5717452E-1,1.961387E-1,-1.6553277E-1,1.0847814E-1,-3.8578722E-1],"split_indices":[6,20,10,19,16,21,4,3,4,0,18,17,12,8,0,5,0,14,3,0,0,15,11,0,21,18,0,8,8,0,0,22,0,0,0,1,0,0,0,22,7,0,0,8,13,7,12,0,0,0,0,0,0,0,0,0,0,0,0,0,0,0,0,0,0,0,0],"split_type":[0,0,0,0,0,0,0,0,0,0,0,0,0,0,0,0,0,0,0,0,0,0,0,0,0,0,0,0,0,0,0,0,0,0,0,0,0,0,0,0,0,0,0,0,0,0,0,0,0,0,0,0,0,0,0,0,0,0,0,0,0,0,0,0,0,0,0],"sum_hessian":[7.300891E2,7.530882E1,6.547803E2,4.3717407E1,3.1591415E1,5.522768E1,5.995526E2,2.2353598E1,2.136381E1,5.2801423E0,2.6311274E1,2.441463E1,3.081305E1,5.92595E2,6.9576116E0,2.0269257E1,2.0843394E0,1.1086814E1,1.0276997E1,2.729916E0,2.550226E0,2.3430742E1,2.8805308E0,6.062009E0,1.8352623E1,2.9589052E1,1.2239962E0,4.7976694E2,1.1282805E2,1.3983364E0,1.887092E1,7.4711804E0,3.6156335E0,9.257316E0,1.0196807E0,2.02426E1,3.1881442E0,1.5500318E0,1.3304989E0,6.802654E0,1.1549969E1,2.8267498E1,1.3215541E0,3.8051648E2,9.925047E1,8.784822E1,2.4979826E1,1.0662856E0,1.7804636E1,4.232605E0,3.2385757E0,1.8073563E1,2.169036E0,2.1252208E0,1.0629233E0,3.6293073E0,3.1733465E0,1.0406425E1,1.1435434E0,3.2326675E2,5.7249702E1,7.439323E1,2.4857244E1,7.7503876E1,1.0344342E1,1.4107489E1,1.0872336E1],"tree_param":{"num_deleted":"0","num_feature":"23","num_nodes":"67","size_leaf_vector":"0"}}]},"name":"gbtree"},"learner_model_param":{"base_score":"5E-1","num_class":"0","num_feature":"23"},"objective":{"name":"binary:logitraw","reg_loss_param":{"scale_pos_weight":"0.683531761"}}},"version":[1,5,1]}