{"learner":{"attributes":{"best_iteration":"8","best_ntree_limit":"9","best_score":"0.491222"},"feature_names":["drll","mT","mT2","mll","yVlep","phiVlep","drl1a","drl2a","njets20"],"feature_types":["float","float","float","float","float","float","float","float","int"],"gradient_booster":{"model":{"gbtree_model_param":{"num_trees":"10","size_leaf_vector":"0"},"tree_info":[0,0,0,0,0,0,0,0,0,0],"trees":[{"base_weights":[-4.282401E-8,7.0034117E-1,-2.8023443E-1,8.2549036E-1,-8.598181E-1,-5.7291263E-1,3.3770558E-1,1.0641031E0,6.968874E-3,6.481435E-1,-7.462838E-1,8.223561E-1,-1.493005E-1,1.1406211E0,2.2248712E-1,-1.0032563E0,4.0838343E-1,1.168051E0,-4.20731E-1,4.719438E-1,-9.441602E-1,1.0024614E0,4.73651E-2,-5.834157E-1,7.587849E-1,2.0577763E-1,1.1937517E0,-3.2248312E-1,7.0898575E-1,1.0783721E0,-2.5335157E-1,-8.630148E-1,1.8992232E-1,-1.4895286E-1,7.793629E-1,-7.7157325E-1,-1.2996408E0,2.6996666E-1,1.1743538E0,-4.1467637E-1,5.784729E-1,5.2682334E-1,-8.630887E-1,9.1003096E-1,8.2179874E-2,5.629899E-1,1.2929845E0,5.90084E-1,-8.632004E-1,3.012389E-1,-5.0725853E-1,1.0297388E0,1.4230248E-1,-2.769302E-1,-9.4970804E-1,-1.4627932E0,-4.2638358E-1,-4.0895063E-1,7.535687E-1,1.287742E0,4.1581842E-1,-1.5834785E-1,-1.2570404E0],"categories":[],"categories_nodes":[],"categories_segments":[],"categories_sizes":[],"default_left":[true,true,true,true,false,true,true,true,true,true,true,true,true,true,true,false,true,false,true,true,true,true,true,true,true,false,true,false,false,false,true,false,false,true,true,true,true,true,true,false,false,false,true,false,false,false,false,false,false,false,false,false,false,false,false,false,false,false,false,false,false,false,false],"id":0,"left_children":[1,3,5,7,-1,9,11,13,15,17,19,21,23,25,27,-1,29,-1,31,33,35,37,39,41,43,-1,45,-1,-1,-1,47,-1,-1,49,51,53,55,57,59,-1,-1,-1,61,-1,-1,-1,-1,-1,-1,-1,-1,-1,-1,-1,-1,-1,-1,-1,-1,-1,-1,-1,-1],"loss_changes":[2.226218E1,7.039336E0,1.4845644E1,5.95348E0,0E0,1.220046E1,6.4171295E0,1.2676258E0,3.6114955E0,4.6129456E0,1.2240711E1,1.8396273E0,6.0199986E0,8.1793404E-1,1.080019E0,0E0,3.0934076E0,0E0,1.0179491E0,1.5484064E0,1.6001587E0,1.0580082E0,1.1230711E0,3.6023743E0,4.3796945E-1,0E0,5.2726555E-1,0E0,0E0,0E0,2.5719726E0,0E0,0E0,6.890741E-1,6.796043E-1,2.4704037E0,1.1436882E0,1.4160012E0,1.996212E-1,0E0,0E0,0E0,2.1543312E0,0E0,0E0,0E0,0E0,0E0,0E0,0E0,0E0,0E0,0E0,0E0,0E0,0E0,0E0,0E0,0E0,0E0,0E0,0E0,0E0],"parents":[2147483647,0,0,1,1,2,2,3,3,5,5,6,6,7,7,8,8,9,9,10,10,11,11,12,12,13,13,14,14,16,16,18,18,19,19,20,20,21,21,22,22,23,23,24,24,26,26,30,30,33,33,34,34,35,35,36,36,37,37,38,38,42,42],"right_children":[2,4,6,8,-1,10,12,14,16,18,20,22,24,26,28,-1,30,-1,32,34,36,38,40,42,44,-1,46,-1,-1,-1,48,-1,-1,50,52,54,56,58,60,-1,-1,-1,62,-1,-1,-1,-1,-1,-1,-1,-1,-1,-1,-1,-1,-1,-1,-1,-1,-1,-1,-1,-1],"split_conditions":[5E-1,3.3612528E0,1.652888E2,3.0002036E0,-2.5794545E-1,8.2656443E-1,1.8938208E0,3.00913E0,3.1245904E0,2.4438426E0,1.0236601E0,1.1756405E0,1.403821E0,-2.1351695E0,3.2206378E0,-3.009769E-1,-1.2313929E0,3.5041532E-1,1.01472795E-1,1.2122977E2,2.816795E0,-9.347038E-1,1.4631253E2,-2.2813604E0,1.0578649E0,6.173329E-2,6.2568653E1,-9.674494E-2,2.1269573E-1,3.2351166E-1,2.3905296E0,-2.5890446E-1,5.69767E-2,2.5943396E0,1.5E0,1.6189212E0,1.4771354E0,3.1443896E0,3.1099563E0,-1.2440292E-1,1.7354187E-1,1.58047E-1,6.4986046E1,2.730093E-1,2.4653964E-2,1.6889697E-1,3.8789538E-1,1.7702521E-1,-2.5896013E-1,9.037167E-2,-1.5217757E-1,3.0892164E-1,4.2690746E-2,-8.307907E-2,-2.8491244E-1,-4.3883798E-1,-1.2791508E-1,-1.22685194E-1,2.2607063E-1,3.8632262E-1,1.2474553E-1,-4.7504354E-2,-3.7711212E-1],"split_indices":[8,6,3,7,0,6,6,6,7,7,0,4,4,4,6,0,4,0,5,1,7,5,1,4,5,0,3,0,0,0,0,0,0,7,8,0,4,0,7,0,0,0,2,0,0,0,0,0,0,0,0,0,0,0,0,0,0,0,0,0,0,0,0],"split_type":[0,0,0,0,0,0,0,0,0,0,0,0,0,0,0,0,0,0,0,0,0,0,0,0,0,0,0,0,0,0,0,0,0,0,0,0,0,0,0,0,0,0,0,0,0,0,0,0,0,0,0,0,0,0,0,0,0,0,0,0,0,0,0],"sum_hessian":[1.1143227E2,3.1417309E1,8.001496E1,2.9520218E1,1.8970896E0,5.4347115E1,2.5667845E1,2.2624704E1,6.895514E0,6.416579E0,4.7930534E1,1.2519904E1,1.3147941E1,2.041348E1,2.211224E0,1.5344695E0,5.361045E0,4.254417E0,2.1621618E0,6.5039387E0,4.1426598E1,9.920823E0,2.5990803E0,9.137324E0,4.0106163E0,1.3598428E0,1.9053637E1,1.201949E0,1.0092752E0,2.351054E0,3.009991E0,1.014277E0,1.147885E0,2.3245337E0,4.1794047E0,3.0021544E1,1.1405052E1,2.3741753E0,7.5466485E0,1.5071483E0,1.091932E0,1.6607618E0,7.476563E0,2.9959216E0,1.0146946E0,3.4972441E0,1.5556394E1,1.2766973E0,1.7332937E0,1.1007584E0,1.2237751E0,2.5577667E0,1.6216381E0,8.625353E0,2.139619E1,9.040833E0,2.3642182E0,1.0518599E0,1.3223153E0,5.958313E0,1.5883353E0,3.1835148E0,4.2930484E0],"tree_param":{"num_deleted":"0","num_feature":"9","num_nodes":"63","size_leaf_vector":"0"}},{"base_weights":[5.6532696E-3,2.6980522E-1,-4.4660303E-1,1.1544794E0,1.5156013E-1,-7.7061015E-1,1.9277605E-1,4.450592E-1,-1.004917E-1,4.5346823E-1,-9.162959E-1,7.9364574E-1,-1.3930318E-1,-3.2028818E-1,6.2059563E-1,-2.765513E-1,6.477719E-1,7.685241E-1,-1.7963794E-1,-1.3136975E0,-4.237247E-1,-3.9772835E-2,9.96562E-1,-6.676001E-1,4.6704233E-1,-8.185692E-1,6.9173926E-1,1.8959753E-2,7.98272E-1,4.732228E-1,-4.9834368E-1,8.631873E-1,1.21848166E-1,-1.8346071E-1,-1.398187E0,4.5427302E-1,-8.000771E-1,1.7816825E-1,-9.9386805E-1,7.4958706E-1,-8.228571E-2,6.5597645E-3,-1.0876242E0,4.4096968E-1,-8.327613E-1,1.0577223E0,1.1697235E-1,8.0085695E-1,-4.41804E-1,2.5328776E-1,-6.2086225E-1,3.1906858E-1,1.0385952E0,-3.383803E-1,5.143156E-1,8.9307046E-1,5.48697E-2,-1.115576E0,3.3147553E-1,9.114886E-1,1.6718192E-1],"categories":[],"categories_nodes":[],"categories_segments":[],"categories_sizes":[],"default_left":[true,true,true,false,true,true,true,true,true,true,true,true,true,true,true,true,true,false,false,true,true,false,false,true,true,true,false,true,true,true,true,true,true,false,false,true,true,false,false,true,false,false,false,false,false,false,false,false,false,false,false,false,false,false,false,false,false,false,false,false,false],"id":1,"left_children":[1,3,5,-1,7,9,11,13,15,17,19,21,23,25,27,29,31,-1,-1,33,35,-1,-1,37,39,41,-1,43,45,47,49,51,53,-1,-1,55,57,-1,-1,59,-1,-1,-1,-1,-1,-1,-1,-1,-1,-1,-1,-1,-1,-1,-1,-1,-1,-1,-1,-1,-1],"loss_changes":[1.3272565E1,7.1604357E0,8.635914E0,0E0,4.7057314E0,5.3001003E0,3.0195522E0,4.134298E0,4.752103E0,8.52568E-1,4.299574E0,9.424634E-1,3.592047E0,3.6548226E0,2.5684538E0,5.025314E0,6.777816E-1,0E0,0E0,1.0092087E0,4.511717E0,0E0,0E0,1.8007264E0,8.930279E-1,1.0199506E0,0E0,2.7160084E0,3.1701584E0,2.478696E0,2.2489176E0,1.2086773E-1,7.4707115E-1,0E0,0E0,7.229146E-1,3.6361585E0,0E0,0E0,1.904571E-1,0E0,0E0,0E0,0E0,0E0,0E0,0E0,0E0,0E0,0E0,0E0,0E0,0E0,0E0,0E0,0E0,0E0,0E0,0E0,0E0,0E0],"parents":[2147483647,0,0,1,1,2,2,4,4,5,5,6,6,7,7,8,8,9,9,10,10,11,11,12,12,13,13,14,14,15,15,16,16,19,19,20,20,23,23,24,24,25,25,27,27,28,28,29,29,30,30,31,31,32,32,35,35,36,36,39,39],"right_children":[2,4,6,-1,8,10,12,14,16,18,20,22,24,26,28,30,32,-1,-1,34,36,-1,-1,38,40,42,-1,44,46,48,50,52,54,-1,-1,56,58,-1,-1,60,-1,-1,-1,-1,-1,-1,-1,-1,-1,-1,-1,-1,-1,-1,-1,-1,-1,-1,-1,-1,-1],"split_conditions":[1.5E0,7.202786E-1,1.5841177E2,3.4634382E-1,5E-1,8.723372E-1,1.7905511E2,7.839192E1,2.1122002E2,2.6625667E0,7.651523E1,2.7973638E0,2.932343E2,1.9033732E0,-1.1553689E0,4.981205E1,1.8801506E0,2.3055725E-1,-5.3891383E-2,1.2473254E0,1.2680268E0,-1.1931851E-2,2.989686E-1,-1.7229681E0,2.4955595E0,-1.0170586E0,2.0752178E-1,-1.7822425E0,1.6366651E0,2.7266307E0,-1.7981324E0,1.2352408E0,3.0218762E2,-5.5038217E-2,-4.1945612E-1,-1.8587053E0,1.6374469E0,5.3450476E-2,-2.9816043E-1,4.807582E-1,-2.4685714E-2,1.9679295E-3,-3.2628727E-1,1.3229091E-1,-2.498284E-1,3.173167E-1,3.5091706E-2,2.402571E-1,-1.3254121E-1,7.598633E-2,-1.8625867E-1,9.572058E-2,3.1157857E-1,-1.0151409E-1,1.5429468E-1,2.6792115E-1,1.646091E-2,-3.346728E-1,9.944266E-2,2.734466E-1,5.0154578E-2],"split_indices":[8,6,3,0,8,0,3,1,3,7,2,0,3,4,5,3,6,0,0,0,6,0,0,4,6,4,0,5,5,6,4,5,3,0,0,5,4,0,0,4,0,0,0,0,0,0,0,0,0,0,0,0,0,0,0,0,0,0,0,0,0],"split_type":[0,0,0,0,0,0,0,0,0,0,0,0,0,0,0,0,0,0,0,0,0,0,0,0,0,0,0,0,0,0,0,0,0,0,0,0,0,0,0,0,0,0,0,0,0,0,0,0,0,0,0,0,0,0,0,0,0,0,0,0,0],"sum_hessian":[1.09091965E2,6.912257E1,3.9969395E1,7.1163964E0,6.2006172E1,2.6390625E1,1.3578771E1,2.8293896E1,3.3712276E1,2.5821633E0,2.3808462E1,4.338567E0,9.240204E0,5.1248174E0,2.3169079E1,2.7801292E1,5.910982E0,1.5813391E0,1.0008243E0,1.2254573E1,1.1553889E1,1.0069227E0,3.331644E0,4.883919E0,4.356285E0,3.5621295E0,1.5626881E0,5.5346665E0,1.7634413E1,6.087781E0,2.1713512E1,3.7384539E0,2.172528E0,1.0729445E0,1.1181628E1,3.4044826E0,8.149406E0,1.4859318E0,3.3979871E0,2.6359446E0,1.7203405E0,1.1158125E0,2.4463167E0,4.0234113E0,1.5112555E0,1.2370871E1,5.2635417E0,4.57458E0,1.5132006E0,2.8937135E0,1.88198E1,1.5985938E0,2.1398602E0,1.0633727E0,1.1091553E0,1.0332781E0,2.3712044E0,6.383642E0,1.765765E0,1.6204401E0,1.0155046E0],"tree_param":{"num_deleted":"0","num_feature":"9","num_nodes":"61","size_leaf_vector":"0"}},{"base_weights":[1.3060707E-2,2.1158092E-1,-3.3093342E-1,9.170238E-1,1.2027375E-1,-5.899141E-1,1.6319016E-1,1.0866808E0,4.5970547E-1,3.7844356E-2,8.052129E-1,5.554669E-1,-6.9031787E-1,3.2589182E-1,-6.824302E-1,-2.7528417E-1,8.750247E-1,1.11323744E-1,-7.753843E-1,1.0567337E0,-1.0800881E-1,-1.0326425E0,-2.936851E-1,5.2236277E-1,-2.9761985E-1,1.6804036E-1,-8.174473E-1,-1.322993E-1,-1.0328467E0,-1.0794882E-1,-1.1317952E0,4.130112E-1,-6.140488E-1,8.843246E-1,-4.861592E-2,-7.641686E-1,2.4864322E-1,2.7493653E-1,-2.871267E-1,6.2467986E-1,-1.401391E-1,-8.601304E-1,2.410941E-1,2.0955727E-1,1.0257074E0,5.8438164E-1,-4.501581E-1],"categories":[],"categories_nodes":[],"categories_segments":[],"categories_sizes":[],"default_left":[true,true,true,true,true,true,true,false,true,true,true,false,true,true,false,false,false,true,true,false,false,true,true,true,true,true,false,false,false,false,false,true,true,true,true,false,false,false,false,false,false,false,false,false,false,false,false],"id":2,"left_children":[1,3,5,7,9,11,13,-1,15,17,19,-1,21,23,-1,-1,-1,25,27,-1,-1,29,31,33,35,37,-1,-1,-1,-1,-1,39,41,43,45,-1,-1,-1,-1,-1,-1,-1,-1,-1,-1,-1,-1],"loss_changes":[7.3019633E0,4.2541943E0,5.105194E0,9.121084E-2,3.4217057E0,3.3617678E0,2.1820858E0,0E0,1.3988909E0,3.410281E0,1.6114554E0,0E0,2.990263E0,1.701692E0,0E0,0E0,0E0,2.8708067E0,6.4735365E-1,0E0,0E0,1.0351171E0,3.1140647E0,2.1015997E0,1.1231269E0,2.4987767E0,0E0,0E0,0E0,0E0,0E0,6.189741E-1,2.121417E0,3.716035E-1,1.4862683E0,0E0,0E0,0E0,0E0,0E0,0E0,0E0,0E0,0E0,0E0,0E0,0E0],"parents":[2147483647,0,0,1,1,2,2,3,3,4,4,5,5,6,6,8,8,9,9,10,10,12,12,13,13,17,17,18,18,21,21,22,22,23,23,24,24,25,25,31,31,32,32,33,33,34,34],"right_children":[2,4,6,8,10,12,14,-1,16,18,20,-1,22,24,-1,-1,-1,26,28,-1,-1,30,32,34,36,38,-1,-1,-1,-1,-1,40,42,44,46,-1,-1,-1,-1,-1,-1,-1,-1,-1,-1,-1,-1],"split_conditions":[1.5E0,7.202786E-1,1.5841177E2,6.04398E-1,2.982478E2,7.388104E-1,1.14640396E2,3.2600424E-1,6.891049E-1,3.2915416E0,3.5314078E0,1.6664007E-1,7.651523E1,2.7616234E0,-2.0472907E-1,-8.258525E-2,2.625074E-1,2.980348E0,1.3888723E0,3.1702012E-1,-3.2402646E-2,1.2192185E0,1.2680268E0,3.098132E0,3.197806E0,2.8949294E0,-2.452342E-1,-3.9689794E-2,-3.0985403E-1,-3.2384645E-2,-3.3953857E-1,2.3956592E0,1.6374469E0,2.7362866E0,1.914313E0,-2.292506E-1,7.459297E-2,8.248096E-2,-8.613801E-2,1.8740396E-1,-4.2041734E-2,-2.5803915E-1,7.232823E-2,6.286718E-2,3.0771223E-1,1.753145E-1,-1.3504744E-1],"split_indices":[8,6,3,6,3,0,2,0,6,0,0,0,2,7,0,0,0,5,7,0,0,0,6,0,0,6,0,0,0,0,0,0,4,0,6,0,0,0,0,0,0,0,0,0,0,0,0],"split_type":[0,0,0,0,0,0,0,0,0,0,0,0,0,0,0,0,0,0,0,0,0,0,0,0,0,0,0,0,0,0,0,0,0,0,0,0,0,0,0,0,0,0,0,0,0,0,0],"sum_hessian":[1.0490082E2,6.6758934E1,3.8141884E1,6.6141853E0,6.0144753E1,2.4898298E1,1.3243586E1,3.820606E0,2.7935793E0,5.4626007E1,5.518746E0,1.6413909E0,2.3256907E1,1.1622055E1,1.6215307E0,1.1303592E0,1.6632203E0,5.089086E1,3.7351422E0,4.2037845E0,1.3149614E0,1.1622376E1,1.1634531E1,8.960721E0,2.6613336E0,4.8733932E1,2.1569295E0,1.5006653E0,2.2344768E0,1.3278267E0,1.0294549E1,3.538872E0,8.095659E0,5.148276E0,3.8124454E0,1.220249E0,1.4410845E0,3.9786114E1,8.947819E0,2.4659412E0,1.0729309E0,6.282059E0,1.8136E0,1.321837E0,3.826439E0,1.3030125E0,2.509433E0],"tree_param":{"num_deleted":"0","num_feature":"9","num_nodes":"47","size_leaf_vector":"0"}},{"base_weights":[8.282709E-3,3.3982822E-1,-1.2604764E-1,4.274315E-1,-5.7812405E-1,8.690541E-1,-1.801889E-1,5.9794474E-1,-1.3931507E-1,-3.4574765E-1,1.2138763E-1,9.6343136E-1,4.403172E-1,-1.0027229E0,2.0653366E-1,4.8305014E-1,-4.646384E-1,3.8253388E-1,-3.99027E-1,1.0678146E0,2.7021006E-1,-1.1681593E-1,5.860755E-1,-5.7900816E-1,5.041743E-1,7.3223245E-1,-1.5433183E-1,-2.9567042E-1,-7.3451066E-1,4.667534E-1,-4.0531436E-1,-7.032586E-1,2.600987E-1,6.1738217E-1,-9.350594E-1,3.7106782E-1,1.0168308E0,-4.6860285E-2,6.620985E-1,8.882781E-1,1.18665926E-1,-4.6044365E-1,3.2066852E-1,-8.3424467E-1,2.4432217E-1,7.4150395E-1,1.2592532E-1,-9.0201676E-1,7.076187E-3,-2.9688796E-1,7.2547907E-1],"categories":[],"categories_nodes":[],"categories_segments":[],"categories_sizes":[],"default_left":[true,true,true,true,false,false,true,true,true,true,true,true,true,false,true,true,true,true,true,false,false,true,true,false,true,true,false,true,true,true,false,true,true,false,false,false,false,false,false,false,false,false,false,false,false,false,false,false,false,false,false],"id":3,"left_children":[1,3,5,7,-1,-1,9,11,13,15,17,19,21,-1,23,25,27,29,31,-1,-1,33,35,-1,37,39,-1,41,43,45,-1,47,49,-1,-1,-1,-1,-1,-1,-1,-1,-1,-1,-1,-1,-1,-1,-1,-1,-1,-1],"loss_changes":[4.5967097E0,2.639738E0,4.116312E0,2.7636614E0,0E0,0E0,3.5635679E0,8.1500864E-1,2.364794E0,4.7369E0,3.6505222E0,1.1957073E-1,1.4384556E0,0E0,1.6920754E0,1.10334E0,1.6323261E0,1.3601978E0,2.0055723E0,0E0,0E0,3.1798816E0,8.765373E-1,0E0,4.5547163E-1,3.4046626E-1,0E0,2.8507147E0,1.6626005E0,1.4431963E0,0E0,9.225147E-1,1.1486615E0,0E0,0E0,0E0,0E0,0E0,0E0,0E0,0E0,0E0,0E0,0E0,0E0,0E0,0E0,0E0,0E0,0E0,0E0],"parents":[2147483647,0,0,1,1,2,2,3,3,6,6,7,7,8,8,9,9,10,10,11,11,12,12,14,14,15,15,16,16,17,17,18,18,21,21,22,22,24,24,25,25,27,27,28,28,29,29,31,31,32,32],"right_children":[2,4,6,8,-1,-1,10,12,14,16,18,20,22,-1,24,26,28,30,32,-1,-1,34,36,-1,38,40,-1,42,44,46,-1,48,50,-1,-1,-1,-1,-1,-1,-1,-1,-1,-1,-1,-1,-1,-1,-1,-1,-1,-1],"split_conditions":[5E-1,3.2705266E0,6.04398E-1,3.011386E0,-1.7343722E-1,2.6071623E-1,2.77816E0,1.0911316E0,3.1245904E0,8.841387E-1,2.707717E0,3.0311718E0,6.337259E1,-3.0081686E-1,7.726808E1,2.681521E0,2.278286E0,1.1283818E2,2.870223E2,3.203444E-1,8.106302E-2,2.1748915E0,2.830626E0,-1.7370245E-1,4.9006752E1,3.146902E1,-4.629955E-2,2.0681067E0,2.3657666E2,3.0594935E0,-1.2159431E-1,2.2027755E0,9.0681285E-1,1.8521465E-1,-2.8051785E-1,1.11320354E-1,3.0504924E-1,-1.4058086E-2,1.9862957E-1,2.6648346E-1,3.559978E-2,-1.381331E-1,9.620056E-2,-2.502734E-1,7.329665E-2,2.224512E-1,3.7777595E-2,-2.7060503E-1,2.1228562E-3,-8.906639E-2,2.1764372E-1],"split_indices":[8,6,6,7,0,0,0,7,7,0,7,0,3,0,1,6,0,2,3,0,0,6,7,0,2,3,0,5,3,0,0,6,5,0,0,0,0,0,0,0,0,0,0,0,0,0,0,0,0,0,0],"split_type":[0,0,0,0,0,0,0,0,0,0,0,0,0,0,0,0,0,0,0,0,0,0,0,0,0,0,0,0,0,0,0,0,0,0,0,0,0,0,0,0,0,0,0,0,0,0,0,0,0,0,0],"sum_hessian":[1.01250114E2,2.8753294E1,7.249682E1,2.673614E1,2.0171552E0,2.9641893E0,6.953263E1,2.0510296E1,6.2258425E0,4.479481E1,2.4737818E1,4.6398726E0,1.5870424E1,1.2373929E0,4.9884496E0,5.2354016E0,3.955941E1,1.6648483E1,8.0893345E0,3.5630004E0,1.076872E0,3.3322184E0,1.2538205E1,1.1109835E0,3.8774662E0,3.6569262E0,1.5784752E0,2.5616451E1,1.3942961E1,1.5408864E1,1.23962E0,5.488883E0,2.6004515E0,1.8856925E0,1.446526E0,9.605261E0,2.9329443E0,1.0203836E0,2.8570826E0,2.5585039E0,1.0984224E0,2.041232E1,5.204131E0,1.27877245E1,1.1552361E0,7.8805485E0,7.5283155E0,4.0779796E0,1.4109035E0,1.348529E0,1.2519226E0],"tree_param":{"num_deleted":"0","num_feature":"9","num_nodes":"51","size_leaf_vector":"0"}},{"base_weights":[1.2182504E-2,8.800354E-2,-4.7855455E-1,3.4616596E-1,-5.5004902E-2,-6.6493505E-1,2.8943276E-1,3.921607E-1,-5.010015E-1,-2.13194E-1,2.1603665E-1,-9.106923E-1,-1.7096557E-1,5.772277E-1,-1.7211257E-1,1.6312319E-1,5.5682963E-1,4.516737E-1,-3.1551936E-1,7.5055385E-1,-2.1893974E-1,-1.6214429E-1,-1.0114235E0,2.4142398E-1,-6.366322E-1,5.540432E-1,-2.3696862E-1,6.4351237E-1,6.529142E-2,-2.8948689E-1,7.3278785E-1,2.0196496E-1,-4.45648E-1,-9.951262E-2,8.6347055E-1,-5.2570546E-1,3.8174227E-1,5.8949107E-1,-1.6275106E-1,6.425722E-1,-1.290184E-3,4.3711123E-1,-5.990085E-1,8.155604E-1,2.7148223E-1,4.4981313E-1,-2.9934758E-1,5.7865256E-1,-6.25258E-1,4.5477496E-3,-7.057988E-1,9.2086065E-1,2.1183519E-1,1.3581875E-1,-8.831429E-1,-3.120385E-1,6.469857E-1],"categories":[],"categories_nodes":[],"categories_segments":[],"categories_sizes":[],"default_left":[true,true,true,true,true,true,true,true,false,true,true,true,true,false,false,true,true,true,true,true,true,false,false,true,false,true,true,true,true,false,false,true,true,false,true,true,true,false,false,false,false,false,false,false,false,false,false,false,false,false,false,false,false,false,false,false,false],"id":4,"left_children":[1,3,5,7,9,11,13,15,-1,17,19,21,23,-1,-1,25,27,29,31,33,35,-1,-1,37,-1,39,41,43,45,-1,-1,47,49,-1,51,53,55,-1,-1,-1,-1,-1,-1,-1,-1,-1,-1,-1,-1,-1,-1,-1,-1,-1,-1,-1,-1],"loss_changes":[3.7021494E0,3.195842E0,2.0989714E0,1.3970284E0,2.4572222E0,1.1822805E0,5.374113E-1,1.0325274E0,0E0,2.5926487E0,5.0984826E0,3.7352753E-1,1.0932873E0,0E0,0E0,2.300937E0,6.7861557E-1,1.2986155E0,2.2313592E0,1.0215421E0,2.4993644E0,0E0,0E0,5.6298E-1,0E0,3.605082E-1,2.1058369E0,6.916318E-1,6.461999E-1,0E0,0E0,2.5672731E0,3.0156913E0,0E0,1.3057613E-1,2.1719398E0,1.0845232E0,0E0,0E0,0E0,0E0,0E0,0E0,0E0,0E0,0E0,0E0,0E0,0E0,0E0,0E0,0E0,0E0,0E0,0E0,0E0,0E0],"parents":[2147483647,0,0,1,1,2,2,3,3,4,4,5,5,6,6,7,7,9,9,10,10,11,11,12,12,15,15,16,16,17,17,18,18,19,19,20,20,23,23,25,25,26,26,27,27,28,28,31,31,32,32,34,34,35,35,36,36],"right_children":[2,4,6,8,10,12,14,16,-1,18,20,22,24,-1,-1,26,28,30,32,34,36,-1,-1,38,-1,40,42,44,46,-1,-1,48,50,-1,52,54,56,-1,-1,-1,-1,-1,-1,-1,-1,-1,-1,-1,-1,-1,-1,-1,-1,-1,-1,-1,-1],"split_conditions":[2.5E0,1.6117411E0,1.7372922E2,3.6277304E0,2.7738676E0,8.91625E1,8.3135635E1,-1.9152904E-1,-1.5030044E-1,8.405115E-1,3.0371642E0,1.1640038E0,1.2655406E2,1.7316832E-1,-5.163377E-2,-1.7240218E0,1.5334381E2,1.1370032E2,1.3375428E0,3.8818504E1,3.0177985E2,-4.8643287E-2,-3.0342704E-1,-9.272917E-1,-1.9098967E-1,1.7393509E2,7.516471E-1,1.1466868E0,7.2741985E-1,-8.684607E-2,2.1983637E-1,2.4691885E0,-5.3515184E-1,-2.9853787E-2,1.0554617E2,-4.526437E-1,3.913281E1,1.7684732E-1,-4.882532E-2,1.9277167E-1,-3.8705522E-4,1.3113338E-1,-1.7970255E-1,2.4466813E-1,8.144467E-2,1.3494395E-1,-8.980428E-2,1.7359577E-1,-1.8757741E-1,1.3643249E-3,-2.1173964E-1,2.762582E-1,6.355056E-2,4.0745627E-2,-2.6494288E-1,-9.361155E-2,1.9409572E-1],"split_indices":[8,6,1,7,0,2,2,5,0,0,0,0,1,0,0,5,1,1,7,2,3,0,0,4,0,1,6,6,5,0,0,0,4,0,2,5,2,0,0,0,0,0,0,0,0,0,0,0,0,0,0,0,0,0,0,0,0],"split_type":[0,0,0,0,0,0,0,0,0,0,0,0,0,0,0,0,0,0,0,0,0,0,0,0,0,0,0,0,0,0,0,0,0,0,0,0,0,0,0,0,0,0,0,0,0,0,0,0,0,0,0,0,0,0,0,0,0],"sum_hessian":[9.736637E1,8.504692E1,1.2319453E1,2.9810913E1,5.5236004E1,1.0021541E1,2.2979121E0,2.8785187E1,1.0257252E0,3.501404E1,2.0221962E1,6.1287665E0,3.8927743E0,1.2609867E0,1.0369253E0,1.2872073E1,1.5913115E1,4.2146835E0,3.0799358E1,8.747349E0,1.1474613E1,1.0364476E0,5.092319E0,2.319872E0,1.5729026E0,6.3160367E0,6.556036E0,1.3264705E1,2.6484096E0,1.1508007E0,3.063883E0,6.07777E0,2.4721588E1,1.0396088E0,7.70774E0,7.6782055E0,3.796408E0,1.0001013E0,1.3197706E0,5.3121085E0,1.0039281E0,2.218349E0,4.337687E0,8.254952E0,5.0097523E0,1.1753677E0,1.4730419E0,4.382586E0,1.6951844E0,9.413636E0,1.5307952E1,6.704147E0,1.0035931E0,2.9109013E0,4.7673044E0,1.0012022E0,2.7952056E0],"tree_param":{"num_deleted":"0","num_feature":"9","num_nodes":"57","size_leaf_vector":"0"}},{"base_weights":[1.0408362E-2,-5.0337255E-2,4.978038E-1,7.266127E-1,-8.583234E-2,6.488304E-1,-3.1586796E-1,8.373344E-2,-2.5578168E-1,1.4848246E-1,7.8227824E-1,-5.272695E-1,1.9206056E-1,-3.1084192E-1,7.01211E-1,4.7188675E-1,-2.7739275E-1,1.6763903E-1,9.342032E-1,1.3871308E-1,-1.0127367E0,3.4675065E-1,-2.2686115E-1,3.7908858E-1,-3.6704692E-1,4.4979224E-1,-2.8064904E-1,4.5867229E-1,-7.457417E-1,-4.480703E-1,5.136412E-1,-1.4267665E-1,6.7249554E-1,-2.8930366E-1,-9.6884507E-1],"categories":[],"categories_nodes":[],"categories_segments":[],"categories_sizes":[],"default_left":[true,true,true,false,true,true,false,true,true,true,true,true,true,true,false,false,false,false,false,true,false,true,true,true,true,false,false,false,false,false,false,false,false,false,false],"id":5,"left_children":[1,3,5,-1,7,9,-1,11,13,15,17,19,21,23,-1,-1,-1,-1,-1,25,-1,27,29,31,33,-1,-1,-1,-1,-1,-1,-1,-1,-1,-1],"loss_changes":[2.838823E0,2.417873E0,1.5104754E0,0E0,2.4010453E0,5.040171E-1,0E0,2.886982E0,2.4040482E0,5.7024544E-1,5.062146E-1,2.2760205E0,2.4428473E0,1.687278E0,0E0,0E0,0E0,0E0,0E0,6.042685E-1,0E0,3.6482742E0,1.9407774E0,6.316545E-1,1.4706283E0,0E0,0E0,0E0,0E0,0E0,0E0,0E0,0E0,0E0,0E0],"parents":[2147483647,0,0,1,1,2,2,4,4,5,5,7,7,8,8,9,9,10,10,11,11,12,12,13,13,19,19,21,21,22,22,23,23,24,24],"right_children":[2,4,6,-1,8,10,-1,12,14,16,18,20,22,24,-1,-1,-1,-1,-1,26,-1,28,30,32,34,-1,-1,-1,-1,-1,-1,-1,-1,-1,-1],"split_conditions":[2.982478E2,6.04398E-1,3.8104563E0,2.1798381E-1,2.302287E0,1.8629756E0,-9.4760396E-2,-1.9570014E0,3.7382998E0,-8.7229943E-1,1.1605625E0,-2.7310162E0,2.8123426E0,7.388184E-1,2.103633E-1,1.4156604E-1,-8.321783E-2,5.0291713E-2,2.8026098E-1,2.2863169E0,-3.0382103E-1,2.6854024E0,2.500431E0,2.7859272E1,3.0323138E0,1.3493767E-1,-8.419471E-2,1.3760169E-1,-2.2372253E-1,-1.344211E-1,1.5409236E-1,-4.2802997E-2,2.0174867E-1,-8.67911E-2,-2.9065353E-1],"split_indices":[3,6,0,0,7,7,0,5,6,5,6,5,6,0,0,0,0,0,0,6,0,5,5,3,6,0,0,0,0,0,0,0,0,0,0],"split_type":[0,0,0,0,0,0,0,0,0,0,0,0,0,0,0,0,0,0,0,0,0,0,0,0,0,0,0,0,0,0,0,0,0,0,0],"sum_hessian":[9.4036705E1,8.4412796E1,9.623909E0,2.837265E0,8.157553E1,8.288129E0,1.3357804E0,4.1087784E1,4.0487747E1,2.1899214E0,6.0982075E0,5.6051865E0,3.5482597E1,3.892349E1,1.5642604E0,1.183299E0,1.0066224E0,1.6254787E0,4.4727283E0,2.66437E0,2.9408164E0,2.6039564E1,9.443032E0,2.4992924E0,3.6424194E1,1.4880124E0,1.1763576E0,2.4146053E1,1.8935106E0,7.5750575E0,1.867975E0,1.0844826E0,1.4148098E0,3.3568398E1,2.855798E0],"tree_param":{"num_deleted":"0","num_feature":"9","num_nodes":"35","size_leaf_vector":"0"}},{"base_weights":[9.648728E-3,2.407977E-1,-8.291226E-2,-9.740174E-2,4.4844756E-1,1.9903883E-1,-1.650981E-1,-3.35582E-1,3.5093272E-1,1.7397817E-2,5.783461E-1,-1.9730349E-1,5.655185E-1,2.472919E-1,-2.5648028E-1,2.1392769E-1,-8.561342E-1,-1.3121787E-1,5.814922E-1,3.4081072E-1,-6.083902E-1,7.686378E-1,1.4430639E-1,-5.4017127E-1,3.242008E-1,-1.6874025E-2,9.564281E-1,-5.027451E-1,4.5177972E-1,4.9632076E-2,-4.055588E-1,5.6868607E-1,-1.5051576E-1,-9.685426E-1,-2.533918E-1,6.1847764E-1,-1.9070026E-1,8.284882E-1,1.9497447E-1,-3.0724916E-1,7.2142184E-1,-6.903372E-1,6.576699E-4,6.114516E-1,-2.509323E-1,6.0355E-1,-5.078403E-1,8.132396E-1,-6.8991287E-3,-2.7165347E-1,4.5215434E-1,4.6552312E-1,-4.7072694E-1,-5.667525E-1,3.4498426E-1,9.2398494E-1,2.9593226E-1,2.0826568E-1,-6.036655E-1,5.8433402E-2,1.0718346E0,-3.7726974E-1,3.777907E-1,5.1827E-1,-4.9203318E-1,7.2723794E-1,-4.5822364E-1,-6.4462465E-1,-6.747444E-2],"categories":[],"categories_nodes":[],"categories_segments":[],"categories_sizes":[],"default_left":[true,true,true,true,true,true,true,true,true,true,true,true,true,true,true,true,true,false,false,true,false,true,true,true,true,true,false,false,true,true,true,false,true,false,false,false,false,true,false,true,false,false,false,false,false,false,false,true,true,true,true,false,true,false,false,false,false,false,false,false,false,false,false,false,false,false,false,false,false],"id":6,"left_children":[1,3,5,7,9,11,13,15,17,19,21,23,25,27,29,31,33,-1,-1,35,-1,37,39,41,43,45,-1,-1,47,49,51,-1,53,-1,-1,-1,-1,55,-1,57,-1,-1,-1,-1,-1,-1,-1,59,61,63,65,-1,67,-1,-1,-1,-1,-1,-1,-1,-1,-1,-1,-1,-1,-1,-1,-1,-1],"loss_changes":[1.9987005E0,1.9188049E0,1.5803909E0,1.2901539E0,9.262419E-1,2.366814E0,2.0327325E0,2.3803234E0,5.540745E-1,1.1997135E0,9.4782114E-1,1.6414579E0,1.9116082E0,1.7590714E0,1.9946828E0,6.721443E-1,3.5377026E-2,0E0,0E0,6.8961966E-1,0E0,1.3649988E-1,1.5606571E0,4.327401E-1,7.940836E-1,1.6244094E0,0E0,0E0,1.39417E0,2.070687E0,1.8771133E0,0E0,8.201399E-1,0E0,0E0,0E0,0E0,1.1066866E-1,0E0,6.7337906E-1,0E0,0E0,0E0,0E0,0E0,0E0,0E0,8.5327744E-1,8.097234E-1,1.8218942E0,2.1015162E0,0E0,1.8969331E0,0E0,0E0,0E0,0E0,0E0,0E0,0E0,0E0,0E0,0E0,0E0,0E0,0E0,0E0,0E0,0E0],"parents":[2147483647,0,0,1,1,2,2,3,3,4,4,5,5,6,6,7,7,8,8,9,9,10,10,11,11,12,12,13,13,14,14,15,15,16,16,19,19,21,21,22,22,23,23,24,24,25,25,28,28,29,29,30,30,32,32,37,37,39,39,47,47,48,48,49,49,50,50,52,52],"right_children":[2,4,6,8,10,12,14,16,18,20,22,24,26,28,30,32,34,-1,-1,36,-1,38,40,42,44,46,-1,-1,48,50,52,-1,54,-1,-1,-1,-1,56,-1,58,-1,-1,-1,-1,-1,-1,-1,60,62,64,66,-1,68,-1,-1,-1,-1,-1,-1,-1,-1,-1,-1,-1,-1,-1,-1,-1,-1],"split_conditions":[5E-1,9.747627E1,8.1141785E1,1.3075477E0,-1.1497552E0,6.68054E1,-1.7062056E0,-9.964203E-1,-1.7333794E-1,8.200398E1,1.5369381E0,7.2723755E1,8.534408E-1,-2.5621743E0,1.7551136E0,2.0707974E0,9.15851E1,-3.9365362E-2,1.7444766E-1,-6.277022E-3,-1.8251707E-1,1.3105388E0,2.4810805E0,1.4121256E0,7.7344315E1,-1.4843459E0,2.8692845E-1,-1.5082353E-1,-5.17239E-1,6.6778636E-1,6.024164E-1,1.7060582E-1,3.1144989E0,-2.9056278E-1,-7.601754E-2,1.855433E-1,-5.721008E-2,9.291129E1,5.8492344E-2,1.4816942E0,2.1642657E-1,-2.0710117E-1,1.9730098E-4,1.834355E-1,-7.52797E-2,1.8106501E-1,-1.523521E-1,2.656756E0,1.5427806E2,6.836288E-1,9.57181E1,1.3965695E-1,1.4051217E0,-1.7002575E-1,1.03495285E-1,2.7719548E-1,8.877968E-2,6.2479705E-2,-1.8109965E-1,1.7530022E-2,3.2155037E-1,-1.1318093E-1,1.1333721E-1,1.5548101E-1,-1.4760996E-1,2.1817139E-1,-1.374671E-1,-1.933874E-1,-2.0242333E-2],"split_indices":[8,1,1,4,5,2,4,4,5,2,5,1,5,4,0,7,1,0,0,4,0,4,5,4,1,5,0,0,5,5,6,0,7,0,0,0,0,2,0,6,0,0,0,0,0,0,0,0,3,0,2,0,4,0,0,0,0,0,0,0,0,0,0,0,0,0,0,0,0],"split_type":[0,0,0,0,0,0,0,0,0,0,0,0,0,0,0,0,0,0,0,0,0,0,0,0,0,0,0,0,0,0,0,0,0,0,0,0,0,0,0,0,0,0,0,0,0,0,0,0,0,0,0,0,0,0,0,0,0,0,0,0,0,0,0,0,0,0,0,0,0],"sum_hessian":[9.148425E1,2.5700897E1,6.5783356E1,9.979011E0,1.5721887E1,1.4526424E1,5.125693E1,6.681119E0,3.2978911E0,3.9032943E0,1.1818593E1,7.2006516E0,7.3257732E0,8.988309E0,4.2268623E1,3.5367074E0,3.1444116E0,1.2062432E0,2.0916479E0,2.8735878E0,1.0297065E0,7.68044E0,4.1381526E0,4.322796E0,2.8778558E0,3.326563E0,3.9992101E0,1.6130985E0,7.37521E0,1.4061774E1,2.820685E1,1.5081819E0,2.0285254E0,2.138668E0,1.0057437E0,1.7800496E0,1.0935383E0,6.5526E0,1.1278402E0,2.583973E0,1.5541795E0,3.1670058E0,1.1557902E0,1.877159E0,1.0006969E0,1.3682379E0,1.9583249E0,3.6924148E0,3.6827953E0,8.000806E0,6.0609684E0,1.535736E0,2.6671114E1,1.024289E0,1.0042363E0,4.9330206E0,1.6195796E0,1.0519148E0,1.532058E0,1.2550493E0,2.4373655E0,1.8861456E0,1.7966496E0,1.4503812E0,6.5504246E0,4.809023E0,1.2519451E0,1.8216785E1,8.4543295E0],"tree_param":{"num_deleted":"0","num_feature":"9","num_nodes":"69","size_leaf_vector":"0"}},{"base_weights":[1.619318E-2,1.8128249E-1,-1.171018E-1,3.0489677E-1,-1.7321408E-1,-8.7083834E-1,-2.0927222E-2,1.0803823E-1,5.7791615E-1,6.475695E-1,-3.8190582E-1,-1.6974142E-1,-1.0775348E0,4.4692174E-2,-8.2790786E-1,-1.4598522E-1,4.9844924E-1,7.3600906E-1,-3.493706E-1,-5.8187956E-1,5.691308E-1,5.147002E-3,6.514091E-1,-7.4214953E-1,1.4719997E-1,8.460354E-1,2.4725571E-1,8.80007E-1,-1.202304E-1,2.1548413E-1,-7.2236484E-1,9.986365E-2,-3.767638E-1,-2.1438533E-1,-8.4276336E-1,5.9849596E-1,-2.8086576E-1,-4.4314525E-1,5.4203576E-1,2.5043982E-1,9.311913E-1,-8.517703E-1,-1.610594E-1,9.0216E-3,7.177776E-1,2.3312277E-1,-7.3761E-1],"categories":[],"categories_nodes":[],"categories_segments":[],"categories_sizes":[],"default_left":[true,true,true,true,true,true,true,true,true,false,true,false,false,true,false,true,true,true,false,true,false,true,false,true,true,false,true,true,false,false,true,true,true,false,false,false,false,false,false,false,false,false,false,false,false,false,false],"id":7,"left_children":[1,3,5,7,9,11,13,15,17,-1,19,-1,-1,21,-1,23,25,27,-1,29,-1,31,-1,33,35,-1,37,39,-1,-1,41,43,45,-1,-1,-1,-1,-1,-1,-1,-1,-1,-1,-1,-1,-1,-1],"loss_changes":[1.9798034E0,1.8123223E0,3.5955052E0,1.5571167E0,2.1347628E0,6.310029E-1,2.4323432E0,1.9311507E0,2.074163E0,0E0,2.1215973E0,0E0,0E0,1.0231014E0,0E0,2.2286615E0,4.5551145E-1,1.4511147E0,0E0,1.0823972E0,0E0,1.5269526E0,0E0,4.0376425E-2,1.899575E0,0E0,1.4271469E0,7.165003E-2,0E0,0E0,3.904147E-1,1.8897204E0,2.0186777E0,0E0,0E0,0E0,0E0,0E0,0E0,0E0,0E0,0E0,0E0,0E0,0E0,0E0,0E0],"parents":[2147483647,0,0,1,1,2,2,3,3,4,4,5,5,6,6,7,7,8,8,10,10,13,13,15,15,16,16,17,17,19,19,21,21,23,23,24,24,26,26,27,27,30,30,31,31,32,32],"right_children":[2,4,6,8,10,12,14,16,18,-1,20,-1,-1,22,-1,24,26,28,-1,30,-1,32,-1,34,36,-1,38,40,-1,-1,42,44,46,-1,-1,-1,-1,-1,-1,-1,-1,-1,-1,-1,-1,-1,-1],"split_conditions":[-5.193063E-1,2.8530931E0,-2.5139108E-2,-1.2772396E0,-2.4107895E0,-4.1656572E-1,3.3936315E0,8.3414085E1,2.5E0,1.9427085E-1,3.4481244E2,-5.0922427E-2,-3.2326046E-1,3.9124165E0,-2.4837236E-1,2.4720569E0,7.961507E1,9.1993866E1,-1.04811184E-1,-2.5212398E0,1.7073923E-1,3.0079799E0,1.9542274E-1,1.923235E0,1.9200337E0,2.5381064E-1,1.4008966E2,4.680504E1,-3.606912E-2,6.464524E-2,2.6450415E0,2.925065E0,1.4742343E0,-6.43156E-2,-2.5282902E-1,1.795488E-1,-8.425973E-2,-1.3294359E-1,1.6261074E-1,7.513195E-2,2.793574E-1,-2.555311E-1,-4.831782E-2,2.70648E-3,2.153333E-1,6.9936834E-2,-2.21283E-1],"split_indices":[4,7,4,4,5,4,0,2,8,0,3,0,0,7,0,0,3,2,0,4,0,7,0,7,6,0,3,3,0,0,6,7,6,0,0,0,0,0,0,0,0,0,0,0,0,0,0],"split_type":[0,0,0,0,0,0,0,0,0,0,0,0,0,0,0,0,0,0,0,0,0,0,0,0,0,0,0,0,0,0,0,0,0,0,0,0,0,0,0,0,0,0,0,0,0,0,0],"sum_hessian":[8.800356E1,3.915235E1,4.8851215E1,2.9133356E1,1.0018995E1,4.6164613E0,4.4234756E1,1.773871E1,1.1394646E1,1.6047047E0,8.41429E0,1.4658004E0,3.1506605E0,4.178189E1,2.4528642E0,1.1125745E1,6.6129646E0,9.911169E0,1.4834762E0,7.273136E0,1.1411538E0,4.0172005E1,1.6098857E0,3.1629179E0,7.962827E0,1.7807752E0,4.8321896E0,8.460558E0,1.4506112E0,1.0095121E0,6.263624E0,3.2780674E1,7.3913293E0,1.0077252E0,2.1551924E0,3.6824245E0,4.2804027E0,1.2952623E0,3.5369272E0,1.0792077E0,7.3813505E0,4.669597E0,1.5940269E0,2.9463697E1,3.316978E0,2.8791206E0,4.512209E0],"tree_param":{"num_deleted":"0","num_feature":"9","num_nodes":"47","size_leaf_vector":"0"}},{"base_weights":[1.1269762E-2,-3.305058E-2,3.7496036E-1,-8.409376E-4,-6.424752E-1,5.0329655E-1,-2.6214382E-1,2.040557E-1,-7.923184E-2,-8.8806945E-1,-5.0087836E-2,7.273364E-1,2.276091E-1,6.6192293E-1,8.519948E-2,2.5020295E-1,-1.3136648E-1,-1.5456355E-1,4.9246562E-1,7.797358E-1,1.83356E-1,-2.2829147E-1,2.674501E-1,-2.091059E-1,5.215267E-1,3.131093E-1,-1.9162E-1,6.772925E-1,5.9289664E-2,3.073432E-1,-4.6179578E-1,-3.861802E-1,4.4765264E-1,-6.3385564E-1,3.677376E-1,7.162899E-1,-1.4995682E-1,5.5586153E-1,-2.6131222E-1,-2.3288293E-1,4.3466106E-1],"categories":[],"categories_nodes":[],"categories_segments":[],"categories_sizes":[],"default_left":[true,true,true,true,true,true,false,true,true,false,false,false,true,true,true,true,true,false,true,false,false,true,true,true,true,true,true,false,false,false,false,false,false,false,false,false,false,false,false,false,false],"id":8,"left_children":[1,3,5,7,9,11,-1,13,15,-1,-1,-1,17,19,21,23,25,-1,27,-1,-1,29,31,33,35,37,39,-1,-1,-1,-1,-1,-1,-1,-1,-1,-1,-1,-1,-1,-1],"loss_changes":[1.4065958E0,1.5309105E0,9.0677214E-1,1.2224784E0,5.251241E-1,3.4278727E-1,0E0,1.0898142E0,9.7819716E-1,0E0,0E0,0E0,5.969238E-1,9.343445E-2,1.0819942E0,1.0891593E0,1.3502227E0,0E0,2.2228545E-1,0E0,0E0,1.0310478E0,1.558085E0,1.1235667E0,7.9143E-1,1.0001526E0,1.2136173E0,0E0,0E0,0E0,0E0,0E0,0E0,0E0,0E0,0E0,0E0,0E0,0E0,0E0,0E0],"parents":[2147483647,0,0,1,1,2,2,3,3,4,4,5,5,7,7,8,8,12,12,13,13,14,14,15,15,16,16,18,18,21,21,22,22,23,23,24,24,25,25,26,26],"right_children":[2,4,6,8,10,12,-1,14,16,-1,-1,-1,18,20,22,24,26,-1,28,-1,-1,30,32,34,36,38,40,-1,-1,-1,-1,-1,-1,-1,-1,-1,-1,-1,-1,-1,-1],"split_conditions":[2.982478E2,2.4105069E2,3.8104563E0,5E-1,2.8726965E2,-1.2942469E0,-7.864315E-2,1.0911316E0,-2.0383527E0,-2.6642084E-1,-1.5026351E-2,2.1820094E-1,-2.0369333E-1,2.849517E0,9.747627E1,-2.5164201E0,8.2656443E-1,-4.6369065E-2,4.9027342E-1,2.3392075E-1,5.5006802E-2,1.5291561E0,1.754865E0,9.881787E1,2.5027711E0,1.5E0,3.5473268E0,2.0318776E-1,1.77869E-2,9.220297E-2,-1.3853873E-1,-1.1585406E-1,1.3429579E-1,-1.901567E-1,1.1032128E-1,2.1488698E-1,-4.498705E-2,1.6675846E-1,-7.839367E-2,-6.9864884E-2,1.3039832E-1],"split_indices":[3,3,0,8,3,4,0,7,4,0,0,0,5,0,1,4,6,0,5,0,0,6,7,2,7,8,6,0,0,0,0,0,0,0,0,0,0,0,0,0,0],"split_type":[0,0,0,0,0,0,0,0,0,0,0,0,0,0,0,0,0,0,0,0,0,0,0,0,0,0,0,0,0,0,0,0,0,0,0,0,0,0,0,0,0],"sum_hessian":[8.5494965E1,7.701842E1,8.476553E0,7.410325E1,2.9151661E0,7.2301583E0,1.2463944E0,2.0062147E1,5.4041103E1,1.7079434E0,1.2072226E0,3.084912E0,4.1452465E0,3.1929407E0,1.6869205E1,6.8646603E0,4.717644E1,1.8672861E0,2.2779605E0,2.057191E0,1.1357499E0,6.1087923E0,1.0760413E1,2.6343791E0,4.2302814E0,5.1308527E0,4.204559E1,1.2016791E0,1.0762813E0,1.7585772E0,4.350215E0,2.0784457E0,8.681968E0,1.4602858E0,1.1740934E0,3.2274384E0,1.0028428E0,3.6293776E0,1.501475E0,4.0035946E1,2.0096436E0],"tree_param":{"num_deleted":"0","num_feature":"9","num_nodes":"41","size_leaf_vector":"0"}},{"base_weights":[1.5626831E-2,5.894202E-2,-2.683483E-1,8.30231E-2,-5.060495E-1,4.7905633E-1,-4.2275643E-1,-8.444017E-3,2.2157408E-1,-6.7517483E-1,-1.09914064E-1,-5.663271E-1,4.1743943E-1,-7.398603E-1,5.1545717E-2,5.544934E-2,6.1048424E-1,-7.583141E-1,-2.1866257E-1,9.557691E-2,-6.406497E-1,-1.5314306E-1,3.7515134E-1,9.069998E-3,8.3087605E-1,-1.9785333E-1,-8.434946E-1,3.5678375E-1,-4.8014554E-1,4.9725378E-1,2.2054343E-2,2.8728804E-1,-4.2342067E-1,6.6669285E-1,6.268425E-2,3.8771603E-1,-4.2288575E-1,9.080013E-1,2.1714158E-1,5.2078295E-2,-7.650629E-1],"categories":[],"categories_nodes":[],"categories_segments":[],"categories_sizes":[],"default_left":[true,true,true,true,true,false,true,true,true,false,false,true,false,false,true,true,true,true,true,true,false,true,true,true,true,false,false,false,true,false,false,false,false,false,false,false,false,false,false,false,false],"id":9,"left_children":[1,3,5,7,9,-1,11,13,15,-1,-1,17,-1,-1,19,21,23,25,27,29,-1,31,33,35,37,-1,-1,-1,39,-1,-1,-1,-1,-1,-1,-1,-1,-1,-1,-1,-1],"loss_changes":[1.0516137E0,1.0472436E0,1.509444E0,9.107969E-1,1.3758302E-1,0E0,1.4326483E0,1.9759874E0,1.8111609E0,0E0,0E0,4.2782617E-1,0E0,0E0,1.3337613E0,1.4652088E0,1.1121404E0,8.7310076E-2,8.5884684E-1,1.1740257E0,0E0,1.7268667E0,7.4391186E-1,6.9985205E-1,9.493351E-2,0E0,0E0,0E0,5.808945E-1,0E0,0E0,0E0,0E0,0E0,0E0,0E0,0E0,0E0,0E0,0E0,0E0],"parents":[2147483647,0,0,1,1,2,2,3,3,4,4,6,6,7,7,8,8,11,11,14,14,15,15,16,16,17,17,18,18,19,19,21,21,22,22,23,23,24,24,28,28],"right_children":[2,4,6,8,10,-1,12,14,16,-1,-1,18,-1,-1,20,22,24,26,28,30,-1,32,34,36,38,-1,-1,-1,40,-1,-1,-1,-1,-1,-1,-1,-1,-1,-1,-1,-1],"split_conditions":[2.5E0,2.980348E0,-2.4158666E0,8.534408E-1,1.9266828E0,1.437169E-1,2.1205759E2,6.323413E1,1.4229934E0,-2.0255245E-1,-3.297422E-2,8.898184E1,1.2523183E-1,-2.219581E-1,3.690991E0,2.7943487E0,5.9599533E1,1.235035E0,1.8052034E0,4.204641E1,-1.9219491E-1,1.6198239E0,3.0285943E0,4.911483E1,1.8478625E2,-5.9356E-2,-2.530484E-1,1.0703513E-1,1.4666154E0,1.4917614E-1,6.616303E-3,8.618642E-2,-1.270262E-1,2.0000787E-1,1.8805277E-2,1.1631481E-1,-1.2686573E-1,2.724004E-1,6.5142475E-2,1.5623489E-2,-2.2951889E-1],"split_indices":[8,5,5,5,7,0,1,1,4,0,0,2,0,0,7,0,2,0,7,3,0,0,0,2,3,0,0,0,6,0,0,0,0,0,0,0,0,0,0,0,0],"split_type":[0,0,0,0,0,0,0,0,0,0,0,0,0,0,0,0,0,0,0,0,0,0,0,0,0,0,0,0,0,0,0,0,0,0,0,0,0,0,0,0,0],"sum_hessian":[8.320812E1,7.288352E1,1.0324603E1,7.072225E1,2.1612706E0,1.4077805E0,8.916822E0,4.316506E1,2.7557194E1,1.0209738E0,1.1402968E0,7.893891E0,1.0229311E0,2.4129076E0,4.0752148E1,2.0109785E1,7.447409E0,4.324599E0,3.569292E0,3.9125275E1,1.6268734E0,1.248489E1,7.624895E0,2.276461E0,5.170948E0,1.0089278E0,3.3156712E0,1.0012894E0,2.5680027E0,5.1617475E0,3.3963528E1,4.7239823E0,7.760907E0,3.35807E0,4.266825E0,1.2676632E0,1.0087976E0,4.1677375E0,1.0032104E0,1.180344E0,1.3876587E0],"tree_param":{"num_deleted":"0","num_feature":"9","num_nodes":"41","size_leaf_vector":"0"}}]},"name":"gbtree"},"learner_model_param":{"base_score":"5E-1","num_class":"0","num_feature":"9"},"objective":{"name":"binary:logistic","reg_loss_param":{"scale_pos_weight":"86.3905945"}}},"version":[1,5,1]}