{"learner":{"attributes":{"best_iteration":"9","best_ntree_limit":"10","best_score":"0.832329"},"feature_names":["lep1pt","lep1eta","lep1phi","lep2pt","lep2eta","lep2phi","drll","PuppiMET_T1Smear_pt","PuppiMET_T1Smear_phi","photonet","photoneta","photonphi","drl1a","drl2a"],"feature_types":["float","float","float","float","float","float","float","float","float","float","float","float","float","float"],"gradient_booster":{"model":{"gbtree_model_param":{"num_trees":"10","size_leaf_vector":"0"},"tree_info":[0,0,0,0,0,0,0,0,0,0],"trees":[{"base_weights":[5.2835478E-8,6.211879E-1,-3.2639602E-1,8.005925E-1,-5.203382E-1,-6.384548E-1,3.4358758E-1,1.1260709E0,-2.1689828E-2,-9.125799E-1,1.06434554E-1,-7.374127E-1,6.997919E-1,1.284583E0,2.1356069E-2,-4.72946E-1,6.490447E-1,3.2203534E-1,-1.0829725E0,4.2880914E-1,-8.0184984E-1,-1.8621379E-1,-9.240104E-1,-1.1620773E-1,1.1105839E0],"categories":[],"categories_nodes":[],"categories_segments":[],"categories_sizes":[],"default_left":[true,true,true,true,false,true,true,true,true,true,true,true,true,false,false,false,false,false,false,false,false,false,false,false,false],"id":0,"left_children":[1,3,5,7,-1,9,11,13,15,17,19,21,23,-1,-1,-1,-1,-1,-1,-1,-1,-1,-1,-1,-1],"loss_changes":[1.0361178E1,4.021434E0,7.223381E0,4.201002E0,0E0,4.83539E0,4.86537E0,1.9336367E0,1.9433529E0,3.9391193E0,2.4338682E0,1.6595078E-1,3.1488981E0,0E0,0E0,0E0,0E0,0E0,0E0,0E0,0E0,0E0,0E0,0E0,0E0],"parents":[2147483647,0,0,1,1,2,2,3,3,5,5,6,6,7,7,8,8,9,9,10,10,11,11,12,12],"right_children":[2,4,6,8,-1,10,12,14,16,18,20,22,24,-1,-1,-1,-1,-1,-1,-1,-1,-1,-1,-1,-1],"split_conditions":[1.678688E0,2.3745117E0,7.268855E1,2.8536592E0,-7.805073E-2,1.1546631E0,2.5394388E1,1.094774E2,1.0175171E0,-2.5251465E0,2.9024935E0,5.090631E1,4.9048428E1,1.9268745E-1,3.2034104E-3,-7.09419E-2,9.735671E-2,4.8305303E-2,-1.6244589E-1,6.432138E-2,-1.2027748E-1,-2.793207E-2,-1.3860157E-1,-1.743116E-2,1.6658759E-1],"split_indices":[12,5,0,13,0,4,9,7,5,2,12,7,3,0,0,0,0,0,0,0,0,0,0,0,0],"split_type":[0,0,0,0,0,0,0,0,0,0,0,0,0,0,0,0,0,0,0,0,0,0,0,0,0],"sum_hessian":[4.9102394E1,1.6602262E1,3.2500134E1,1.4605497E1,1.9967647E0,2.220483E1,1.0295301E1,1.0199038E1,4.4064603E0,1.6066948E1,6.1378827E0,2.286399E0,8.008903E0,8.7768545E0,1.4221827E0,2.8104987E0,1.5959615E0,1.8405929E0,1.4226355E1,4.9196553E0,1.218227E0,1.0835619E0,1.2028369E0,2.9219122E0,5.086991E0],"tree_param":{"num_deleted":"0","num_feature":"14","num_nodes":"25","size_leaf_vector":"0"}},{"base_weights":[-8.3179027E-4,6.008687E-1,-2.5796315E-1,-5.3384495E-1,7.5567096E-1,-5.2262324E-1,3.2278264E-1,9.0378976E-1,-2.8053242E-1,-7.9791236E-1,1.3102509E-1,-6.730781E-1,6.427992E-1,1.0701911E0,-1.2344833E-1,2.3860674E-1,-9.410747E-1,9.252432E-1,-2.4169286E-1,-8.620918E-1,-1.2703995E-1,-1.0322743E-1,9.939812E-1],"categories":[],"categories_nodes":[],"categories_segments":[],"categories_sizes":[],"default_left":[true,true,true,false,true,true,true,true,false,true,true,true,true,false,false,false,false,false,false,false,false,false,false],"id":1,"left_children":[1,3,5,-1,7,9,11,13,-1,15,17,19,21,-1,-1,-1,-1,-1,-1,-1,-1,-1,-1],"loss_changes":[7.870037E0,3.0786557E0,5.645917E0,0E0,2.37399E0,4.5781903E0,4.184999E0,2.2388172E0,0E0,2.8414001E0,2.6588666E0,2.3642898E-1,2.5711567E0,0E0,0E0,0E0,0E0,0E0,0E0,0E0,0E0,0E0,0E0],"parents":[2147483647,0,0,1,1,2,2,4,4,5,5,6,6,7,7,9,9,10,10,11,11,12,12],"right_children":[2,4,6,-1,8,10,12,14,-1,16,18,20,22,-1,-1,-1,-1,-1,-1,-1,-1,-1,-1],"split_conditions":[1.4872212E0,-1.5878906E0,7.268855E1,-8.007675E-2,1.0601807E0,1.0882568E0,2.5394388E1,1.094774E2,-4.2079866E-2,-2.5251465E0,-2.3457968E0,8.0225365E1,4.9048428E1,1.6052867E-1,-1.851725E-2,3.5791013E-2,-1.4116122E-1,1.3878648E-1,-3.625393E-2,-1.2931377E-1,-1.9055994E-2,-1.5484115E-2,1.4909719E-1],"split_indices":[12,4,0,0,10,4,9,7,0,2,8,3,3,0,0,0,0,0,0,0,0,0,0],"split_type":[0,0,0,0,0,0,0,0,0,0,0,0,0,0,0,0,0,0,0,0,0,0,0],"sum_hessian":[4.886576E1,1.4230005E1,3.4635754E1,1.4143242E0,1.2815681E1,2.3861547E1,1.0774208E1,1.13246765E1,1.491005E0,1.6634914E1,7.2266316E0,2.351939E0,8.422269E0,9.709955E0,1.6147207E0,1.937853E0,1.4697062E1,1.8346936E0,5.391938E0,1.3171791E0,1.0347599E0,2.9216902E0,5.5005784E0],"tree_param":{"num_deleted":"0","num_feature":"14","num_nodes":"23","size_leaf_vector":"0"}},{"base_weights":[-5.982645E-4,4.6873984E-1,-2.4712874E-1,6.2295747E-1,-4.8020622E-1,-3.7810627E-1,7.2912693E-1,9.071309E-1,-7.3058546E-2,2.0276609E-1,-6.106543E-1,4.3243296E-2,9.3622434E-1,-9.980382E-2,1.0416669E0,-4.9821103E-1,4.9747056E-1,8.676524E-1,-2.033092E-1,6.0635316E-1,-7.244513E-1],"categories":[],"categories_nodes":[],"categories_segments":[],"categories_sizes":[],"default_left":[true,true,true,true,false,true,true,true,true,true,true,false,false,false,false,false,false,false,false,false,false],"id":2,"left_children":[1,3,5,7,-1,9,11,13,15,17,19,-1,-1,-1,-1,-1,-1,-1,-1,-1,-1],"loss_changes":[5.8261275E0,2.83689E0,4.4966893E0,3.1027393E0,0E0,4.1444063E0,5.62695E-1,1.5908346E0,1.5519247E0,2.6765504E0,3.4174433E0,0E0,0E0,0E0,0E0,0E0,0E0,0E0,0E0,0E0,0E0],"parents":[2147483647,0,0,1,1,2,2,3,3,5,5,6,6,7,7,8,8,9,9,10,10],"right_children":[2,4,6,8,-1,10,12,14,16,18,20,-1,-1,-1,-1,-1,-1,-1,-1,-1,-1],"split_conditions":[1.678688E0,2.3745117E0,7.4798065E1,2.8536592E0,-7.203094E-2,1.504573E0,-1.413208E0,-1.2293701E0,4.2077637E-1,-1.9060059E0,7.039868E-1,6.4864946E-3,1.4043365E-1,-1.4970574E-2,1.5625003E-1,-7.4731655E-2,7.462059E-2,1.3014787E-1,-3.049638E-2,9.095298E-2,-1.086677E-1],"split_indices":[12,5,9,13,0,13,4,4,1,5,6,0,0,0,0,0,0,0,0,0,0],"split_type":[0,0,0,0,0,0,0,0,0,0,0,0,0,0,0,0,0,0,0,0,0],"sum_hessian":[4.8351646E1,1.6340912E1,3.2010735E1,1.4352025E1,1.9888871E0,2.8764322E1,3.246414E0,9.975749E0,4.3762755E0,8.260019E0,2.0504301E1,1.0332409E0,2.2131732E0,1.2061884E0,8.769561E0,2.5802534E0,1.7960223E0,2.700949E0,5.5590706E0,1.3832027E0,1.91211E1],"tree_param":{"num_deleted":"0","num_feature":"14","num_nodes":"21","size_leaf_vector":"0"}},{"base_weights":[5.80094E-3,4.6144277E-1,-1.8789193E-1,6.9478387E-1,-2.4346045E-1,-4.0743703E-1,2.7467313E-1,9.109704E-1,-3.17815E-1,-8.983437E-1,4.143919E-1,-1.0488357E-1,-8.7370914E-1,-6.1594075E-1,5.771756E-1,4.4025518E-2,1.0139911E0,-3.2568717E-1,8.187679E-1,5.6344494E-2,-1.0192566E0,-8.0163926E-1,-1.0537951E-1,-3.273134E-2,8.663669E-1],"categories":[],"categories_nodes":[],"categories_segments":[],"categories_sizes":[],"default_left":[true,true,true,true,true,true,true,true,false,false,false,true,true,true,true,false,false,false,false,false,false,false,false,false,false],"id":3,"left_children":[1,3,5,7,9,11,13,15,-1,-1,-1,17,19,21,23,-1,-1,-1,-1,-1,-1,-1,-1,-1,-1],"loss_changes":[4.398116E0,2.6136382E0,3.6653218E0,2.7905788E0,2.2836275E0,3.3125768E0,3.5505767E0,8.1934166E-1,0E0,0E0,0E0,3.4831343E0,1.3244343E0,2.4646723E-1,1.680824E0,0E0,0E0,0E0,0E0,0E0,0E0,0E0,0E0,0E0,0E0],"parents":[2147483647,0,0,1,1,2,2,3,3,4,4,5,5,6,6,7,7,11,11,12,12,13,13,14,14],"right_children":[2,4,6,8,10,12,14,16,-1,-1,-1,18,20,22,24,-1,-1,-1,-1,-1,-1,-1,-1,-1,-1],"split_conditions":[1.4872212E0,1.2791748E0,7.172139E1,2.3745117E0,3.3685265E1,4.2016602E-1,2.5394388E1,-2.3203125E0,-4.7672253E-2,-1.3475156E-1,6.215879E-2,1.9441223E-1,1.1915824E0,8.289793E1,4.9048428E1,6.603828E-3,1.5209867E-1,-4.8853077E-2,1.2281519E-1,8.451674E-3,-1.5288849E-1,-1.202459E-1,-1.5806926E-2,-4.909701E-3,1.2995504E-1],"split_indices":[12,11,0,5,9,2,9,2,0,0,0,2,13,3,3,0,0,0,0,0,0,0,0,0,0],"split_type":[0,0,0,0,0,0,0,0,0,0,0,0,0,0,0,0,0,0,0,0,0,0,0,0,0],"sum_hessian":[4.7852028E1,1.3861645E1,3.3990383E1,1.0425043E1,3.4366016E0,2.3131002E1,1.0859381E1,8.673618E0,1.7514254E0,1.5389886E0,1.897613E0,1.4771228E1,8.359776E0,2.49058E0,8.368801E0,1.07283E0,7.600788E0,1.2443852E1,2.327375E0,1.2141556E0,7.14562E0,1.4082613E0,1.0823188E0,2.9770322E0,5.391769E0],"tree_param":{"num_deleted":"0","num_feature":"14","num_nodes":"25","size_leaf_vector":"0"}},{"base_weights":[4.2753294E-3,1.8996336E-1,-4.2989218E-1,2.9658392E-1,-5.821877E-1,1.624461E-1,-7.8960925E-1,8.1004214E-1,6.714092E-2,-1.0107526E0,4.2600834E-1,5.603349E-1,-8.3316493E-1,-1.1617107E0,1.2376112E-1,4.0633876E-2,9.0349317E-1,3.6634225E-1,-4.1387522E-1,-9.7738564E-2,8.9407146E-1,-1.2976701E0,-3.9602804E-1,-4.7191414E-1,6.064719E-1],"categories":[],"categories_nodes":[],"categories_segments":[],"categories_sizes":[],"default_left":[true,true,true,true,true,true,true,true,true,false,false,true,false,true,true,false,false,false,false,false,false,false,false,false,false],"id":4,"left_children":[1,3,5,7,9,11,13,15,17,-1,-1,19,-1,21,23,-1,-1,-1,-1,-1,-1,-1,-1,-1,-1],"loss_changes":[3.965473E0,3.0077298E0,3.2685392E0,3.5883822E0,2.3816996E0,3.0013046E0,3.3181567E0,6.434412E-1,3.3842826E0,0E0,0E0,1.2226043E0,0E0,1.8697357E-1,1.3234613E0,0E0,0E0,0E0,0E0,0E0,0E0,0E0,0E0,0E0,0E0],"parents":[2147483647,0,0,1,1,2,2,3,3,4,4,5,5,6,6,7,7,8,8,11,11,13,13,14,14],"right_children":[2,4,6,8,10,12,14,16,18,-1,-1,20,-1,22,24,-1,-1,-1,-1,-1,-1,-1,-1,-1,-1],"split_conditions":[1.2922363E0,2.3955078E0,1.8551302E0,1.4862359E0,4.527579E1,1.24646E0,6.544633E1,-2.3203125E0,1.3046875E0,-1.516129E-1,6.390125E-2,2.0566406E0,-1.2497474E-1,2.6749206E0,3.3182175E1,6.0950816E-3,1.3552397E-1,5.495134E-2,-6.2081285E-2,-1.4660785E-2,1.3411072E-1,-1.9465053E-1,-5.940421E-2,-7.0787124E-2,9.0970784E-2],"split_indices":[11,5,13,12,9,1,0,2,2,0,0,11,0,12,9,0,0,0,0,0,0,0,0,0,0],"split_type":[0,0,0,0,0,0,0,0,0,0,0,0,0,0,0,0,0,0,0,0,0,0,0,0,0],"sum_hessian":[4.7174442E1,3.3436523E1,1.3737918E1,2.9920874E1,3.5156503E0,5.397832E0,8.340086E0,8.45945E0,2.1461422E1,2.4652038E0,1.0504466E0,4.16894E0,1.228892E0,5.7327175E0,2.6073685E0,1.0715879E0,7.387862E0,1.3378276E1,8.083147E0,1.6407633E0,2.5281765E0,4.278256E0,1.4544615E0,1.1771308E0,1.4302377E0],"tree_param":{"num_deleted":"0","num_feature":"14","num_nodes":"25","size_leaf_vector":"0"}},{"base_weights":[-4.011906E-4,1.6492344E-1,-3.8863283E-1,5.4052955E-1,-5.3441238E-2,1.38505E-1,-7.108784E-1,7.907949E-1,-1.14645034E-1,-3.132754E-1,5.511454E-1,5.253889E-1,-7.4232566E-1,-1.0496724E0,1.1196074E-1,1.1293464E0,3.1557447E-1,-4.9856308E-1,5.316822E-1,7.926923E-1,-4.38839E-1,-6.44976E-2,1.000148E0,-3.305594E-1,8.232317E-1,-1.1464536E0,-2.7207676E-1,-4.611618E-1,5.941589E-1],"categories":[],"categories_nodes":[],"categories_segments":[],"categories_sizes":[],"default_left":[true,true,true,true,true,true,true,true,true,true,true,true,false,true,true,false,false,false,false,false,false,false,false,false,false,false,false,false,false],"id":5,"left_children":[1,3,5,7,9,11,13,15,17,19,21,23,-1,25,27,-1,-1,-1,-1,-1,-1,-1,-1,-1,-1,-1,-1,-1,-1],"loss_changes":[3.1166732E0,2.8222582E0,2.5618916E0,2.158412E0,3.6988835E0,2.550152E0,2.671979E0,1.1320858E0,1.3467085E0,2.6165967E0,2.0297945E0,1.5442412E0,0E0,1.838007E-1,1.262289E0,0E0,0E0,0E0,0E0,0E0,0E0,0E0,0E0,0E0,0E0,0E0,0E0,0E0,0E0],"parents":[2147483647,0,0,1,1,2,2,3,3,4,4,5,5,6,6,7,7,8,8,9,9,10,10,11,11,13,13,14,14],"right_children":[2,4,6,8,10,12,14,16,18,20,22,24,-1,26,28,-1,-1,-1,-1,-1,-1,-1,-1,-1,-1,-1,-1,-1,-1],"split_conditions":[1.2922363E0,2.0246444E0,1.8551302E0,1.22229E0,3.1499324E0,2.038086E0,6.544633E1,-2.8427124E-1,4.108766E1,-1.8843994E0,9.805959E1,-1.243042E0,-1.1134885E-1,2.927507E0,1.2478027E0,1.6940196E-1,4.7336172E-2,-7.4784465E-2,7.975233E-2,1.1890385E-1,-6.582585E-2,-9.67464E-3,1.5002221E-1,-4.9583912E-2,1.2348476E-1,-1.7196804E-1,-4.0811516E-2,-6.9174275E-2,8.912384E-2],"split_indices":[11,6,13,2,6,5,0,1,9,10,3,2,0,6,2,0,0,0,0,0,0,0,0,0,0,0,0,0,0],"split_type":[0,0,0,0,0,0,0,0,0,0,0,0,0,0,0,0,0,0,0,0,0,0,0,0,0,0,0,0,0],"sum_hessian":[4.655962E1,3.305757E1,1.35020485E1,1.1610741E1,2.144683E1,5.3388324E0,8.163216E0,8.251726E0,3.359015E0,1.5337181E1,6.1096497E0,3.9898958E0,1.3489367E0,5.587117E0,2.5760987E0,4.014961E0,4.236765E0,2.2507133E0,1.1083015E0,1.0220304E0,1.431515E1,2.9378357E0,3.171814E0,1.0016067E0,2.988289E0,4.5468493E0,1.0402677E0,1.1970072E0,1.3790916E0],"tree_param":{"num_deleted":"0","num_feature":"14","num_nodes":"29","size_leaf_vector":"0"}},{"base_weights":[3.5381434E-3,3.2471097E-1,-1.8014485E-1,-3.6131736E-2,6.2353235E-1,2.1335877E-1,-4.255603E-1,-5.3342474E-1,6.5671283E-1,9.177428E-1,1.322237E-1,4.4104186E-1,-3.9992005E-1,-5.338691E-2,-7.5720805E-1,4.9129334E-1,-9.4085556E-1,-1.218712E-2,9.344547E-1,2.5084043E-1,1.0130044E0,-8.3776516E-1,7.346463E-1,-9.737189E-2,8.801155E-1,1.9856368E-1,-7.208662E-1,-6.953614E-1,2.758429E-1,-9.6629E-1,5.9576176E-2],"categories":[],"categories_nodes":[],"categories_segments":[],"categories_sizes":[],"default_left":[true,true,true,true,true,true,true,true,true,true,true,true,true,true,true,false,false,false,false,false,false,false,false,false,false,false,false,false,false,false,false],"id":6,"left_children":[1,3,5,7,9,11,13,15,17,19,21,23,25,27,29,-1,-1,-1,-1,-1,-1,-1,-1,-1,-1,-1,-1,-1,-1,-1,-1],"loss_changes":[2.8318784E0,1.9053123E0,3.0410898E0,3.4012396E0,1.2672033E0,1.907934E0,2.3232071E0,2.8448057E0,7.8204465E-1,1.1690807E-1,3.40058E0,2.3359947E0,8.88765E-1,2.3263686E0,1.7738905E0,0E0,0E0,0E0,0E0,0E0,0E0,0E0,0E0,0E0,0E0,0E0,0E0,0E0,0E0,0E0,0E0],"parents":[2147483647,0,0,1,1,2,2,3,3,4,4,5,5,6,6,7,7,8,8,9,9,10,10,11,11,12,12,13,13,14,14],"right_children":[2,4,6,8,10,12,14,16,18,20,22,24,26,28,30,-1,-1,-1,-1,-1,-1,-1,-1,-1,-1,-1,-1,-1,-1,-1,-1],"split_conditions":[-1.1334229E0,5.1380165E1,1.919699E0,-1.6716309E0,-1.9752197E0,3.0142918E0,2.2032433E0,-1.09021E0,6.3690186E-1,-2.7995605E0,2.5401523E0,3.1516808E1,7.7092695E-1,-7.625122E-1,6.544633E1,7.3694006E-2,-1.4112835E-1,-1.828068E-3,1.401682E-1,3.7626065E-2,1.5195067E-1,-1.2566479E-1,1.10196956E-1,-1.4605784E-2,1.3201733E-1,2.9784553E-2,-1.0812993E-1,-1.0430421E-1,4.1376438E-2,-1.449435E-1,8.936427E-3],"split_indices":[11,0,12,11,11,13,13,1,1,11,12,9,12,10,0,0,0,0,0,0,0,0,0,0,0,0,0,0,0,0,0],"split_type":[0,0,0,0,0,0,0,0,0,0,0,0,0,0,0,0,0,0,0,0,0,0,0,0,0,0,0,0,0,0,0],"sum_hessian":[4.6011288E1,1.6461063E1,2.9550226E1,7.8549175E0,8.606145E0,1.14007225E1,1.8149504E1,4.7067304E0,3.148187E0,4.8399067E0,3.7662382E0,8.518887E0,2.8818364E0,9.099297E0,9.050208E0,1.2804567E0,3.4262738E0,1.2041916E0,1.9439954E0,1.0590366E0,3.7808702E0,1.2932522E0,2.472986E0,4.176136E0,4.34275E0,1.1390718E0,1.7427646E0,2.707595E0,6.391701E0,7.059948E0,1.9902601E0],"tree_param":{"num_deleted":"0","num_feature":"14","num_nodes":"31","size_leaf_vector":"0"}},{"base_weights":[4.7397558E-3,-8.225176E-2,6.324126E-1,3.3848628E-1,-2.4245816E-1,-1.3215768E-1,8.246685E-1,-4.5152292E-1,5.60492E-1,7.198684E-1,-3.219469E-1,2.1114932E-1,9.590907E-1,-7.376541E-1,4.668434E-2,6.883432E-1,-1.5068692E-1,-7.4625796E-1,-1.4988023E-1],"categories":[],"categories_nodes":[],"categories_segments":[],"categories_sizes":[],"default_left":[true,true,true,true,true,false,true,true,true,false,true,false,false,false,false,false,false,false,false],"id":7,"left_children":[1,3,5,7,9,-1,11,13,15,-1,17,-1,-1,-1,-1,-1,-1,-1,-1],"loss_changes":[2.5772605E0,2.879606E0,9.533982E-1,2.3336353E0,2.5755954E0,0E0,1.8744469E-1,4.84356E-1,9.862933E-1,0E0,2.0049872E0,0E0,0E0,0E0,0E0,0E0,0E0,0E0,0E0],"parents":[2147483647,0,0,1,1,2,2,3,3,4,4,6,6,7,7,8,8,10,10],"right_children":[2,4,6,8,10,-1,12,14,16,-1,18,-1,-1,-1,-1,-1,-1,-1,-1],"split_conditions":[7.2978714E1,1.4190631E0,5.6302002E1,-1.2266846E0,6.17923E-1,-1.9823654E-2,-3.177185E-1,4.7381573E1,1.6234131E0,1.07980266E-1,3.2775158E1,3.16724E-2,1.4386362E-1,-1.1064812E-1,7.002651E-3,1.0325149E-1,-2.2603039E-2,-1.119387E-1,-2.2482036E-2],"split_indices":[9,12,3,4,13,0,10,0,5,0,0,0,0,0,0,0,0,0,0],"split_type":[0,0,0,0,0,0,0,0,0,0,0,0,0,0,0,0,0,0,0],"sum_hessian":[4.5248013E1,4.050345E1,4.7445655E0,1.0862712E1,2.9640736E1,1.0161397E0,3.728426E0,2.156161E0,8.706552E0,1.6468606E0,2.7993876E1,1.1321136E0,2.5963123E0,1.0642959E0,1.0918652E0,7.4070654E0,1.2994854E0,7.113983E0,2.0879892E1],"tree_param":{"num_deleted":"0","num_feature":"14","num_nodes":"19","size_leaf_vector":"0"}},{"base_weights":[6.6094818E-3,-2.0450997E-1,2.3667963E-1,3.7428666E-2,-5.6287E-1,-3.4874392E-1,4.0142143E-1,3.8951674E-1,-5.3752023E-1,-1.6678063E-2,-8.451531E-1,5.71175E-1,-7.070029E-1,5.238817E-1,-2.6796746E-1,7.770264E-1,-6.374461E-2,4.3992344E-1,-9.0211076E-1,4.3919405E-1,-5.022856E-1,-3.1961358E-1,-1.0059161E0,-1.0006677E0,1.0334153E-1,1.6465236E-1,7.975226E-1,-6.908937E-1,3.4477034E-1],"categories":[],"categories_nodes":[],"categories_segments":[],"categories_sizes":[],"default_left":[true,true,true,true,true,true,true,true,true,true,true,false,true,true,true,false,false,false,false,false,false,false,false,false,false,false,false,false,false],"id":8,"left_children":[1,3,5,7,9,11,13,15,17,19,21,-1,23,25,27,-1,-1,-1,-1,-1,-1,-1,-1,-1,-1,-1,-1,-1,-1],"loss_changes":[2.2659354E0,2.131729E0,2.2916691E0,3.3410745E0,1.5082488E0,2.194895E0,1.6057079E0,1.8366194E0,2.6404727E0,1.1911926E0,2.2676563E-1,0E0,1.1405296E0,1.3873706E0,1.1260412E0,0E0,0E0,0E0,0E0,0E0,0E0,0E0,0E0,0E0,0E0,0E0,0E0,0E0,0E0],"parents":[2147483647,0,0,1,1,2,2,3,3,4,4,5,5,6,6,7,7,8,8,9,9,10,10,12,12,13,13,14,14],"right_children":[2,4,6,8,10,12,14,16,18,20,22,-1,24,26,28,-1,-1,-1,-1,-1,-1,-1,-1,-1,-1,-1,-1,-1,-1],"split_conditions":[3.297653E1,5.175781E-1,-1.5637207E0,6.4556885E-1,1.8372712E0,-1.875E0,2.2509766E0,2.1508284E0,1.2517314E0,1.3603516E0,4.1757084E1,8.567625E-2,8.477107E1,7.874298E-2,6.533356E1,1.1655397E-1,-9.561692E-3,6.598852E-2,-1.3531663E-1,6.5879114E-2,-7.534284E-2,-4.794204E-2,-1.5088743E-1,-1.5010016E-1,1.550123E-2,2.4697855E-2,1.1962839E-1,-1.0363406E-1,5.1715553E-2],"split_indices":[9,2,4,11,12,5,11,6,13,11,7,0,3,1,3,0,0,0,0,0,0,0,0,0,0,0,0,0,0],"split_type":[0,0,0,0,0,0,0,0,0,0,0,0,0,0,0,0,0,0,0,0,0,0,0,0,0,0,0,0,0],"sum_hessian":[4.4654266E1,2.3344099E1,2.1310167E1,1.4470337E1,8.873763E0,4.434587E0,1.6875582E1,9.174539E0,5.295799E0,3.3843796E0,5.489383E0,1.0763874E0,3.3581996E0,1.4449512E1,2.426069E0,4.5609307E0,4.6136074E0,1.3825766E0,3.913222E0,1.7949339E0,1.5894457E0,1.98581E0,3.5035732E0,2.2925305E0,1.0656691E0,6.9402394E0,7.5092726E0,1.3598891E0,1.0661799E0],"tree_param":{"num_deleted":"0","num_feature":"14","num_nodes":"29","size_leaf_vector":"0"}},{"base_weights":[2.5385413E-3,9.785288E-2,-4.5245466E-1,1.9287731E-1,-4.9282482E-1,-6.6286486E-1,4.670548E-1,2.8304756E-1,-5.038009E-1,-7.0039624E-1,1.3605638E-1,-8.59175E-1,2.2280748E-1,5.8731216E-1,1.0286176E-1,-8.352053E-1,2.4067049E-1,-4.7918852E-2,-9.0069515E-1,-1.0663743E0,1.0822667E-2],"categories":[],"categories_nodes":[],"categories_segments":[],"categories_sizes":[],"default_left":[true,true,true,true,true,true,false,true,true,true,false,true,false,false,false,false,false,false,false,false,false],"id":9,"left_children":[1,3,5,7,9,11,-1,13,15,17,-1,19,-1,-1,-1,-1,-1,-1,-1,-1,-1],"loss_changes":[1.9914305E0,2.224845E0,1.8485708E0,2.2410917E0,8.1842697E-1,1.3887672E0,0E0,1.596221E0,1.2342353E0,5.2241683E-1,0E0,1.064816E0,0E0,0E0,0E0,0E0,0E0,0E0,0E0,0E0,0E0],"parents":[2147483647,0,0,1,1,2,2,3,3,4,4,5,5,7,7,8,8,9,9,11,11],"right_children":[2,4,6,8,10,12,-1,14,16,18,-1,20,-1,-1,-1,-1,-1,-1,-1,-1,-1],"split_conditions":[3.0323138E0,2.2509766E0,9.921211E1,2.3955078E0,8.3525894E1,2.3144531E0,7.005823E-2,2.0253549E0,4.527579E1,-1.977518E0,2.0408457E-2,3.6089687E0,3.3421125E-2,8.809683E-2,1.5429265E-2,-1.252808E-1,3.6100574E-2,-7.187828E-3,-1.3510428E-1,-1.5995616E-1,1.6234001E-3],"split_indices":[12,11,3,5,3,11,0,6,9,8,0,12,0,0,0,0,0,0,0,0,0],"split_type":[0,0,0,0,0,0,0,0,0,0,0,0,0,0,0,0,0,0,0,0,0],"sum_hessian":[4.389911E1,3.6944683E1,6.954428E0,3.2405033E1,4.5396495E0,5.886531E0,1.0678972E0,2.9217203E1,3.1878295E0,3.3276062E0,1.2120432E0,4.842994E0,1.0435367E0,1.0026616E1,1.9190588E1,2.1215403E0,1.0662891E0,1.0726537E0,2.2549527E0,3.729139E0,1.1138552E0],"tree_param":{"num_deleted":"0","num_feature":"14","num_nodes":"21","size_leaf_vector":"0"}}]},"name":"gbtree"},"learner_model_param":{"base_score":"5E-1","num_class":"0","num_feature":"14"},"objective":{"name":"binary:logistic","reg_loss_param":{"scale_pos_weight":"60.5662346"}}},"version":[1,5,1]}