{"learner":{"attributes":{"best_iteration":"9","best_ntree_limit":"10","best_score":"0.907206"},"feature_names":["lep1pt","lep1eta","lep1phi","lep2pt","lep2eta","lep2phi","drll","PuppiMET_T1Smear_pt","PuppiMET_T1Smear_phi","photonet","photoneta","photonphi","drl1a","drl2a"],"feature_types":["float","float","float","float","float","float","float","float","float","float","float","float","float","float"],"gradient_booster":{"model":{"gbtree_model_param":{"num_trees":"10","size_leaf_vector":"0"},"tree_info":[0,0,0,0,0,0,0,0,0,0],"trees":[{"base_weights":[8.575999E-8,-2.3739263E-1,8.4182763E-1,-7.763271E-1,1.7834494E-1,1.0880054E0,-7.754584E-1,6.8791777E-1,-9.494455E-1,5.292504E-1,-4.2717084E-1,1.2362058E0,-2.4808848E-1,-2.2350435E-1,-1.4406135E0,8.480974E-1,-2.4954739E-1,-1.1331084E0,9.27976E-2,1.1718197E-1,1.3515762E0],"categories":[],"categories_nodes":[],"categories_segments":[],"categories_sizes":[],"default_left":[true,true,true,true,true,true,false,false,true,true,true,true,false,false,false,false,false,false,false,false,false],"id":0,"left_children":[1,3,5,7,9,11,-1,-1,13,15,17,19,-1,-1,-1,-1,-1,-1,-1,-1,-1],"loss_changes":[1.266486E1,1.121433E1,6.3938284E0,6.157383E0,6.3283954E0,2.7847147E0,0E0,0E0,6.7515583E0,4.8375945E0,4.1760635E0,1.3175526E0,0E0,0E0,0E0,0E0,0E0,0E0,0E0,0E0,0E0],"parents":[2147483647,0,0,1,1,2,2,3,3,4,4,5,5,8,8,9,9,10,10,11,11],"right_children":[2,4,6,8,10,12,-1,-1,14,16,18,20,-1,-1,-1,-1,-1,-1,-1,-1,-1],"split_conditions":[7.35338E1,4.7917656E1,8.411255E-1,-1.8226318E0,2.0744324E-1,3.1147509E0,-1.1631876E-1,1.0318767E-1,3.115469E1,2.656617E0,5.7629395E-1,-2.36792E0,-3.7213273E-2,-3.3525653E-2,-2.1609204E-1,1.2721461E-1,-3.743211E-2,-1.6996627E-1,1.391964E-2,1.7577296E-2,2.0273644E-1],"split_indices":[9,0,4,10,10,13,0,0,0,13,4,5,0,0,0,0,0,0,0,0,0],"split_type":[0,0,0,0,0,0,0,0,0,0,0,0,0,0,0,0,0,0,0,0,0],"sum_hessian":[6.1373814E1,4.8433674E1,1.2940141E1,2.0714035E1,2.771964E1,1.151468E1,1.4254605E0,1.8756872E0,1.8838346E1,1.7629204E1,1.0090437E1,1.0432286E1,1.0823945E0,8.18946E0,1.0648888E1,1.2445087E1,5.184116E0,3.7797098E0,6.3107266E0,1.1634285E0,9.268857E0],"tree_param":{"num_deleted":"0","num_feature":"14","num_nodes":"21","size_leaf_vector":"0"}},{"base_weights":[-2.382848E-3,-2.2669566E-1,7.155436E-1,8.83929E-1,-3.6894554E-1,-1.153124E0,9.975588E-1,1.0538706E-1,1.0987588E0,9.7444475E-1,-4.787388E-1,-1.10192865E-1,1.2035629E0,2.9036155E-1,1.1350837E0,-1.9720799E-1,-1.0787946E0,5.04461E-1,-6.698318E-1,1.3370285E0,1.4415637E-1],"categories":[],"categories_nodes":[],"categories_segments":[],"categories_sizes":[],"default_left":[true,true,true,true,true,false,true,false,false,true,true,true,true,false,false,false,false,false,false,false,false],"id":1,"left_children":[1,3,5,7,9,-1,11,-1,-1,13,15,17,19,-1,-1,-1,-1,-1,-1,-1,-1],"loss_changes":[1.0156972E1,7.917056E0,9.063482E0,8.458824E-1,6.8527946E0,0E0,3.2322598E0,0E0,0E0,6.6106796E-2,6.6624527E0,1.385679E0,1.4385128E0,0E0,0E0,0E0,0E0,0E0,0E0,0E0,0E0],"parents":[2147483647,0,0,1,1,2,2,3,3,4,4,6,6,9,9,10,10,11,11,12,12],"right_children":[2,4,6,8,10,-1,12,-1,-1,14,16,18,20,-1,-1,-1,-1,-1,-1,-1,-1],"split_conditions":[1.0095395E2,8.723372E-1,2.5861574E1,-1.1616263E0,5.809659E-1,-1.729686E-1,2.518229E0,1.580806E-2,1.6481383E-1,5.98476E1,2.6772065E0,-7.30535E-1,4.9713135E-1,4.3554235E-2,1.7026256E-1,-2.9581198E-2,-1.6181919E-1,7.5669155E-2,-1.00474775E-1,2.0055428E-1,2.1623455E-2],"split_indices":[3,6,9,8,12,0,6,0,0,9,13,8,10,0,0,0,0,0,0,0,0],"split_type":[0,0,0,0,0,0,0,0,0,0,0,0,0,0,0,0,0,0,0,0,0],"sum_hessian":[6.1063805E1,4.7048084E1,1.401572E1,4.7498007E0,4.2298283E1,1.4328178E0,1.2582903E1,1.3495606E0,3.4002402E0,2.6007833E0,3.96975E1,2.045997E0,1.0536906E1,1.0284891E0,1.5722944E0,2.792463E1,1.177287E1,1.0220598E0,1.0239372E0,9.125239E0,1.4116663E0],"tree_param":{"num_deleted":"0","num_feature":"14","num_nodes":"21","size_leaf_vector":"0"}},{"base_weights":[1.7882941E-3,2.4734302E-1,-5.624132E-1,1.0288294E-2,1.0218221E0,6.175329E-1,-8.4220725E-1,-8.0863214E-1,3.031197E-1,1.1822108E0,-1.5093955E-1,1.0033523E0,-1.2685077E-1,-1.1281374E0,4.120674E-1,-1.2104644E0,5.592336E-1,4.757376E-1,-5.179739E-1,1.3228943E0,2.2945873E-2,-1.3250009E0,2.426853E-1,9.2797214E-1,-4.6471083E-1],"categories":[],"categories_nodes":[],"categories_segments":[],"categories_sizes":[],"default_left":[true,true,true,true,true,true,true,true,true,true,false,false,false,true,true,false,false,false,false,false,false,false,false,false,false],"id":2,"left_children":[1,3,5,7,9,11,13,15,17,19,-1,-1,-1,21,23,-1,-1,-1,-1,-1,-1,-1,-1,-1,-1],"loss_changes":[8.674855E0,7.998289E0,6.7890644E0,8.496719E0,2.0994482E0,1.3382736E0,6.1213064E0,5.8084903E0,3.9419675E0,1.4533262E0,0E0,0E0,0E0,3.8599339E0,2.0869908E0,0E0,0E0,0E0,0E0,0E0,0E0,0E0,0E0,0E0,0E0],"parents":[2147483647,0,0,1,1,2,2,3,3,4,4,5,5,6,6,7,7,8,8,9,9,13,13,14,14],"right_children":[2,4,6,8,10,12,14,16,18,20,-1,-1,-1,22,24,-1,-1,-1,-1,-1,-1,-1,-1,-1,-1],"split_conditions":[5.651245E-1,7.544059E1,2.8774933E1,-1.3582764E0,2.8646607E0,1.6187382E0,1.2045718E2,3.282443E0,1.6787109E0,6.8322754E-1,-2.2640934E-2,1.5050285E-1,-1.9027617E-2,1.885498E0,9.852705E-1,-1.8156967E-1,8.3885044E-2,7.136064E-2,-7.7696085E-2,1.9843416E-1,3.4418812E-3,-1.9875014E-1,3.6402795E-2,1.3919583E-1,-6.9706626E-2],"split_indices":[10,9,0,11,12,6,0,6,5,5,0,0,0,10,8,0,0,0,0,0,0,0,0,0,0],"split_type":[0,0,0,0,0,0,0,0,0,0,0,0,0,0,0,0,0,0,0,0,0,0,0,0,0],"sum_hessian":[6.06111E1,4.262237E1,1.7988728E1,3.3409565E1,9.212809E0,3.2165995E0,1.4772127E1,8.336005E0,2.5073559E1,8.097346E0,1.1154627E0,1.8894087E0,1.3271908E0,1.2111663E1,2.660464E0,6.532152E0,1.8038524E0,2.1065565E1,4.0079937E0,7.0951586E0,1.0021878E0,1.0619961E1,1.4917027E0,1.638164E0,1.0223E0],"tree_param":{"num_deleted":"0","num_feature":"14","num_nodes":"25","size_leaf_vector":"0"}},{"base_weights":[3.3008074E-3,-2.9906884E-1,3.774852E-1,8.786305E-1,-4.853015E-1,-3.9600214E-1,6.258713E-1,1.0754668E0,3.007428E-1,4.3866885E-1,-6.715007E-1,-9.20381E-1,9.625209E-2,-1.07189134E-1,9.0798175E-1,8.751334E-1,-4.22593E-1,-9.2519426E-1,-1.6315734E-1,-1.1028745E0,-2.5408515E-1,9.8263407E-1,-4.430903E-1,6.3796467E-1,-9.0450543E-1,1.1095979E0,-8.4087804E-2],"categories":[],"categories_nodes":[],"categories_segments":[],"categories_sizes":[],"default_left":[true,true,true,true,true,true,true,false,false,true,true,true,true,true,true,false,false,false,false,false,false,false,false,false,false,false,false],"id":3,"left_children":[1,3,5,7,9,11,13,-1,-1,15,17,19,21,23,25,-1,-1,-1,-1,-1,-1,-1,-1,-1,-1,-1,-1],"loss_changes":[6.9963064E0,7.9287233E0,5.556691E0,2.4830651E-1,5.4867907E0,1.9804264E0,4.5029488E0,0E0,0E0,2.4999871E0,3.1393194E0,1.6279626E-1,2.6754367E0,4.625698E0,3.1913443E0,0E0,0E0,0E0,0E0,0E0,0E0,0E0,0E0,0E0,0E0,0E0,0E0],"parents":[2147483647,0,0,1,1,2,2,3,3,4,4,5,5,6,6,9,9,10,10,11,11,12,12,13,13,14,14],"right_children":[2,4,6,8,10,12,14,-1,-1,16,18,20,22,24,26,-1,-1,-1,-1,-1,-1,-1,-1,-1,-1,-1,-1],"split_conditions":[6.472508E1,8.723372E-1,2.7401026E1,1.9605882E0,1.0645001E0,3.0941772E-1,2.518942E0,1.6132002E-1,4.511142E-2,2.104862E0,7.207031E-1,1.4699707E0,4.310913E-1,-6.246948E-1,4.9713135E-1,1.3127002E-1,-6.338895E-2,-1.3877915E-1,-2.4473602E-2,-1.6543119E-1,-3.8112774E-2,1.4739512E-1,-6.6463545E-2,9.5694706E-2,-1.3567582E-1,1.664397E-1,-1.2613171E-2],"split_indices":[3,6,9,13,12,11,6,0,0,6,4,5,11,4,10,0,0,0,0,0,0,0,0,0,0,0,0],"split_type":[0,0,0,0,0,0,0,0,0,0,0,0,0,0,0,0,0,0,0,0,0,0,0,0,0,0,0],"sum_hessian":[5.9838703E1,3.3206253E1,2.663245E1,4.0263667E0,2.9179886E1,6.329077E0,2.0303373E1,2.3611104E0,1.6652563E0,4.6666765E0,2.451321E1,2.6434197E0,3.685657E0,5.814504E0,1.448887E1,3.0864432E0,1.5802333E0,1.5805371E1,8.707838E0,1.560718E0,1.0827016E0,1.0833366E0,2.6023204E0,3.1088777E0,2.7056265E0,1.194321E1,2.54566E0],"tree_param":{"num_deleted":"0","num_feature":"14","num_nodes":"27","size_leaf_vector":"0"}},{"base_weights":[4.8721256E-3,2.18377E-1,-4.3724126E-1,4.5280054E-1,-3.543809E-1,-8.6986893E-1,2.1427822E-1,-2.228364E-1,6.4262015E-1,6.717371E-1,-7.200865E-1,5.0533548E-2,-1.0966282E0,-2.1636757E-1,8.2094836E-1,5.569397E-1,-9.1702026E-1,-1.5581237E-1,8.0047417E-1,3.165788E-2,9.748725E-1,-9.5710206E-1,6.404089E-1,-4.0693825E-1,4.3139872E-1,-9.220244E-2,-1.202222E0,3.2711205E-1,-8.0469406E-1,9.960152E-1,2.0266463E-1],"categories":[],"categories_nodes":[],"categories_segments":[],"categories_sizes":[],"default_left":[true,true,true,true,true,true,true,true,true,true,true,true,true,true,true,false,false,false,false,false,false,false,false,false,false,false,false,false,false,false,false],"id":4,"left_children":[1,3,5,7,9,11,13,15,17,19,21,23,25,27,29,-1,-1,-1,-1,-1,-1,-1,-1,-1,-1,-1,-1,-1,-1,-1,-1],"loss_changes":[5.7513885E0,5.6752076E0,5.7802334E0,3.9372296E0,5.1704397E0,2.5858126E0,2.4562817E0,4.4249177E0,3.0679493E0,7.062584E-1,3.737688E0,7.5967515E-1,9.255295E-1,2.1472564E0,2.1264839E-1,0E0,0E0,0E0,0E0,0E0,0E0,0E0,0E0,0E0,0E0,0E0,0E0,0E0,0E0,0E0,0E0],"parents":[2147483647,0,0,1,1,2,2,3,3,4,4,5,5,6,6,7,7,8,8,9,9,10,10,11,11,12,12,13,13,14,14],"right_children":[2,4,6,8,10,12,14,16,18,20,22,24,26,28,30,-1,-1,-1,-1,-1,-1,-1,-1,-1,-1,-1,-1,-1,-1,-1,-1],"split_conditions":[2.6671362E0,5.516968E-1,6.0705574E1,-1.2797852E0,2.93064E1,-1.3498535E0,1.626831E0,-1.0246582E0,2.315395E1,5.7250427E1,2.0178223E0,-1.02500916E-1,-2.2895508E0,5.64684E1,1.4630785E0,8.354096E-2,-1.3755305E-1,-2.3371857E-2,1.2007113E-1,4.748682E-3,1.4623089E-1,-1.4356531E-1,9.6061334E-2,-6.104074E-2,6.470981E-2,-1.3830367E-2,-1.803333E-1,4.9066808E-2,-1.20704114E-1,1.4940229E-1,3.0399695E-2],"split_indices":[13,10,0,11,0,1,2,4,9,9,4,11,5,7,12,0,0,0,0,0,0,0,0,0,0,0,0,0,0,0,0],"split_type":[0,0,0,0,0,0,0,0,0,0,0,0,0,0,0,0,0,0,0,0,0,0,0,0,0,0,0,0,0,0,0],"sum_hessian":[5.891846E1,4.0072674E1,1.8845787E1,2.8583286E1,1.1489388E1,1.1123996E1,7.7217917E0,6.2309904E0,2.2352297E1,2.7989912E0,8.690397E0,2.3524969E0,8.771499E0,4.8923216E0,2.8294702E0,3.027692E0,3.2032983E0,3.6918242E0,1.8660473E1,1.2545042E0,1.5444869E0,7.6535554E0,1.0368416E0,1.0376627E0,1.3148341E0,1.0126059E0,7.758893E0,2.7738822E0,2.1184394E0,1.728976E0,1.1004943E0],"tree_param":{"num_deleted":"0","num_feature":"14","num_nodes":"31","size_leaf_vector":"0"}},{"base_weights":[4.9986597E-3,-3.2012612E-1,2.5183043E-1,-2.8820442E-2,-1.0135032E0,-7.4237376E-1,3.474333E-1,2.7208814E-1,-8.35837E-1,-1.2233128E-1,-1.324853E0,-9.5267105E-1,-1.485381E-1,5.2319545E-1,-1.965742E-1,-1.7347826E-1,8.3398473E-1,-1.3897853E-2,-1.0480267E0,1.8090037E-1,-3.747065E-1,-6.818817E-2,6.858178E-1,7.9487187E-1,-4.7250473E-1],"categories":[],"categories_nodes":[],"categories_segments":[],"categories_sizes":[],"default_left":[true,true,true,true,true,true,true,true,true,true,false,false,false,true,true,false,false,false,false,false,false,false,false,false,false],"id":5,"left_children":[1,3,5,7,9,11,13,15,17,19,-1,-1,-1,21,23,-1,-1,-1,-1,-1,-1,-1,-1,-1,-1],"loss_changes":[4.801206E0,5.187174E0,3.4893053E0,4.8934913E0,1.9496999E0,2.707504E-1,3.1334782E0,3.8376436E0,9.384353E-1,3.029021E-1,0E0,0E0,0E0,2.3769307E0,2.6918402E0,0E0,0E0,0E0,0E0,0E0,0E0,0E0,0E0,0E0,0E0],"parents":[2147483647,0,0,1,1,2,2,3,3,4,4,5,5,6,6,7,7,8,8,9,9,13,13,14,14],"right_children":[2,4,6,8,10,12,14,16,18,20,-1,-1,-1,22,24,-1,-1,-1,-1,-1,-1,-1,-1,-1,-1],"split_conditions":[4.7917656E1,3.7955338E1,2.1802841E1,2.8193007E0,1.4628546E0,4.3930054E-1,5.5114746E-1,4.3559456E1,-6.812744E-1,-5.315552E-1,-1.9872795E-1,-1.4290066E-1,-2.2280715E-2,-1.4996338E0,-2.7097168E0,-2.602174E-2,1.2509772E-1,-2.084678E-3,-1.57204E-1,2.7135056E-2,-5.6205977E-2,-1.0228226E-2,1.0287267E-1,1.19230784E-1,-7.087571E-2],"split_indices":[0,0,9,13,12,2,10,9,10,10,0,0,0,11,5,0,0,0,0,0,0,0,0,0,0],"split_type":[0,0,0,0,0,0,0,0,0,0,0,0,0,0,0,0,0,0,0,0,0,0,0,0,0],"sum_hessian":[5.782271E1,2.4825638E1,3.299707E1,1.8214725E1,6.6109133E0,2.3011816E0,3.0695887E1,1.375049E1,4.464236E0,2.0723011E0,4.538612E0,1.2531363E0,1.0480452E0,2.3229107E1,7.466781E0,8.05466E0,5.6958303E0,1.1346285E0,3.3296072E0,1.0699514E0,1.0023497E0,5.135246E0,1.809386E1,1.2161907E0,6.2505903E0],"tree_param":{"num_deleted":"0","num_feature":"14","num_nodes":"25","size_leaf_vector":"0"}},{"base_weights":[-1.3671197E-3,4.4546017E-1,-1.5629305E-1,1.0634116E0,2.6374507E-1,5.9377793E-2,-6.6404843E-1,-5.9825167E-2,8.626707E-1,-1.6152453E-1,8.3908594E-1,5.723346E-1,-9.049913E-1,7.6189667E-1,-6.765912E-1,1.7624666E-1,1.0629321E0,-4.2973617E-1,3.327381E-1,-1.1021583E-1,1.052311E0,5.178222E-1,-1.1167327E0],"categories":[],"categories_nodes":[],"categories_segments":[],"categories_sizes":[],"default_left":[true,true,true,false,true,true,true,true,true,true,true,false,true,false,false,false,false,false,false,false,false,false,false],"id":6,"left_children":[1,3,5,-1,7,9,11,13,15,17,19,-1,21,-1,-1,-1,-1,-1,-1,-1,-1,-1,-1],"loss_changes":[4.069307E0,1.4190669E0,4.81867E0,0E0,2.575906E0,5.5696445E0,4.4183507E0,5.27544E0,4.496243E-1,3.5132632E0,1.5585098E0,0E0,3.9961834E0,0E0,0E0,0E0,0E0,0E0,0E0,0E0,0E0,0E0,0E0],"parents":[2147483647,0,0,1,1,2,2,4,4,5,5,6,6,7,7,8,8,9,9,10,10,12,12],"right_children":[2,4,6,-1,8,10,12,14,16,18,20,-1,22,-1,-1,-1,-1,-1,-1,-1,-1,-1,-1],"split_conditions":[1.2464583E0,2.2424273E1,2.6672096E0,1.5951174E-1,2.1118164E0,1.2275234E2,-1.8665771E0,-7.321167E-1,6.3288322E1,2.794464E0,-6.418457E-1,8.5850194E-2,-2.7097168E0,1.1428451E-1,-1.0148869E-1,2.6437E-2,1.5943983E-1,-6.446043E-2,4.9910717E-2,-1.6532375E-2,1.5784664E-1,7.767333E-2,-1.6750991E-1],"split_indices":[12,9,13,0,2,7,10,1,0,6,5,0,5,0,0,0,0,0,0,0,0,0,0],"split_type":[0,0,0,0,0,0,0,0,0,0,0,0,0,0,0,0,0,0,0,0,0,0,0],"sum_hessian":[5.6777924E1,1.4135094E1,4.264283E1,2.109459E0,1.2025635E1,3.0549768E1,1.2093061E1,8.391974E0,3.6336603E0,2.4423176E1,6.126591E0,1.7479866E0,1.0345075E1,3.4972517E0,4.8947225E0,1.2453007E0,2.3883598E0,1.591659E1,8.506587E0,1.2123178E0,4.9142737E0,1.1528517E0,9.192223E0],"tree_param":{"num_deleted":"0","num_feature":"14","num_nodes":"23","size_leaf_vector":"0"}},{"base_weights":[7.115896E-3,-2.1418323E-1,2.8553414E-1,7.245194E-1,-3.6429498E-1,-2.6920328E-1,5.330116E-1,1.4603044E-1,8.6117303E-1,-6.296187E-1,7.8069344E-2,-6.177666E-1,3.7123334E-1,1.01574045E-2,7.791685E-1,-7.8671944E-1,3.4136298E-1,4.7961825E-1,-4.2706004E-1,-8.442622E-1,2.4209286E-1,-2.3246169E-1,7.147905E-1,6.547442E-1,-7.495432E-1,-1.262642E-1,9.7711194E-1],"categories":[],"categories_nodes":[],"categories_segments":[],"categories_sizes":[],"default_left":[true,true,true,true,true,true,true,false,false,true,true,true,true,true,true,false,false,false,false,false,false,false,false,false,false,false,false],"id":7,"left_children":[1,3,5,7,9,11,13,-1,-1,15,17,19,21,23,25,-1,-1,-1,-1,-1,-1,-1,-1,-1,-1,-1,-1],"loss_changes":[3.5550387E0,4.7963686E0,3.6498692E0,2.5125456E-1,3.382012E0,2.136547E0,2.3084106E0,0E0,0E0,2.9930086E0,2.5446982E0,1.3549707E0,9.2022884E-1,3.807966E0,2.314077E0,0E0,0E0,0E0,0E0,0E0,0E0,0E0,0E0,0E0,0E0,0E0,0E0],"parents":[2147483647,0,0,1,1,2,2,3,3,4,4,5,5,6,6,9,9,10,10,11,11,12,12,13,13,14,14],"right_children":[2,4,6,8,10,12,14,-1,-1,16,18,20,22,24,26,-1,-1,-1,-1,-1,-1,-1,-1,-1,-1,-1,-1],"split_conditions":[6.472508E1,8.723372E-1,3.0075203E1,-1.1725113E0,5.371094E-1,7.468262E-1,2.5900288E0,2.1904567E-2,1.2917596E-1,2.534668E0,1.1652832E0,2.0314941E0,7.483554E1,-6.1657715E-1,-1.1901855E0,-1.1800792E-1,5.120445E-2,7.194274E-2,-6.405901E-2,-1.2663934E-1,3.6313932E-2,-3.4869254E-2,1.07218586E-1,9.821164E-2,-1.1243148E-1,-1.8939631E-2,1.465668E-1],"split_indices":[3,6,9,8,4,1,6,0,0,11,4,11,7,4,2,0,0,0,0,0,0,0,0,0,0,0,0],"split_type":[0,0,0,0,0,0,0,0,0,0,0,0,0,0,0,0,0,0,0,0,0,0,0,0,0,0,0],"sum_hessian":[5.5706238E1,3.1165354E1,2.4540884E1,3.769126E0,2.7396229E1,7.543603E0,1.6997282E1,1.1155103E0,2.6536155E0,1.6860338E1,1.053589E1,4.907856E0,2.6357467E0,5.774054E0,1.12232275E1,1.4675649E1,2.1846898E0,5.8979006E0,4.637989E0,3.898968E0,1.008888E0,1.0732359E0,1.5625107E0,3.1984255E0,2.5756283E0,2.0783882E0,9.144839E0],"tree_param":{"num_deleted":"0","num_feature":"14","num_nodes":"27","size_leaf_vector":"0"}},{"base_weights":[9.729036E-3,7.2843313E-1,-6.83227E-2,1.6049968E-1,8.3053523E-1,1.0081115E-1,-5.5513227E-1,9.7878116E-1,2.2409256E-1,-4.8619766E-2,6.2051183E-1,-7.899261E-1,7.445359E-1,6.21075E-1,-1.993158E-1,7.782449E-1,-2.6206043E-1,-1.0334389E0,4.210316E-1],"categories":[],"categories_nodes":[],"categories_segments":[],"categories_sizes":[],"default_left":[true,true,true,false,true,true,true,false,false,true,true,true,false,false,false,false,false,false,false],"id":8,"left_children":[1,3,5,-1,7,9,11,-1,-1,13,15,17,-1,-1,-1,-1,-1,-1,-1],"loss_changes":[3.1693673E0,1.8757606E-1,4.261529E0,0E0,1.8080258E-1,3.0397806E0,4.654027E0,0E0,0E0,3.255023E0,1.4188721E0,3.9060473E0,0E0,0E0,0E0,0E0,0E0,0E0,0E0],"parents":[2147483647,0,0,1,1,2,2,4,4,5,5,6,6,9,9,10,10,11,11],"right_children":[2,4,6,-1,8,10,12,-1,-1,14,16,18,-1,-1,-1,-1,-1,-1,-1],"split_conditions":[-1.8282471E0,-1.3138428E0,2.7899523E0,2.4074953E-2,7.803345E-1,1.2275234E2,2.949463E0,1.4681718E-1,3.3613887E-2,1.0068141E0,1.1533203E0,1.6063232E0,1.11680396E-1,9.316125E-2,-2.9897371E-2,1.1673674E-1,-3.9309066E-2,-1.5501584E-1,6.315474E-2],"split_indices":[10,11,13,0,11,7,2,0,0,12,1,10,0,0,0,0,0,0,0],"split_type":[0,0,0,0,0,0,0,0,0,0,0,0,0,0,0,0,0,0,0],"sum_hessian":[5.4611675E1,4.5335784E0,5.00781E1,1.0827628E0,3.4508157E0,3.7754013E1,1.2324086E1,2.2795937E0,1.171222E0,3.002678E1,7.727233E0,1.0770528E1,1.5535588E0,4.9422026E0,2.5084578E1,6.6559005E0,1.0713322E0,9.089336E0,1.6811906E0],"tree_param":{"num_deleted":"0","num_feature":"14","num_nodes":"19","size_leaf_vector":"0"}},{"base_weights":[1.4862534E-2,-2.2073586E-1,2.365485E-1,1.6507964E-1,-5.0899327E-1,3.613222E-1,-4.2545867E-1,3.268561E-1,-5.717061E-1,5.704711E-1,-7.3497134E-1,1.8837178E-2,6.4508116E-1,-8.6672884E-1,5.7242596E-1,5.9155375E-1,-3.4033036E-1,1.2950571E-1,7.1422464E-1,5.8988845E-1,-9.0981525E-1,-6.1100143E-1,3.315253E-1,8.269643E-1,-6.4539656E-2,-2.2267474E-1,-1.0231805E0],"categories":[],"categories_nodes":[],"categories_segments":[],"categories_sizes":[],"default_left":[true,true,true,true,true,true,true,true,false,true,true,true,true,true,false,false,false,false,false,false,false,false,false,false,false,false,false],"id":9,"left_children":[1,3,5,7,9,11,13,15,-1,17,19,21,23,25,-1,-1,-1,-1,-1,-1,-1,-1,-1,-1,-1,-1,-1],"loss_changes":[2.9114006E0,3.0930614E0,2.5233188E0,1.6559755E0,4.2566104E0,2.3861842E0,2.7016401E0,2.0984802E0,0E0,1.1581111E-1,3.6510992E0,2.607674E0,1.791439E0,1.6218567E-1,0E0,0E0,0E0,0E0,0E0,0E0,0E0,0E0,0E0,0E0,0E0,0E0,0E0],"parents":[2147483647,0,0,1,1,2,2,3,3,4,4,5,5,6,6,7,7,9,9,10,10,11,11,12,12,13,13],"right_children":[2,4,6,8,10,12,14,16,-1,18,20,22,24,26,-1,-1,-1,-1,-1,-1,-1,-1,-1,-1,-1,-1,-1],"split_conditions":[5.340302E1,2.0550294E0,1.7827148E0,9.647217E-1,2.3481356E1,6.2262375E1,1.4046185E2,3.7952435E1,-8.575592E-2,6.8518684E1,-2.0441895E0,-1.4639893E0,2.6654053E-1,-7.991333E-1,8.5863896E-2,8.873306E-2,-5.1049557E-2,1.9425858E-2,1.071337E-1,8.8483274E-2,-1.364723E-1,-9.165022E-2,4.9728796E-2,1.2404465E-1,-9.680949E-3,-3.3401214E-2,-1.5347707E-1],"split_indices":[0,13,5,1,0,3,0,0,0,7,10,5,10,1,0,0,0,0,0,0,0,0,0,0,0,0,0],"split_type":[0,0,0,0,0,0,0,0,0,0,0,0,0,0,0,0,0,0,0,0,0,0,0,0,0,0,0],"sum_hessian":[5.3743412E1,2.6056238E1,2.7687174E1,1.1325305E1,1.4730934E1,2.3678503E1,4.0086713E0,9.742512E0,1.5827932E0,2.2861028E0,1.2444831E1,1.1212218E1,1.2466285E1,2.8706758E0,1.1379952E0,7.056355E0,2.6861572E0,1.0293741E0,1.2567285E0,1.1741374E0,1.1270694E1,3.4032075E0,7.8090105E0,9.79131E0,2.6749744E0,1.0346563E0,1.8360196E0],"tree_param":{"num_deleted":"0","num_feature":"14","num_nodes":"27","size_leaf_vector":"0"}}]},"name":"gbtree"},"learner_model_param":{"base_score":"5E-1","num_class":"0","num_feature":"14"},"objective":{"name":"binary:logistic","reg_loss_param":{"scale_pos_weight":"126.573357"}}},"version":[1,5,1]}