{"learner":{"attributes":{"best_iteration":"9","best_ntree_limit":"10","best_score":"0.941689"},"feature_names":["lep1pt","lep1eta","lep1phi","lep2pt","lep2eta","lep2phi","drll","ptll","yVlep","phiVlep","mll","mT","mT2","PuppiMET_T1Smear_pt","PuppiMET_T1Smear_phi","photonet","photoneta","photonphi","drl1a","drl2a","ml1g","ml2g","mllg"],"feature_types":["float","float","float","float","float","float","float","float","float","float","float","float","float","float","float","float","float","float","float","float","float","float","float"],"gradient_booster":{"model":{"gbtree_model_param":{"num_trees":"10","size_leaf_vector":"0"},"tree_info":[0,0,0,0,0,0,0,0,0,0],"trees":[{"base_weights":[-5.207766E-1,1.6298464E-1,-6.8474525E-1,2.8172532E-1,-1.9330809E0,-9.8516655E-1,-3.508632E-1,-6.7142E-1,4.853557E-1,8.111743E-1,-2.40868E0,4.4659832E-1,-1.1232718E0,-9.524707E-2,-8.782501E-1,4.4079852E-1,-1.3115903E0,5.5130905E-1,-1.7804886E0,-5.214951E-1,1.0450665E0,-7.0475674E-1,-1.4880699E0,-6.371693E-1,3.204567E-1,-6.2678766E-1,-1.7967539E0,1.0203806E0,-9.221627E-1,7.159426E-1,-1.5335398E0,-8.899273E-1,6.686723E-1,3.62286E-1,-2.2194366E0,-2.1840394E0,-1.0103748E-2,-1.4309288E0,1.1614044E0,-2.7392912E-1,-1.2031062E0,-1.761456E0,-6.723818E-1,3.5148114E-2,-1.15029E0,4.1154307E-1,-1.2172318E0,-1.7495639E0,-3.3723134E-1,1.0357974E0,-2.0766063E0,-5.624118E-1,1.2548398E0,4.2300993E-1,-1.3024845E0,-1.900659E-1,1.0784457E0,-1.7470478E0,8.111743E-1,5.076424E-3,-1.9216104E0,-1.9453989E-1,7.853615E-1,1.3410636E0,-5.7336426E-1,1.4266927E0,-1.6107316E-1,-7.0271325E-1,4.849773E-1,2.1548228E-1,-1.4822686E0,1.9124106E-2,-1.89567E0,-1.7683958E0,2.8349636E-2,-7.1644187E-1,9.032175E-1,-4.476147E-1,-1.8496518E0,4.619203E-1,-1.9324521E0,7.4701387E-1,-2.2169583E0,8.7037206E-1,-1.8744425E0,-6.075243E-1,6.6158843E-1,-2.1759517E0,4.780825E-1],"categories":[],"categories_nodes":[],"categories_segments":[],"categories_sizes":[],"default_left":[true,true,true,true,true,true,true,true,true,false,false,true,true,true,true,true,true,true,true,true,true,true,true,true,true,true,true,true,true,true,true,true,true,false,false,false,true,false,true,true,true,true,true,true,true,true,true,true,true,false,true,false,false,false,false,false,false,false,false,false,false,false,false,false,false,false,false,false,false,false,false,false,false,false,false,false,false,false,false,false,false,false,false,false,false,false,false,false,false],"id":0,"left_children":[1,3,5,7,9,11,13,15,17,-1,-1,19,21,23,25,27,29,31,33,35,37,39,41,43,45,47,49,51,53,55,57,59,61,-1,-1,-1,63,-1,65,67,69,71,73,75,77,79,81,83,85,-1,87,-1,-1,-1,-1,-1,-1,-1,-1,-1,-1,-1,-1,-1,-1,-1,-1,-1,-1,-1,-1,-1,-1,-1,-1,-1,-1,-1,-1,-1,-1,-1,-1,-1,-1,-1,-1,-1,-1],"loss_changes":[1.8339185E2,7.944261E1,1.3193127E2,5.8723343E1,2.430138E1,1.3765057E2,8.4325676E1,3.858818E1,3.8116722E1,0E0,0E0,3.6311646E1,9.557361E1,9.546476E1,4.6057648E1,1.693771E1,1.6458473E1,4.1567863E1,7.6372433E0,2.0596306E1,1.2746841E1,6.335855E1,7.401813E1,6.348073E1,3.4110344E1,5.2049515E1,3.6531586E1,6.1546583E0,3.9107528E0,1.5349915E0,1.6978378E1,1.7248024E1,2.2772293E1,0E0,0E0,0E0,1.564825E1,0E0,1.3318672E1,5.253276E1,5.4670425E1,6.025006E1,6.630808E1,5.3213665E1,5.0440125E1,2.7731724E1,2.850396E1,1.2414093E1,3.548708E1,0E0,1.1142624E1,0E0,0E0,0E0,0E0,0E0,0E0,0E0,0E0,0E0,0E0,0E0,0E0,0E0,0E0,0E0,0E0,0E0,0E0,0E0,0E0,0E0,0E0,0E0,0E0,0E0,0E0,0E0,0E0,0E0,0E0,0E0,0E0,0E0,0E0,0E0,0E0,0E0,0E0],"parents":[2147483647,0,0,1,1,2,2,3,3,4,4,5,5,6,6,7,7,8,8,11,11,12,12,13,13,14,14,15,15,16,16,17,17,18,18,19,19,20,20,21,21,22,22,23,23,24,24,25,25,26,26,27,27,28,28,29,29,30,30,31,31,32,32,36,36,38,38,39,39,40,40,41,41,42,42,43,43,44,44,45,45,46,46,47,47,48,48,50,50],"right_children":[2,4,6,8,10,12,14,16,18,-1,-1,20,22,24,26,28,30,32,34,36,38,40,42,44,46,48,50,52,54,56,58,60,62,-1,-1,-1,64,-1,66,68,70,72,74,76,78,80,82,84,86,-1,88,-1,-1,-1,-1,-1,-1,-1,-1,-1,-1,-1,-1,-1,-1,-1,-1,-1,-1,-1,-1,-1,-1,-1,-1,-1,-1,-1,-1,-1,-1,-1,-1,-1,-1,-1,-1,-1,-1],"split_conditions":[3.855021E1,9.279027E1,6.1864414E1,7.6189316E1,2.8981276E1,-2.856729E0,3.0975342E-1,3.0081877E1,1.2629356E2,2.433523E-1,-7.2260404E-1,1.2715305E2,-2.9418945E-1,6.937839E1,1.0973093E2,5.733032E-1,2.0582016E1,2.8590065E1,2.7931988E1,-5.654297E-1,6.2363495E1,2.2411833E0,1.6922889E0,1.1163107E2,1.0250244E0,1.9466791E2,3.814096E1,2.3265179E1,5.9085648E1,2.5172133E0,1.255484E2,-1.0394409E0,-1.6801758E0,1.0868581E-1,-6.65831E-1,-6.552118E-1,-1.2476807E0,-4.2927867E-1,4.8504517E1,-6.067505E-1,-2.1445312E0,3.2692795E1,7.385033E1,-1.8548584E-1,2.878014E1,3.336263E0,1.4697131E2,2.691146E1,2.5593982E0,3.1073922E-1,3.1703876E2,-1.6872354E-1,3.7645194E-1,1.2690298E-1,-3.9074537E-1,-5.7019774E-2,3.235337E-1,-5.241144E-1,2.433523E-1,1.5229273E-3,-5.7648313E-1,-5.836197E-2,2.3560847E-1,4.023191E-1,-1.7200929E-1,4.2800784E-1,-4.832195E-2,-2.1081398E-1,1.454932E-1,6.464469E-2,-4.446806E-1,5.737232E-3,-5.68701E-1,-5.305188E-1,8.504891E-3,-2.1493258E-1,2.7096525E-1,-1.3428442E-1,-5.548956E-1,1.3857609E-1,-5.7973564E-1,2.2410417E-1,-6.650875E-1,2.6111162E-1,-5.6233275E-1,-1.822573E-1,1.9847654E-1,-6.5278554E-1,1.4342476E-1],"split_indices":[21,7,0,11,3,14,16,3,13,0,0,11,1,3,12,17,15,3,3,4,7,18,8,10,4,22,10,15,11,9,3,8,2,0,0,0,16,0,0,1,1,20,12,16,15,18,10,20,14,0,12,0,0,0,0,0,0,0,0,0,0,0,0,0,0,0,0,0,0,0,0,0,0,0,0,0,0,0,0,0,0,0,0,0,0,0,0,0,0],"split_type":[0,0,0,0,0,0,0,0,0,0,0,0,0,0,0,0,0,0,0,0,0,0,0,0,0,0,0,0,0,0,0,0,0,0,0,0,0,0,0,0,0,0,0,0,0,0,0,0,0,0,0,0,0,0,0,0,0,0,0,0,0,0,0,0,0,0,0,0,0,0,0,0,0,0,0,0,0,0,0,0,0,0,0,0,0,0,0,0,0],"sum_hessian":[1.6337457E3,3.160017E2,1.3177441E3,2.9987933E2,1.6122368E1,6.9260205E2,6.25142E2,5.2384182E1,2.4749515E2,2.277186E0,1.3845181E1,6.0733368E1,6.318687E2,4.2185577E2,2.0328625E2,1.9250391E1,3.3133793E1,2.412302E2,6.2649517E0,2.3250896E1,3.748247E1,2.9563403E2,3.3623465E2,1.828956E2,2.3896017E2,1.6091446E2,4.2371788E1,1.3683153E1,5.567238E0,3.049606E0,3.0084185E1,1.7669064E1,2.2356113E2,1.0948699E0,5.1700816E0,4.700074E0,1.8550821E1,1.1750185E0,3.6307453E1,1.5938979E2,1.3624426E2,2.5096257E2,8.527209E1,7.957015E1,1.0332544E2,2.2628816E2,1.2672018E1,3.1956917E1,1.2895755E2,3.5669851E0,3.8804802E1,1.5849144E0,1.2098238E1,1.2023532E0,4.364885E0,1.0074238E0,2.0421822E0,2.7807E1,2.277186E0,9.994089E0,7.674974E0,2.6542803E1,1.9701833E2,5.051714E0,1.3499107E1,3.0175467E1,6.131989E0,1.01893654E2,5.749613E1,2.2440256E1,1.1380401E2,1.765088E1,2.3331168E2,3.266193E1,5.2610157E1,4.2739876E1,3.6830276E1,5.2358704E1,5.096674E1,2.2231314E2,3.975026E0,4.3594427E0,8.312576E0,1.1823161E0,3.0774601E1,1.0180076E2,2.7156782E1,3.7494965E1,1.3098365E0],"tree_param":{"num_deleted":"0","num_feature":"23","num_nodes":"89","size_leaf_vector":"0"}},{"base_weights":[-3.5362932E-1,2.0340325E-1,-4.5255303E-1,6.4458275E-1,-2.4132612E-1,-6.270418E-1,-1.5047997E-1,-1.5036286E0,7.365752E-1,-6.3838816E-1,5.883785E-1,-7.209953E-1,3.9999837E-1,7.8439586E-2,-6.439097E-1,-5.470182E-1,-1.8682086E0,8.3792424E-1,-9.1048026E-1,-1.2655206E0,-1.1233049E-1,-8.595863E-1,9.347221E-1,8.84741E-3,-8.2088506E-1,-1.1188688E0,8.75511E-1,1.8962367E-1,-1.3999316E0,-1.1684964E0,-1.7996706E-1,-4.696513E-1,9.61899E-1,1.0157921E0,-1.9057593E0,4.8783907E-1,-1.4487044E0,4.9227974E-1,-8.469981E-1,8.7488884E-1,-1.3792228E0,1.1059663E0,-1.4741783E0,-1.762282E0,3.44226E-1,-6.4969957E-1,-1.2972238E0,-1.9979807E0,9.650211E-3,1.011943E0,-1.5779728E0,-2.769648E-1,5.0384754E-1,-2.000618E0,3.3080763E-1,8.903833E-1,-1.496341E0,7.948534E-1,-5.4285836E-1,-1.3240211E0,1.133765E0,-7.830754E-2,1.0712672E0,1.2264036E0,-7.2567445E-1,-1.7993574E0,-7.714679E-2,9.004666E-1,-1.6841458E0,-2.121119E0,-2.4293815E-1,-1.5567873E0,-4.2737263E-1,1.2232801E0,-9.9474037E-1,9.238725E-1,-2.0285444E0,-1.7392117E0,4.545184E-1,2.5959408E-1,-7.794281E-1,-1.6905084E0,-3.5300487E-1,9.695953E-1,-1.6691823E0,-1.4832544E0,1.1172413E0,2.1198156E-1,-1.216392E0,5.5939853E-1,-1.4515547E0,-2.09801E0,-3.119916E-1,-1.2910842E0,9.677859E-1,1.2908858E0,-1.336657E0,-6.613678E-1,-1.8459046E0,-1.3081746E0,1.0160383E0,-1.6563294E0,-1.9530271E-1],"categories":[],"categories_nodes":[],"categories_segments":[],"categories_sizes":[],"default_left":[true,true,true,true,true,true,true,true,true,true,true,true,true,true,true,false,false,true,true,true,true,true,true,true,true,true,true,true,true,true,true,true,true,false,false,true,true,true,true,false,true,true,false,true,true,true,true,false,true,true,false,true,true,true,true,true,true,true,true,false,false,false,false,false,false,false,false,false,false,false,false,false,false,false,false,false,false,false,false,false,false,false,false,false,false,false,false,false,false,false,false,false,false,false,false,false,false,false,false,false,false,false,false],"id":1,"left_children":[1,3,5,7,9,11,13,15,17,19,21,23,25,27,29,-1,-1,31,33,35,37,39,41,43,45,47,49,51,53,55,57,59,61,-1,-1,63,65,67,69,-1,71,73,-1,75,77,79,81,-1,83,85,-1,87,89,91,93,95,97,99,101,-1,-1,-1,-1,-1,-1,-1,-1,-1,-1,-1,-1,-1,-1,-1,-1,-1,-1,-1,-1,-1,-1,-1,-1,-1,-1,-1,-1,-1,-1,-1,-1,-1,-1,-1,-1,-1,-1,-1,-1,-1,-1,-1,-1],"loss_changes":[9.0809525E1,4.900413E1,7.360974E1,2.5860207E1,4.146125E1,8.578534E1,5.8031162E1,8.865757E-1,2.0924782E1,2.7842812E1,2.1307207E1,5.921454E1,5.5078297E1,5.804603E1,3.940674E1,0E0,0E0,1.8980759E1,1.6277464E1,1.3104065E1,2.1395123E1,8.789066E0,1.54381695E1,5.926987E1,5.740854E1,1.81727E1,2.0879463E1,4.8201904E1,2.634827E1,5.2776703E1,3.1407953E1,1.5981961E1,1.199865E1,0E0,0E0,4.8328247E0,1.6789932E1,2.5094059E1,1.6177143E1,0E0,4.943695E-1,9.059208E0,0E0,1.3236874E1,2.0063417E1,6.2428772E1,6.916217E1,0E0,1.6135044E1,1.615533E1,0E0,6.115092E1,2.2129326E1,2.3851929E0,8.712554E0,1.1622325E1,1.8077682E1,1.2567491E1,2.4600721E1,0E0,0E0,0E0,0E0,0E0,0E0,0E0,0E0,0E0,0E0,0E0,0E0,0E0,0E0,0E0,0E0,0E0,0E0,0E0,0E0,0E0,0E0,0E0,0E0,0E0,0E0,0E0,0E0,0E0,0E0,0E0,0E0,0E0,0E0,0E0,0E0,0E0,0E0,0E0,0E0,0E0,0E0,0E0,0E0],"parents":[2147483647,0,0,1,1,2,2,3,3,4,4,5,5,6,6,7,7,8,8,9,9,10,10,11,11,12,12,13,13,14,14,17,17,18,18,19,19,20,20,21,21,22,22,23,23,24,24,25,25,26,26,27,27,28,28,29,29,30,30,31,31,32,32,35,35,36,36,37,37,38,38,40,40,41,41,43,43,44,44,45,45,46,46,48,48,49,49,51,51,52,52,53,53,54,54,55,55,56,56,57,57,58,58],"right_children":[2,4,6,8,10,12,14,16,18,20,22,24,26,28,30,-1,-1,32,34,36,38,40,42,44,46,48,50,52,54,56,58,60,62,-1,-1,64,66,68,70,-1,72,74,-1,76,78,80,82,-1,84,86,-1,88,90,92,94,96,98,100,102,-1,-1,-1,-1,-1,-1,-1,-1,-1,-1,-1,-1,-1,-1,-1,-1,-1,-1,-1,-1,-1,-1,-1,-1,-1,-1,-1,-1,-1,-1,-1,-1,-1,-1,-1,-1,-1,-1,-1,-1,-1,-1,-1,-1],"split_conditions":[3.3321854E1,7.7161125E1,2.7554338E0,2.2599365E1,3.2364686E0,2.0587146E2,3.0599976E-1,-5.8002472E-2,7.3696495E1,3.7487835E-1,3.9133614E1,1.1074032E0,7.9096985E-1,2.1577148E0,7.690298E1,-1.6410546E-1,-5.604626E-1,2.0714773E1,-1.5288086E0,-2.7351074E0,2.6856108E0,3.6914383E1,9.5616984E-1,1.9169255E0,1.1107178E0,1.3432846E2,2.2631836E0,7.78584E1,3.7874122E0,-2.961282E0,1.6094298E2,4.1302082E1,3.851138E1,3.0473766E-1,-5.717278E-1,6.515349E1,2.323444E0,1.1485281E0,1.0687419E2,2.6246667E-1,2.9226818E0,1.0580057E2,-4.422535E-1,-1.8984375E0,4.0659653E1,8.8179344E-1,1.3985431E0,-5.9939426E-1,1.6048996E2,2.223028E0,-4.7339186E-1,7.3713554E1,3.336263E0,2.6273932E0,5.253264E1,-3.1988525E-1,-7.2052E-1,2.7050678E1,7.772827E-1,-3.9720634E-1,3.401295E-1,-2.3492264E-2,3.213802E-1,3.6792108E-1,-2.1770234E-1,-5.3980726E-1,-2.3144038E-2,2.7014E-1,-5.052438E-1,-6.3633573E-1,-7.2881445E-2,-4.670362E-1,-1.282118E-1,3.6698404E-1,-2.9842213E-1,2.7716175E-1,-6.0856336E-1,-5.217635E-1,1.3635553E-1,7.787823E-2,-2.3382844E-1,-5.0715256E-1,-1.05901465E-1,2.908786E-1,-5.007547E-1,-4.4497636E-1,3.3517238E-1,6.3594475E-2,-3.6491764E-1,1.6781956E-1,-4.354664E-1,-6.2940305E-1,-9.359749E-2,-3.8732526E-1,2.9033577E-1,3.8726577E-1,-4.0099713E-1,-1.9841035E-1,-5.537714E-1,-3.924524E-1,3.048115E-1,-4.9689883E-1,-5.8590814E-2],"split_indices":[21,10,6,0,6,21,16,2,7,9,7,18,9,5,0,0,0,15,16,17,6,13,8,19,2,7,5,3,6,14,10,3,13,0,0,12,14,18,20,0,9,7,0,1,7,6,8,0,7,18,0,21,18,14,15,2,1,15,16,0,0,0,0,0,0,0,0,0,0,0,0,0,0,0,0,0,0,0,0,0,0,0,0,0,0,0,0,0,0,0,0,0,0,0,0,0,0,0,0,0,0,0,0],"split_type":[0,0,0,0,0,0,0,0,0,0,0,0,0,0,0,0,0,0,0,0,0,0,0,0,0,0,0,0,0,0,0,0,0,0,0,0,0,0,0,0,0,0,0,0,0,0,0,0,0,0,0,0,0,0,0,0,0,0,0,0,0,0,0,0,0,0,0,0,0,0,0,0,0,0,0,0,0,0,0,0,0,0,0,0,0,0,0,0,0,0,0,0,0,0,0,0,0,0,0,0,0,0,0],"sum_hessian":[1.645304E3,2.479664E2,1.3973375E3,1.2425441E2,1.2371198E2,8.8503326E2,5.123043E2,4.4722843E0,1.1978213E2,8.382664E1,3.988535E1,8.111292E2,7.3904015E1,3.5052457E2,1.6177975E2,1.9241009E0,2.5481832E0,1.13301544E2,6.48058E0,3.759847E1,4.622817E1,7.412769E0,3.247258E1,9.775986E1,7.133694E2,1.7298077E1,5.660594E1,3.268173E2,2.3707266E1,7.521474E1,8.656502E1,9.570642E0,1.037309E2,2.2007048E0,4.279875E0,3.3992403E0,3.419923E1,2.5539679E1,2.068849E1,1.5512509E0,5.861518E0,3.082236E1,1.6502202E0,1.4887035E1,8.2872826E1,5.2651544E2,1.8685391E2,9.290426E0,8.00765E0,5.418064E1,2.425298E0,1.3156944E2,1.9524785E2,1.7483387E1,6.22388E0,1.0095933E1,6.5118805E1,2.3160242E1,6.3404774E1,6.3573956E0,3.2132463E0,9.895766E0,9.383514E1,2.1065419E0,1.2926986E0,2.6987646E1,7.2115817E0,2.1999882E1,3.539797E0,5.8460975E0,1.4842392E1,4.4043612E0,1.4571567E0,2.9587717E1,1.2346418E0,1.1198447E0,1.376719E1,3.4239964E0,7.944883E1,6.561382E1,4.6090164E2,1.3135272E2,5.5501198E1,5.3633704E0,2.6442804E0,1.663982E0,5.251666E1,8.7041214E1,4.4528236E1,1.9054848E2,4.699368E0,1.6300797E1,1.1825898E0,1.4654982E0,4.7583814E0,8.913348E0,1.1825848E0,2.0070375E1,4.504843E1,1.7363759E0,2.1423866E1,1.4187223E1,4.9217552E1],"tree_param":{"num_deleted":"0","num_feature":"23","num_nodes":"103","size_leaf_vector":"0"}},{"base_weights":[-2.549366E-1,5.6914306E-1,-2.9365283E-1,7.4887824E-1,-1.3694737E0,1.05258375E-1,-3.508051E-1,-1.4556296E0,8.466299E-1,5.644824E-1,-1.893314E0,4.997066E-1,-2.9444912E-1,-4.0775648E-1,1.5233335E-1,9.042199E-1,-1.2718848E0,-1.2729439E0,6.0238546E-1,-8.235803E-1,1.0713027E-1,-4.7646645E-1,7.5269386E-2,7.010374E-1,-2.0268318E-1,4.831223E-3,1.0464427E0,-1.72709E0,3.3139148E-1,-6.211747E-1,7.334366E-1,-1.7317607E0,-3.8418582E-1,8.574202E-1,-2.0819631E-1,8.9667344E-1,-5.033431E-1,-3.588713E-1,5.140001E-1,8.388209E-1,-1.5197711E0,-9.2339087E-1,3.6108038E-1,-1.4553907E0,8.4479284E-1,-1.3213724E0,1.1216149E0,6.5404963E-1,-1.0382632E0,8.214457E-1,-8.306439E-1,-7.817456E-1,7.110404E-1,-7.750749E-1,1.0528748E0,-6.7289406E-1,6.607668E-1,1.2684181E0,-1.3488022E0,1.6647841E-1,-5.62165E-1,7.389676E-1,-6.6464245E-1,-4.7704166E-1,7.9636145E-1,9.6050274E-1,-1.475448E0,-1.3391465E0,4.8240623E-1,5.5466485E-1,-1.5537605E0],"categories":[],"categories_nodes":[],"categories_segments":[],"categories_sizes":[],"default_left":[true,true,true,true,true,true,true,false,true,false,false,true,true,true,true,true,false,true,true,true,true,true,true,true,true,true,true,false,false,true,true,false,true,true,true,true,true,true,true,true,false,true,true,false,false,false,false,false,false,false,false,false,false,false,false,false,false,false,false,false,false,false,false,false,false,false,false,false,false,false,false],"id":2,"left_children":[1,3,5,7,9,11,13,-1,15,-1,-1,17,19,21,23,25,-1,27,29,31,33,35,37,39,41,43,45,-1,-1,47,49,-1,51,53,55,57,59,61,63,65,-1,67,69,-1,-1,-1,-1,-1,-1,-1,-1,-1,-1,-1,-1,-1,-1,-1,-1,-1,-1,-1,-1,-1,-1,-1,-1,-1,-1,-1,-1],"loss_changes":[5.1438988E1,2.6270363E1,3.50455E1,1.5659855E1,7.654582E0,3.0607697E1,3.855516E1,0E0,9.048714E0,0E0,0E0,1.8533188E1,2.0612284E1,4.009561E1,2.6892612E1,8.131702E0,0E0,4.7003202E0,1.5359154E1,1.6011368E1,1.3379589E1,3.9454865E1,2.8979856E1,1.7850441E1,3.452566E1,1.3114836E1,1.1257706E1,0E0,0E0,5.7496634E0,1.2301819E1,0E0,1.33787365E1,6.146778E0,1.6633793E1,1.8946877E1,4.0959503E1,2.6196884E1,2.153622E1,1.5962116E1,0E0,2.239794E1,1.8631168E1,0E0,0E0,0E0,0E0,0E0,0E0,0E0,0E0,0E0,0E0,0E0,0E0,0E0,0E0,0E0,0E0,0E0,0E0,0E0,0E0,0E0,0E0,0E0,0E0,0E0,0E0,0E0,0E0],"parents":[2147483647,0,0,1,1,2,2,3,3,4,4,5,5,6,6,8,8,11,11,12,12,13,13,14,14,15,15,17,17,18,18,19,19,20,20,21,21,22,22,23,23,24,24,25,25,26,26,29,29,30,30,32,32,33,33,34,34,35,35,36,36,37,37,38,38,39,39,41,41,42,42],"right_children":[2,4,6,8,10,12,14,-1,16,-1,-1,18,20,22,24,26,-1,28,30,32,34,36,38,40,42,44,46,-1,-1,48,50,-1,52,54,56,58,60,62,64,66,-1,68,70,-1,-1,-1,-1,-1,-1,-1,-1,-1,-1,-1,-1,-1,-1,-1,-1,-1,-1,-1,-1,-1,-1,-1,-1,-1,-1,-1,-1],"split_conditions":[6.144506E-1,8.187256E-1,3.3321854E1,-2.3461914E0,2.5182762E1,7.7161125E1,2.982478E2,-4.366889E-1,9.390288E1,1.6934472E-1,-5.6799424E-1,-1.2213135E0,5.2359104E-1,2.4729004E0,8.768341E1,-1.5186962E0,-3.8156545E-1,5.702597E1,2.0714773E1,2.9078454E-1,-2.2434134E0,-3.1035156E0,6.671154E1,3.6261528E0,5.944214E-1,1.3807473E0,-1.9637451E0,-5.18127E-1,9.941745E-2,4.3122116E1,7.319563E1,-5.1952827E-1,1.4923096E0,2.3686901E1,3.3888922E0,2.315428E0,8.717729E-1,2.5646973E0,3.480708E1,2.5634766E0,-4.5593134E-1,2.869873E0,3.8104563E0,-4.3661723E-1,2.5343788E-1,-3.9641175E-1,3.364845E-1,1.962149E-1,-3.1147897E-1,2.4643372E-1,-2.4919318E-1,-2.345237E-1,2.1331212E-1,-2.3252247E-1,3.1586245E-1,-2.0186822E-1,1.9823004E-1,3.8052544E-1,-4.0464067E-1,4.9943525E-2,-1.6864951E-1,2.2169028E-1,-1.9939275E-1,-1.4311251E-1,2.3890844E-1,2.8815085E-1,-4.4263443E-1,-4.0174398E-1,1.4472188E-1,1.6639946E-1,-4.6612817E-1],"split_indices":[18,1,21,2,13,10,10,0,15,0,0,4,9,2,21,14,0,0,15,14,14,2,0,18,5,9,4,0,0,12,7,0,5,0,6,6,6,2,15,17,0,17,6,0,0,0,0,0,0,0,0,0,0,0,0,0,0,0,0,0,0,0,0,0,0,0,0,0,0,0,0],"split_type":[0,0,0,0,0,0,0,0,0,0,0,0,0,0,0,0,0,0,0,0,0,0,0,0,0,0,0,0,0,0,0,0,0,0,0,0,0,0,0,0,0,0,0,0,0,0,0,0,0,0,0,0,0,0,0,0,0,0,0,0,0,0,0,0,0,0,0,0,0,0,0],"sum_hessian":[1.6060044E3,7.14514E1,1.534553E3,6.5950615E1,5.5007825E0,1.9219931E2,1.3423538E3,2.2103956E0,6.3740223E1,1.1558686E0,4.344914E0,9.661015E1,9.558916E1,1.20603E3,1.3632372E2,6.2611366E1,1.1288544E0,4.665609E0,9.194455E1,4.079102E1,5.4798134E1,1.05585E3,1.5018005E2,5.317037E1,8.315336E1,8.690207E0,5.392116E1,3.5766401E0,1.088969E0,8.533307E0,8.341124E1,1.2341415E1,2.8449606E1,1.5706603E1,3.9091534E1,1.9648298E1,1.0362017E3,7.5576385E1,7.4603676E1,5.0650215E1,2.5201519E0,3.6216618E1,4.6936737E1,2.9058597E0,5.7843466E0,1.1490742E0,5.2772087E1,1.9631021E0,6.570205E0,7.941732E1,3.9939203E0,2.1082884E1,7.366721E0,1.3623505E0,1.4344253E1,2.5617584E1,1.3473949E1,1.7230812E1,2.4174852E0,8.350266E1,9.52699E2,1.61554E1,5.9420982E1,1.6389559E1,5.821412E1,4.8675854E1,1.974362E0,2.7987038E1,8.22958E0,4.327237E1,3.6643682E0],"tree_param":{"num_deleted":"0","num_feature":"23","num_nodes":"71","size_leaf_vector":"0"}},{"base_weights":[-1.8224052E-1,-1.2058877E-1,-5.222845E-1,-1.4803761E-1,7.849878E-1,-1.1615992E0,-2.0436925E-1,-8.3661385E-2,-6.060534E-1,1.0477906E0,-1.4682435E0,4.90953E-1,-1.4015775E0,-6.746393E-1,1.4947063E-1,-5.5024523E-2,-9.955149E-1,-8.9486384E-1,3.4698924E-1,1.3986205E0,-1.9061671E-1,1.4409163E0,-1.309911E0,1.544894E0,-1.5010566E0,-9.9838924E-1,4.4835633E-1,6.8521774E-1,-4.0529436E-1,1.5338137E0,-6.8916105E-2,-1.1949501E0,1.4271275E0,-1.5587009E0,-4.4298217E-1,7.381287E-1,-7.082846E-1,-9.9325764E-1,1.541585E0,1.1940138E0,-9.051071E-1,1.7725189E0,4.1879448E-1,-1.6531646E0,2.8399774E-1,-1.6117238E0,-6.3883036E-1,-1.3560328E0,1.1479424E0,-1.2497023E0,9.389098E-1,5.794598E-1,-8.8187605E-1,1.4407007E-1,1.6878006E0,-1.0628125E-1,5.509475E-1,-1.2923946E0,6.596032E-1,-1.7235111E0,-5.0948475E-2,2.331302E-1,-9.966108E-1,-6.907597E-1,9.117701E-1,1.1701488E0,-1.1375918E0,1.6828797E0,5.5902004E-1,1.234259E-1,-1.2952318E0,-1.1340839E-1,7.2379375E-1,-1.72784E0,3.416403E-1,1.2358063E0,-1.3350376E0,-1.11543916E-1,-1.3253323E0,1.2224111E-1,1.3291615E0,-2.8371382E-1,-1.3915541E0,1.2298864E0,-9.909685E-1,-1.0142412E0,1.1444339E0,1.7391255E-1,-1.3547943E0],"categories":[],"categories_nodes":[],"categories_segments":[],"categories_sizes":[],"default_left":[true,true,true,true,true,true,true,true,true,true,false,true,true,true,true,true,true,true,true,true,true,true,false,false,true,true,true,true,true,true,true,true,false,true,true,true,true,false,true,false,true,false,true,true,true,false,true,false,true,true,true,true,true,false,false,false,false,false,false,false,false,false,false,false,false,false,false,false,false,false,false,false,false,false,false,false,false,false,false,false,false,false,false,false,false,false,false,false,false],"id":3,"left_children":[1,3,5,7,9,11,13,15,17,19,-1,21,23,25,27,29,31,33,35,37,39,41,-1,-1,43,45,47,49,51,53,55,57,-1,59,61,63,65,-1,67,-1,69,-1,71,73,75,-1,77,-1,79,81,83,85,87,-1,-1,-1,-1,-1,-1,-1,-1,-1,-1,-1,-1,-1,-1,-1,-1,-1,-1,-1,-1,-1,-1,-1,-1,-1,-1,-1,-1,-1,-1,-1,-1,-1,-1,-1,-1],"loss_changes":[3.2863125E1,3.319667E1,4.8694603E1,3.805964E1,2.481639E1,3.2312927E1,2.7058657E1,2.9567314E1,4.4108505E1,1.5815464E1,0E0,2.0453299E1,2.2805191E1,2.5803064E1,2.799754E1,2.440451E1,1.8365955E1,3.6025055E1,1.6094788E1,1.1108524E1,9.767213E0,1.8271227E0,0E0,0E0,1.8964615E1,1.0976864E1,2.212804E1,2.464583E1,2.230975E1,1.808075E0,2.5358318E1,6.708416E0,0E0,1.2131752E1,2.8014145E1,7.580536E0,9.969851E0,0E0,2.782673E0,0E0,2.712089E0,0E0,5.960492E-1,9.9622345E0,1.120719E1,0E0,1.287605E1,0E0,2.1210003E0,4.2349148E-1,2.5278893E1,1.5343296E1,1.6061728E1,0E0,0E0,0E0,0E0,0E0,0E0,0E0,0E0,0E0,0E0,0E0,0E0,0E0,0E0,0E0,0E0,0E0,0E0,0E0,0E0,0E0,0E0,0E0,0E0,0E0,0E0,0E0,0E0,0E0,0E0,0E0,0E0,0E0,0E0,0E0,0E0],"parents":[2147483647,0,0,1,1,2,2,3,3,4,4,5,5,6,6,7,7,8,8,9,9,11,11,12,12,13,13,14,14,15,15,16,16,17,17,18,18,19,19,20,20,21,21,24,24,25,25,26,26,27,27,28,28,29,29,30,30,31,31,33,33,34,34,35,35,36,36,38,38,40,40,42,42,43,43,44,44,46,46,48,48,49,49,50,50,51,51,52,52],"right_children":[2,4,6,8,10,12,14,16,18,20,-1,22,24,26,28,30,32,34,36,38,40,42,-1,-1,44,46,48,50,52,54,56,58,-1,60,62,64,66,-1,68,-1,70,-1,72,74,76,-1,78,-1,80,82,84,86,88,-1,-1,-1,-1,-1,-1,-1,-1,-1,-1,-1,-1,-1,-1,-1,-1,-1,-1,-1,-1,-1,-1,-1,-1,-1,-1,-1,-1,-1,-1,-1,-1,-1,-1,-1,-1],"split_conditions":[3.0348754E0,2.1252441E0,3.2202437E0,1.0529785E0,1.2546387E0,-1.7910156E0,2.5120163E0,2.8320312E0,2.0649338E0,1.0511783E2,-4.4047305E-1,6.529076E1,-3.1248984E0,3.7522058E0,3.4682047E0,-3.1340332E0,2.9379883E0,6.656647E-2,7.720537E1,2.9314693E1,1.1045648E0,-1.0675049E0,-3.9297333E-1,4.6346822E-1,2.5544653E2,4.8645466E1,1.0235596E0,-1.0950928E0,1.2813467E2,1.7341109E2,2.9790878E0,3.664266E0,4.2813826E-1,2.0100098E0,2.815009E1,1.2874756E0,-3.0566406E0,-2.979773E-1,4.642113E1,3.5820416E-1,1.063595E2,5.317557E-1,9.232022E1,3.8243403E0,-1.0402318E0,-4.8351714E-1,2.0760037E2,-4.0680987E-1,2.0941858E2,-1.8063965E0,7.4993896E-1,2.8915455E1,4.709449E1,4.3221023E-2,5.063402E-1,-3.1884376E-2,1.6528425E-1,-3.877184E-1,1.9788097E-1,-5.1705337E-1,-1.5284543E-2,6.993906E-2,-2.9898325E-1,-2.0722793E-1,2.7353105E-1,3.5104465E-1,-3.4127757E-1,5.048639E-1,1.6770601E-1,3.7027773E-2,-3.8856956E-1,-3.4022518E-2,2.1713813E-1,-5.1835203E-1,1.02492094E-1,3.707419E-1,-4.005113E-1,-3.3463176E-2,-3.975997E-1,3.6672335E-2,3.987485E-1,-8.511415E-2,-4.1746625E-1,3.6896592E-1,-2.9729056E-1,-3.0427238E-1,3.4333017E-1,5.2173767E-2,-4.064383E-1],"split_indices":[18,16,18,16,17,1,6,5,9,10,0,21,9,18,18,17,17,17,7,13,18,5,0,0,21,0,5,4,10,10,18,19,0,16,15,16,5,0,15,0,10,0,0,6,8,0,22,0,21,17,4,15,21,0,0,0,0,0,0,0,0,0,0,0,0,0,0,0,0,0,0,0,0,0,0,0,0,0,0,0,0,0,0,0,0,0,0,0,0],"split_type":[0,0,0,0,0,0,0,0,0,0,0,0,0,0,0,0,0,0,0,0,0,0,0,0,0,0,0,0,0,0,0,0,0,0,0,0,0,0,0,0,0,0,0,0,0,0,0,0,0,0,0,0,0,0,0,0,0,0,0,0,0,0,0,0,0,0,0,0,0,0,0,0,0,0,0,0,0,0,0,0,0,0,0,0,0,0,0,0,0],"sum_hessian":[1.5695797E3,1.3298293E3,2.3975035E2,1.2915187E3,3.8310574E1,7.8744514E1,1.6100583E2,1.1333972E3,1.5812155E2,3.4788094E1,3.5224826E0,9.852418E0,6.88921E1,6.8740204E1,9.2265625E1,1.0999146E3,3.34826E1,1.21395E2,3.672655E1,2.7007685E1,7.780408E0,6.580861E0,3.271557E0,1.7754407E0,6.711666E1,5.344378E1,1.5296424E1,4.6817715E1,4.5447906E1,8.585119E0,1.0913295E3,3.1404127E1,2.0784717E0,4.817465E1,7.3220345E1,2.701421E1,9.71234E0,1.187785E0,2.5819899E1,2.419824E0,5.3605843E0,4.4145207E0,2.16634E0,6.1914665E1,5.2019906E0,1.8464529E1,3.497925E1,4.011509E0,1.1284915E1,4.9717693E0,4.1845947E1,1.475141E1,3.0696497E1,1.0494398E0,7.53568E0,1.030066E3,6.1263454E1,3.0124413E1,1.2797158E0,4.3298637E1,4.876012E0,3.3224377E1,3.9995968E1,2.6044235E0,2.4409786E1,1.4857544E0,8.226586E0,2.1950619E1,3.8692808E0,1.6621311E0,3.698453E0,1.0180612E0,1.1482788E0,5.9809536E1,2.1051323E0,3.4251149E0,1.7768759E0,2.0441263E1,1.4537987E1,1.9458631E0,9.339051E0,1.020743E0,3.9510264E0,3.667848E1,5.167469E0,3.6526558E0,1.1098754E1,9.691811E0,2.1004686E1],"tree_param":{"num_deleted":"0","num_feature":"23","num_nodes":"89","size_leaf_vector":"0"}},{"base_weights":[-1.3309513E-1,4.8582628E-1,-1.6023152E-1,6.251294E-1,-9.882061E-1,-1.4486524E-1,-1.4033356E0,-1.1692821E0,7.1175176E-1,-1.3934658E0,3.804457E-1,2.0214851E-1,-1.9276772E-1,-1.6687756E0,5.632641E-1,-1.0647982E0,7.781308E-1,4.2556286E-1,-5.5242467E-1,-9.8292336E-2,-4.4684774E-1,8.377712E-1,-1.075449E0,5.279874E-1,-1.4717344E0,-1.1891557E0,2.539845E-1,-1.3409129E-1,1.442098E0,-1.0281384E0,-1.5053315E-1,-8.0988944E-1,8.9678127E-1,3.9306205E-2,8.488676E-1,3.032712E-1,-1.3238088E0,7.202819E-1,-1.3746215E0,6.094462E-1,-1.7911695E-1,1.6179847E0,-9.556245E-1,-1.4939E0,-5.727538E-1,2.596803E-3,-1.0841132E0],"categories":[],"categories_nodes":[],"categories_segments":[],"categories_sizes":[],"default_left":[true,true,true,true,true,true,true,false,true,false,false,true,true,false,false,false,true,true,true,true,true,true,false,true,false,true,true,true,true,true,true,false,false,false,false,false,false,false,false,false,false,false,false,false,false,false,false],"id":4,"left_children":[1,3,5,7,9,11,13,-1,15,-1,-1,17,19,-1,-1,-1,21,23,25,27,29,31,-1,33,-1,35,37,39,41,43,45,-1,-1,-1,-1,-1,-1,-1,-1,-1,-1,-1,-1,-1,-1,-1,-1],"loss_changes":[2.5905998E1,1.3932068E1,2.7952488E1,1.0135874E1,3.8504252E0,2.4260036E1,1.0274929E1,0E0,7.6352577E0,0E0,0E0,3.011311E1,3.0702396E1,0E0,0E0,0E0,7.1158943E0,2.7460224E1,2.131422E1,5.1751793E1,5.9596085E1,6.0766487E0,0E0,2.051033E1,0E0,5.0321655E0,1.532742E1,3.07301E1,1.0537609E1,2.3950394E1,3.30179E1,0E0,0E0,0E0,0E0,0E0,0E0,0E0,0E0,0E0,0E0,0E0,0E0,0E0,0E0,0E0,0E0],"parents":[2147483647,0,0,1,1,2,2,3,3,4,4,5,5,6,6,8,8,11,11,12,12,16,16,17,17,18,18,19,19,20,20,21,21,23,23,25,25,26,26,27,27,28,28,29,29,30,30],"right_children":[2,4,6,8,10,12,14,-1,16,-1,-1,18,20,-1,-1,-1,22,24,26,28,30,32,-1,34,-1,36,38,40,42,44,46,-1,-1,-1,-1,-1,-1,-1,-1,-1,-1,-1,-1,-1,-1,-1,-1],"split_conditions":[6.144506E-1,8.187256E-1,2.9983373E0,-2.3461914E0,1.17286835E2,3.939744E1,2.8141663E2,-3.5078463E-1,2.9512962E1,-4.1803974E-1,1.1413371E-1,3.0511787E0,1.2922363E0,-5.006327E-1,1.6897923E-1,-3.1943947E-1,2.520752E0,1.092816E2,2.1035391E2,1.2593994E0,4.914824E1,-2.5845308E0,-3.226347E-1,5.9985996E1,-4.4152033E-1,-2.1640625E0,1.7630255E0,3.133651E1,2.3953292E0,-2.3065186E-1,1.1300993E2,-2.4296685E-1,2.690344E-1,1.1791862E-2,2.5466028E-1,9.0981364E-2,-3.9714265E-1,2.1608458E-1,-4.1238648E-1,1.8283388E-1,-5.373509E-2,4.853954E-1,-2.8668737E-1,-4.4817E-1,-1.7182614E-1,7.790409E-4,-3.25234E-1],"split_indices":[18,1,9,2,3,7,20,0,13,0,0,6,17,0,0,0,5,12,10,17,0,14,0,12,0,16,8,10,6,5,12,0,0,0,0,0,0,0,0,0,0,0,0,0,0,0,0],"split_type":[0,0,0,0,0,0,0,0,0,0,0,0,0,0,0,0,0,0,0,0,0,0,0,0,0,0,0,0,0,0,0,0,0,0,0,0,0,0,0,0,0,0,0,0,0,0,0],"sum_hessian":[1.5368213E3,6.384117E1,1.4729801E3,5.8854996E1,4.986174E0,1.4560975E3,1.6882597E1,2.1347303E0,5.6720264E1,3.8330672E0,1.1531067E0,1.7623088E2,1.2798666E3,1.5008305E1,1.8742918E0,1.5012077E0,5.521906E1,1.363086E2,3.9922283E1,9.339718E2,3.4589484E2,5.402867E1,1.1903888E0,1.300117E2,6.2968965E0,2.2042868E1,1.7879416E1,9.136513E2,2.032047E1,1.1595403E2,2.299408E2,1.4281348E0,5.2600536E1,5.1976738E1,7.8034966E1,1.7205809E0,2.0322287E1,1.4333285E1,3.5461304E0,5.1452232E1,8.621991E2,1.9234695E1,1.0857749E0,5.619647E1,5.9757565E1,1.983962E2,3.1544607E1],"tree_param":{"num_deleted":"0","num_feature":"23","num_nodes":"47","size_leaf_vector":"0"}},{"base_weights":[-9.702235E-2,3.2060978E-1,-1.2907013E-1,9.7951037E-1,1.02126375E-1,2.6941547E-1,-1.7115776E-1,2.1770735E-1,1.4302168E0,-4.0786585E-1,7.591774E-1,-1.3367697E0,3.7841004E-1,-2.0315474E-1,4.390098E-1,-7.4921393E-1,1.0206677E0,5.785133E-3,1.5216451E0,3.2612592E-1,-1.2598177E0,-6.635535E-1,9.754617E-1,-1.6116172E0,3.1995466E-1,5.25319E-1,-5.1632416E-1,-8.376796E-1,-1.6405807E-1,-5.5308586E-1,8.6085504E-1,-1.4569712E0,5.8213973E-1,2.8899866E-1,1.1098039E0,6.400453E-1,-1.336052E0,-1.5423174E0,-1.3084722E-3,4.7205272E-1,-1.2302698E0,1.1644052E0,-1.802494E-1,1.6753699E-1,9.328541E-1,-9.070402E-1,6.269723E-1,-1.9810799E-1,-1.5493345E0,1.6509593E-1,-2.3207586E-1,-1.0546204E0,9.324195E-1,1.1278628E0,-9.102957E-1,-8.2270995E-2,1.1950624E0,-1.6621088E0,-2.4045233E-1,9.968862E-1,-1.0422225E0,-4.3709508E-1,1.2542185E0,7.420252E-1,-8.402752E-1,5.405539E-1,-1.1323705E0,3.0207595E-1,1.245423E0,-1.5587653E0,-2.6715246E-1,-3.6952198E-1,1.0052519E0,-1.6505681E0,2.1312244E-1,-1.6798463E0,4.618879E-1,1.5011273E-2,1.1696076E0,-1.6362468E0,-2.034997E-1,-1.5294532E0,5.2947325E-1,1.2552868E0,-2.5038955E-1,1.3329235E0,-1.1720926E0,-6.468898E-2,-1.2659885E0],"categories":[],"categories_nodes":[],"categories_segments":[],"categories_sizes":[],"default_left":[true,true,true,true,true,true,true,true,true,true,true,true,true,true,true,true,true,false,false,true,true,true,true,false,false,true,true,true,true,true,true,false,false,false,false,true,false,true,true,false,false,true,true,true,true,true,true,true,true,true,true,true,true,true,true,false,false,false,false,false,false,false,false,false,false,false,false,false,false,false,false,false,false,false,false,false,false,false,false,false,false,false,false,false,false,false,false,false,false],"id":5,"left_children":[1,3,5,7,9,11,13,15,17,19,21,23,25,27,29,31,33,-1,-1,35,37,39,41,-1,-1,43,45,47,49,51,53,-1,-1,-1,-1,55,-1,57,59,-1,-1,61,63,65,67,69,71,73,75,77,79,81,83,85,87,-1,-1,-1,-1,-1,-1,-1,-1,-1,-1,-1,-1,-1,-1,-1,-1,-1,-1,-1,-1,-1,-1,-1,-1,-1,-1,-1,-1,-1,-1,-1,-1,-1,-1],"loss_changes":[2.0282005E1,1.5456753E1,2.3613413E1,8.888128E0,2.787782E1,2.407449E1,2.4915035E1,9.413031E0,2.1601562E0,2.9781994E1,1.1817736E1,4.5116777E0,1.6945198E1,2.9853024E1,2.7124983E1,6.1533985E0,1.0375881E-1,0E0,0E0,1.4435126E1,7.7995377E0,4.046669E0,7.1791744E0,0E0,0E0,1.5803474E1,8.785795E0,3.1517952E1,2.5560797E1,1.559061E1,2.2340412E1,0E0,0E0,0E0,0E0,9.145576E0,0E0,2.3950043E0,6.25864E0,0E0,0E0,4.513092E0,3.8805506E0,2.9465439E1,9.669491E0,5.4713993E0,2.3604646E0,2.3032402E1,9.424599E0,2.9503685E1,3.7593006E1,1.2187878E1,2.4068465E0,2.0244328E1,1.8604083E0,0E0,0E0,0E0,0E0,0E0,0E0,0E0,0E0,0E0,0E0,0E0,0E0,0E0,0E0,0E0,0E0,0E0,0E0,0E0,0E0,0E0,0E0,0E0,0E0,0E0,0E0,0E0,0E0,0E0,0E0,0E0,0E0,0E0,0E0],"parents":[2147483647,0,0,1,1,2,2,3,3,4,4,5,5,6,6,7,7,8,8,9,9,10,10,11,11,12,12,13,13,14,14,15,15,16,16,19,19,20,20,21,21,22,22,25,25,26,26,27,27,28,28,29,29,30,30,35,35,37,37,38,38,41,41,42,42,43,43,44,44,45,45,46,46,47,47,48,48,49,49,50,50,51,51,52,52,53,53,54,54],"right_children":[2,4,6,8,10,12,14,16,18,20,22,24,26,28,30,32,34,-1,-1,36,38,40,42,-1,-1,44,46,48,50,52,54,-1,-1,-1,-1,56,-1,58,60,-1,-1,62,64,66,68,70,72,74,76,78,80,82,84,86,88,-1,-1,-1,-1,-1,-1,-1,-1,-1,-1,-1,-1,-1,-1,-1,-1,-1,-1,-1,-1,-1,-1,-1,-1,-1,-1,-1,-1,-1,-1,-1,-1,-1,-1],"split_conditions":[-2.806315E0,1.2139628E0,-1.6950684E0,5.5291985E1,2.9560041E0,3.0332779E1,2.949463E0,5.6137085E-1,4.453553E1,4.177903E1,5.4334114E1,7.473758E1,9.420387E1,-1.2132568E0,2.4830384E0,1.1881491E2,1.4127725E-1,1.73554E-3,4.5649353E-1,7.2665535E1,3.0803711E0,2.9683702E1,1.0723877E0,-4.834852E-1,9.59864E-2,9.9189353E-1,1.8791504E0,-1.1356354E-1,-7.399292E-1,2.4002244E0,8.278133E1,-4.3709138E-1,1.7464192E-1,8.6699605E-2,3.3294117E-1,9.256084E1,-4.008156E-1,1.6986084E0,1.3695321E0,1.4161582E-1,-3.6908096E-1,6.0549084E1,2.246601E2,2.4585501E2,2.2930435E2,1.5483398E0,8.176152E1,-1.1745605E0,2.9193532E0,-7.616577E-1,-2.0280762E0,3.3231678E0,8.034079E1,1.03883286E2,1.12920074E2,-2.46813E-2,3.5851872E-1,-4.9863264E-1,-7.21357E-2,2.9906586E-1,-3.1266677E-1,-1.3112853E-1,3.7626556E-1,2.2260757E-1,-2.520826E-1,1.6216618E-1,-3.3971116E-1,9.062279E-2,3.736269E-1,-4.676296E-1,-8.014574E-2,-1.108566E-1,3.0157557E-1,-4.9517044E-1,6.393673E-2,-5.0395393E-1,1.3856637E-1,4.5033824E-3,3.508823E-1,-4.9087405E-1,-6.1049912E-2,-4.5883596E-1,1.5884198E-1,3.7658605E-1,-7.5116865E-2,3.9987707E-1,-3.5162777E-1,-1.9406695E-2,-3.7979656E-1],"split_indices":[14,6,16,3,6,3,2,1,21,3,3,7,13,16,19,12,9,0,0,7,19,0,16,0,0,9,2,17,16,8,7,0,0,0,0,20,0,1,18,0,0,7,22,22,22,5,7,1,9,16,4,6,0,13,11,0,0,0,0,0,0,0,0,0,0,0,0,0,0,0,0,0,0,0,0,0,0,0,0,0,0,0,0,0,0,0,0,0,0],"split_type":[0,0,0,0,0,0,0,0,0,0,0,0,0,0,0,0,0,0,0,0,0,0,0,0,0,0,0,0,0,0,0,0,0,0,0,0,0,0,0,0,0,0,0,0,0,0,0,0,0,0,0,0,0,0,0,0,0,0,0,0,0,0,0,0,0,0,0,0,0,0,0,0,0,0,0,0,0,0,0,0,0,0,0,0,0,0,0,0,0],"sum_hessian":[1.511279E3,1.0706414E2,1.4042148E3,2.5793392E1,8.1270744E1,1.336276E2,1.2705873E3,1.0139024E1,1.5654369E1,4.596934E1,3.5301403E1,7.775807E0,1.2585178E2,1.2079119E3,6.267542E1,4.630242E0,5.5087814E0,1.0083159E0,1.4646053E1,2.502579E1,2.0943552E1,4.3854823E0,3.091592E1,6.6927233E0,1.0830836E0,1.0845683E2,1.7394958E1,6.89211E1,1.1389907E3,1.8606215E1,4.4069206E1,2.961522E0,1.6687199E0,1.0589193E0,4.449862E0,2.1567486E1,3.4583051E0,1.6919983E1,4.0235686E0,1.5155696E0,2.8699129E0,2.656532E1,4.3506017E0,5.850521E1,4.9951622E1,1.311844E1,4.2765183E0,3.6972187E1,3.1948912E1,1.948138E2,9.4417694E2,1.4126801E1,4.479414E0,3.861157E1,5.457638E0,9.741442E0,1.1826043E1,1.5240878E1,1.6791053E0,2.075523E0,1.9480458E0,1.2053556E0,2.5359962E1,1.7629459E0,2.5876558E0,4.5914036E1,1.2591173E1,1.7202543E1,3.2749077E1,5.787687E0,7.3307524E0,1.1830871E0,3.0934312E0,7.4930634E0,2.9479124E1,3.0156752E1,1.7921604E0,1.7037318E2,2.4440609E1,1.7709522E1,9.2646747E2,1.0895394E1,3.2314065E0,3.4707415E0,1.0086726E0,3.583686E1,2.7747066E0,1.9658911E0,3.4917467E0],"tree_param":{"num_deleted":"0","num_feature":"23","num_nodes":"89","size_leaf_vector":"0"}},{"base_weights":[-7.013387E-2,9.9101037E-1,-8.216509E-2,-1.3372371E0,1.6625949E0,1.7349893E-1,-1.3676117E-1,3.8654327E-1,1.7362868E0,2.5027516E-1,-7.4453616E-1,-1.8740025E-1,2.3007368E-1,3.056917E-1,-1.1623508E0,4.5831048E-1,-1.2590456E0,-2.3166579E-1,4.154433E-1,4.032148E-1,-5.4178816E-1,-3.6783004E-1,3.8423252E-1,-1.1658537E0,1.0523176E0,-1.7082638E-1,-1.5222242E0,-2.0044723E-1,-1.1153185E0,6.314446E-1,-1.0415956E0,6.4199513E-1,-3.6759087E-1,5.252454E-1,-1.2919601E0,2.2173026E-1,-1.4283526E0,8.2873356E-1,2.3348129E-1,-1.158686E0,6.371371E-1,-2.2481985E-1,1.1152176E0,-2.7490145E-1,-1.419933E0,8.7054056E-1,-3.6884633E-1,-1.3553013E0,7.645443E-1,7.863544E-1,-2.2048819E-1,2.976417E-1,-1.6403999E0,1.017658E0,-4.991659E-1,-1.5196214E0,5.406341E-1],"categories":[],"categories_nodes":[],"categories_segments":[],"categories_sizes":[],"default_left":[true,true,true,false,true,true,true,false,false,true,true,true,true,true,false,true,true,true,true,true,true,true,true,false,false,true,false,true,true,true,true,true,true,true,true,false,false,false,false,false,false,false,false,false,false,false,false,false,false,false,false,false,false,false,false,false,false],"id":6,"left_children":[1,3,5,-1,7,9,11,-1,-1,13,15,17,19,21,-1,23,25,27,29,31,33,35,37,-1,-1,39,-1,41,43,45,47,49,51,53,55,-1,-1,-1,-1,-1,-1,-1,-1,-1,-1,-1,-1,-1,-1,-1,-1,-1,-1,-1,-1,-1,-1],"loss_changes":[1.8969202E1,2.8276754E1,2.0455477E1,0E0,5.8683395E-1,1.8372404E1,2.2460026E1,0E0,0E0,1.9053556E1,1.3056465E1,2.8407337E1,1.9840555E1,1.2341431E1,0E0,7.7624993E0,3.8612976E0,2.7059292E1,2.3610685E1,2.2414213E1,2.2553492E1,1.5695484E1,1.3679644E1,0E0,0E0,3.8740783E0,0E0,3.0921043E1,8.193169E0,1.5660599E1,6.585044E0,1.1673325E1,2.515767E1,6.5573344E0,7.6369324E0,0E0,0E0,0E0,0E0,0E0,0E0,0E0,0E0,0E0,0E0,0E0,0E0,0E0,0E0,0E0,0E0,0E0,0E0,0E0,0E0,0E0,0E0],"parents":[2147483647,0,0,1,1,2,2,4,4,5,5,6,6,9,9,10,10,11,11,12,12,13,13,15,15,16,16,17,17,18,18,19,19,20,20,21,21,22,22,25,25,27,27,28,28,29,29,30,30,31,31,32,32,33,33,34,34],"right_children":[2,4,6,-1,8,10,12,-1,-1,14,16,18,20,22,-1,24,26,28,30,32,34,36,38,-1,-1,40,-1,42,44,46,48,50,52,54,56,-1,-1,-1,-1,-1,-1,-1,-1,-1,-1,-1,-1,-1,-1,-1,-1,-1,-1,-1,-1,-1,-1],"split_conditions":[-3.1074219E0,1.4266379E2,3.855021E1,-4.0117115E-1,5.840845E1,1.0937681E2,4.2478375E2,1.1596299E-1,5.2088606E-1,9.1974976E1,4.9156624E1,1.8210449E0,3.0110228E0,2.4317446E1,-3.4870523E-1,1.68345E2,-1.2872314E0,1.4029541E0,1.2546387E0,1.3438721E0,5.4843674E1,2.550489E1,-2.1447754E0,-3.4975612E-1,3.156953E-1,6.3982063E1,-4.5666727E-1,1.3746338E0,-2.385254E0,5.726609E1,4.005104E0,1.6703658E2,-1.42418E0,-4.0432477E-1,2.5786133E0,6.651908E-2,-4.285058E-1,2.4862008E-1,7.004439E-2,-3.4760582E-1,1.9114114E-1,-6.7445956E-2,3.3456528E-1,-8.247044E-2,-4.259799E-1,2.611622E-1,-1.106539E-1,-4.065904E-1,2.293633E-1,2.3590633E-1,-6.614646E-2,8.929251E-2,-4.9212E-1,3.052974E-1,-1.4974977E-1,-4.5588642E-1,1.6219023E-1],"split_indices":[5,11,21,0,0,13,22,0,0,7,20,16,18,0,0,11,1,16,17,2,13,21,5,0,0,7,0,16,2,3,6,7,8,14,2,0,0,0,0,0,0,0,0,0,0,0,0,0,0,0,0,0,0,0,0,0,0],"split_type":[0,0,0,0,0,0,0,0,0,0,0,0,0,0,0,0,0,0,0,0,0,0,0,0,0,0,0,0,0,0,0,0,0,0,0,0,0,0,0,0,0,0,0,0,0,0,0,0,0,0,0,0,0,0,0,0,0],"sum_hessian":[1.4784376E3,1.5662332E1,1.4627754E3,3.2844927E0,1.2377839E1,2.5701953E2,1.2057557E3,1.0167725E0,1.1361067E1,2.3785487E2,1.9164675E1,1.059929E3,1.4582689E2,2.296302E2,8.224666E0,5.7743435E0,1.339033E1,9.87998E2,7.193091E1,1.1949895E2,2.632795E1,2.359652E1,2.0603368E2,1.2885184E0,4.485825E0,2.9288588E0,1.0461472E1,9.5546906E2,3.2528915E1,6.313759E1,8.793316E0,9.1363464E1,2.8135477E1,1.0992382E1,1.5335567E1,1.5674021E1,7.922498E0,5.1040295E1,1.549934E2,1.1224315E0,1.8064272E0,9.38905E2,1.656404E1,9.15983E0,2.3369085E1,5.1062107E1,1.2075483E1,7.7047114E0,1.0886049E0,7.833955E1,1.3023918E1,1.898115E1,9.154328E0,7.4283333E0,3.5640488E0,1.3792874E1,1.5426929E0],"tree_param":{"num_deleted":"0","num_feature":"23","num_nodes":"57","size_leaf_vector":"0"}},{"base_weights":[-5.1524278E-2,-1.1359433E0,-4.138281E-2,-1.2828711E0,3.2614005E-1,-2.3439279E-2,-6.5756816E-1,-1.4595464E0,-1.9561008E-1,6.0624238E-2,-1.4878833E-1,-8.2803804E-1,8.3443E-1,1.2049441E-1,-3.815588E-1,4.3824303E-1,-2.726045E-1,-7.009107E-3,-1.3652542E0,1.2215637E0,-2.7655986E-1,2.9045906E-2,5.652911E-1,1.4793361E0,-6.1752015E-1,6.934784E-1,-4.3994373E-1,-4.7167715E-1,1.600671E-2,-5.311466E-1,7.5310147E-1,-8.486676E-1,6.954183E-2,2.9378545E-1,9.5919436E-1,-8.261001E-3,1.7067451E0,4.7813693E-1,-8.520971E-1,7.726163E-1,-1.3208961E0,-1.0830595E0,5.19134E-1,-5.016795E-1,1.8298696E0,-1.1272925E0,1.6464704E-1,4.0692082E-1,-9.028241E-1,1.2095175E0,-8.2989E-1],"categories":[],"categories_nodes":[],"categories_segments":[],"categories_sizes":[],"default_left":[true,true,true,true,false,true,true,false,false,true,true,true,true,true,true,true,true,true,false,false,false,true,true,true,true,true,true,true,true,true,true,false,false,false,false,false,false,false,false,false,false,false,false,false,false,false,false,false,false,false,false],"id":7,"left_children":[1,3,5,7,-1,9,11,-1,-1,13,15,17,19,21,23,25,27,29,-1,-1,-1,31,33,35,37,39,41,43,45,47,49,-1,-1,-1,-1,-1,-1,-1,-1,-1,-1,-1,-1,-1,-1,-1,-1,-1,-1,-1,-1],"loss_changes":[1.5852118E1,3.287756E0,1.5832294E1,2.0849133E0,0E0,1.46960125E1,1.0997114E1,0E0,0E0,2.2151707E1,4.0808033E1,1.6251806E1,2.3391514E0,2.9929062E1,4.4742485E1,2.2246632E1,2.6603909E1,6.610017E0,0E0,0E0,0E0,2.1801268E1,1.3139282E1,3.9135494E0,2.3356052E1,1.3173347E1,1.4536276E1,1.9837029E1,3.2461952E1,3.7884462E0,5.898858E0,0E0,0E0,0E0,0E0,0E0,0E0,0E0,0E0,0E0,0E0,0E0,0E0,0E0,0E0,0E0,0E0,0E0,0E0,0E0,0E0],"parents":[2147483647,0,0,1,1,2,2,3,3,5,5,6,6,9,9,10,10,11,11,12,12,13,13,14,14,15,15,16,16,17,17,21,21,22,22,23,23,24,24,25,25,26,26,27,27,28,28,29,29,30,30],"right_children":[2,4,6,8,-1,10,12,-1,-1,14,16,18,20,22,24,26,28,30,-1,-1,-1,32,34,36,38,40,42,44,46,48,50,-1,-1,-1,-1,-1,-1,-1,-1,-1,-1,-1,-1,-1,-1,-1,-1,-1,-1,-1,-1],"split_conditions":[5.2389633E1,1.5464343E2,2.8459473E0,2.0040283E0,9.7842015E-2,3.9979095E1,2.586706E0,-4.3786395E-1,-5.8683027E-2,1.696167E0,-1.9872724E0,4.1781128E1,2.7807994E0,1.0435791E0,2.1233736E1,-4.2507935E-1,9.235729E-1,2.8843327E1,-4.0957627E-1,3.6646912E-1,-8.296796E-2,-1.9093018E0,9.208374E-1,8.7935455E1,-1.950063E0,2.4345703E0,5.4752637E2,2.7980957E0,-1.4013672E0,2.452446E1,6.66384E1,-2.546003E-1,2.086255E-2,8.813564E-2,2.8775832E-1,-2.4783004E-3,5.1202357E-1,1.4344108E-1,-2.5562915E-1,2.3178491E-1,-3.9626887E-1,-3.2491788E-1,1.557402E-1,-1.5050384E-1,5.489609E-1,-3.3818775E-1,4.9394116E-2,1.2207625E-1,-2.7084723E-1,3.6285526E-1,-2.48967E-1],"split_indices":[11,13,5,5,0,15,8,0,0,5,8,21,8,5,0,16,9,21,0,0,0,1,1,11,8,17,20,5,2,15,13,0,0,0,0,0,0,0,0,0,0,0,0,0,0,0,0,0,0,0,0],"split_type":[0,0,0,0,0,0,0,0,0,0,0,0,0,0,0,0,0,0,0,0,0,0,0,0,0,0,0,0,0,0,0,0,0,0,0,0,0,0,0,0,0,0,0,0,0,0,0,0,0,0,0],"sum_hessian":[1.4446903E3,1.23569975E1,1.4323334E3,1.1339991E1,1.0170066E0,1.3928123E3,3.952113E1,9.460321E0,1.8796687E0,8.340111E2,5.588011E2,3.5868008E1,3.653124E0,7.351955E2,9.881562E1,9.689023E1,4.6191086E2,1.4587277E1,2.1280727E1,2.6353035E0,1.0178207E0,6.107027E2,1.24492836E2,1.052685E1,8.828877E1,7.5234474E1,2.1655748E1,2.7298337E2,1.889275E2,8.812089E0,5.775189E0,2.6053747E1,5.846489E2,7.472972E1,4.9763115E1,1.5236379E0,9.003212E0,1.5385978E1,7.2902794E1,7.298364E1,2.2508316E0,1.2885811E1,8.769937E0,2.7024258E2,2.7407806E0,2.0978994E1,1.679485E2,2.473773E0,6.338316E0,4.66584E0,1.1093489E0],"tree_param":{"num_deleted":"0","num_feature":"23","num_nodes":"51","size_leaf_vector":"0"}},{"base_weights":[-3.788163E-2,1.1592467E0,-4.674507E-2,-2.830756E-1,1.3498662E0,-1.3700472E-1,7.426882E-2,-2.5419763E-1,1.02381505E-1,-1.934412E-1,2.6211122E-1,-6.902268E-2,-5.396251E-1,4.415141E-1,-1.6064121E-1,-3.1166041E-2,-9.437343E-1,3.343681E-1,-5.72104E-1,-6.103141E-1,5.4395493E-2,4.996946E-2,-8.099971E-1,-6.962961E-2,7.1848714E-1,-8.1482804E-1,1.952013E-1,2.1184632E-1,-4.7730112E-1,2.3605412E-1,-1.1576334E0,-9.943403E-1,3.7525097E-1,-1.1431589E0,3.142119E-1,-1.3773915E0,2.664856E-2,1.0264301E-1,-1.5134861E0,3.3346674E-1,-1.3523333E0,-9.4342285E-1,4.8484814E-1,2.4650194E-1,-9.7492325E-1,8.473434E-1,-9.6252793E-1,-1.0980966E0,7.421722E-1,6.610565E-1,-4.1731834E-1,3.5343835E-1,-7.6491946E-1,-1.0611038E0,-2.9994756E-2,-1.2214626E0,8.9030904E-1,-1.293139E0,4.8620814E-1,5.946516E-1,-1.2989849E0,-8.2421386E-1,4.1561532E-1,3.1459853E-1,-1.252374E0,-1.114588E0,1.0386196E0],"categories":[],"categories_nodes":[],"categories_segments":[],"categories_sizes":[],"default_left":[true,true,true,false,false,true,true,true,true,true,true,true,true,true,true,true,true,true,true,true,true,true,true,true,true,true,true,true,true,true,true,true,true,true,true,false,false,false,false,false,false,false,false,false,false,false,false,false,false,false,false,false,false,false,false,false,false,false,false,false,false,false,false,false,false,false,false],"id":8,"left_children":[1,3,5,-1,-1,7,9,11,13,15,17,19,21,23,25,27,29,31,33,35,37,39,41,43,45,47,49,51,53,55,57,59,61,63,65,-1,-1,-1,-1,-1,-1,-1,-1,-1,-1,-1,-1,-1,-1,-1,-1,-1,-1,-1,-1,-1,-1,-1,-1,-1,-1,-1,-1,-1,-1,-1,-1],"loss_changes":[1.5074646E1,3.2531776E0,1.5369161E1,0E0,0E0,2.2631512E1,3.02926E1,2.8569271E1,2.3756779E1,3.0232449E1,2.1519573E1,2.2039814E1,3.3966354E1,1.650849E1,3.514318E1,2.2368292E1,1.1418175E1,1.8096008E1,1.482134E1,2.9961004E1,2.0517067E1,2.7425718E1,2.567585E1,1.2193878E1,1.7166687E1,2.4252117E1,2.8280819E1,1.875496E1,1.8961334E1,8.343053E0,8.994053E0,5.619499E0,1.5702244E1,3.1949615E0,1.3558048E1,0E0,0E0,0E0,0E0,0E0,0E0,0E0,0E0,0E0,0E0,0E0,0E0,0E0,0E0,0E0,0E0,0E0,0E0,0E0,0E0,0E0,0E0,0E0,0E0,0E0,0E0,0E0,0E0,0E0,0E0,0E0,0E0],"parents":[2147483647,0,0,1,1,2,2,5,5,6,6,7,7,8,8,9,9,10,10,11,11,12,12,13,13,14,14,15,15,16,16,17,17,18,18,19,19,20,20,21,21,22,22,23,23,24,24,25,25,26,26,27,27,28,28,29,29,30,30,31,31,32,32,33,33,34,34],"right_children":[2,4,6,-1,-1,8,10,12,14,16,18,20,22,24,26,28,30,32,34,36,38,40,42,44,46,48,50,52,54,56,58,60,62,64,66,-1,-1,-1,-1,-1,-1,-1,-1,-1,-1,-1,-1,-1,-1,-1,-1,-1,-1,-1,-1,-1,-1,-1,-1,-1,-1,-1,-1,-1,-1,-1,-1],"split_conditions":[5.278474E-1,1.7100778E2,2.6078453E0,-8.4922686E-2,4.0495986E-1,7.116089E-1,-2.0868152E-1,-2.9455566E-1,7.700379E1,-9.0550673E-1,1.1279297E0,5.444684E1,-1.9022958E0,5.2607033E1,2.4412618E0,-4.5791626E-2,7.65141E-1,2.0915897E1,1.0755719E2,-1.2248008E0,2.6879883E0,7.4359894E-1,1.5872662E2,9.747925E-1,2.168213E0,2.0100098E0,2.8956122E0,9.580078E-1,1.5260216E0,1.02719666E2,3.324683E0,3.366521E1,-2.9047852E0,6.213061E-1,-2.781067E-1,-4.1321746E-1,7.994569E-3,3.0792905E-2,-4.5404586E-1,1.00040026E-1,-4.057E-1,-2.8302687E-1,1.4545445E-1,7.395058E-2,-2.9247698E-1,2.5420302E-1,-2.887584E-1,-3.29429E-1,2.2265166E-1,1.9831696E-1,-1.251955E-1,1.0603151E-1,-2.2947584E-1,-3.1833115E-1,-8.998428E-3,-3.664388E-1,2.6709273E-1,-3.8794172E-1,1.4586245E-1,1.7839548E-1,-3.896955E-1,-2.4726416E-1,1.246846E-1,9.437957E-2,-3.7571225E-1,-3.3437642E-1,3.115859E-1],"split_indices":[6,11,6,0,0,4,14,1,20,14,16,12,9,20,18,4,18,15,21,8,17,8,7,1,5,16,18,16,8,20,18,7,2,18,17,0,0,0,0,0,0,0,0,0,0,0,0,0,0,0,0,0,0,0,0,0,0,0,0,0,0,0,0,0,0,0,0],"split_type":[0,0,0,0,0,0,0,0,0,0,0,0,0,0,0,0,0,0,0,0,0,0,0,0,0,0,0,0,0,0,0,0,0,0,0,0,0,0,0,0,0,0,0,0,0,0,0,0,0,0,0,0,0,0,0,0,0,0,0,0,0,0,0,0,0,0,0],"sum_hessian":[1.4145994E3,9.442707E0,1.4051566E3,1.0456634E0,8.397043E0,8.047741E2,6.003825E2,5.402364E2,2.6453775E2,2.4754932E2,3.528332E2,3.284147E2,2.1182169E2,1.1525423E2,1.4928351E2,2.0438582E2,4.3163506E1,3.252595E2,2.7573689E1,6.024503E1,2.6816968E2,6.685266E1,1.4496902E2,4.0767635E1,7.448659E1,5.2139507E1,9.7144005E1,1.3265372E2,7.173209E1,6.608713E0,3.6554794E1,9.012971E0,3.1624652E2,1.6593E1,1.0980689E1,2.6803658E1,3.3441372E1,2.6107043E2,7.099237E0,5.624422E1,1.0608442E1,1.316724E2,1.3296618E1,3.0755444E1,1.0012193E1,6.964404E1,4.8425484E0,4.4363155E1,7.776354E0,5.513303E1,4.2010975E1,1.16416176E2,1.623754E1,3.0522888E1,4.120921E1,1.7788739E0,4.829839E0,3.396807E1,2.5867214E0,1.296841E0,7.7161303E0,9.663618E0,3.0658292E2,1.0254309E0,1.5567569E1,3.513045E0,7.4676437E0],"tree_param":{"num_deleted":"0","num_feature":"23","num_nodes":"67","size_leaf_vector":"0"}},{"base_weights":[-3.1964604E-2,-4.1703E-2,9.602408E-1,-2.9526088E-2,-1.0858972E0,-2.0496623E-1,1.3631442E0,3.591162E-1,-5.784257E-2,-2.6527083E-2,-1.5092828E0,-1.0134991E0,8.5952353E-1,6.440159E-1,1.5035461E0,6.024221E-1,-7.785861E-2,5.465119E-3,-2.4851894E-1,9.0771E-1,-5.7863164E-1,9.3558766E-2,8.457551E-1,-6.3381225E-1,6.350526E-1,1.5818337E-1,-1.366702E-1,-7.0361304E-1,-3.605301E-2,-1.09358214E-1,-9.2298436E-1,9.3982905E-1,-6.3741547E-1,9.3845314E-1,-8.4819E-1,-1.1330085E0,5.7680744E-1,1.0272384E0,-2.0749184E-1,2.0335364E-1,-6.6506356E-1,1.2649149E-1,-3.298702E-1,-9.240902E-1,-7.3602796E-2,-1.733055E-1,7.5959855E-1],"categories":[],"categories_nodes":[],"categories_segments":[],"categories_sizes":[],"default_left":[true,true,true,true,true,true,true,true,true,true,false,false,false,false,false,true,true,true,true,false,true,true,true,true,true,true,true,true,true,false,false,false,false,false,false,false,false,false,false,false,false,false,false,false,false,false,false],"id":9,"left_children":[1,3,5,7,9,11,13,15,17,19,-1,-1,-1,-1,-1,21,23,25,27,-1,29,31,33,35,37,39,41,43,45,-1,-1,-1,-1,-1,-1,-1,-1,-1,-1,-1,-1,-1,-1,-1,-1,-1,-1],"loss_changes":[1.327479E1,1.7226711E1,6.5488615E0,1.4797495E1,6.965145E0,4.572483E0,4.6806335E-2,9.756569E0,1.5119481E1,3.3505335E0,0E0,0E0,0E0,0E0,0E0,7.1988735E0,1.3699431E1,2.0452147E1,3.0161285E1,0E0,5.541091E-1,1.305687E1,7.0202637E0,1.2347373E1,5.2353883E0,1.7024426E1,2.4854683E1,1.3726246E1,2.3489012E1,0E0,0E0,0E0,0E0,0E0,0E0,0E0,0E0,0E0,0E0,0E0,0E0,0E0,0E0,0E0,0E0,0E0,0E0],"parents":[2147483647,0,0,1,1,2,2,3,3,4,4,5,5,6,6,7,7,8,8,9,9,15,15,16,16,17,17,18,18,20,20,21,21,22,22,23,23,24,24,25,25,26,26,27,27,28,28],"right_children":[2,4,6,8,10,12,14,16,18,20,-1,-1,-1,-1,-1,22,24,26,28,-1,30,32,34,36,38,40,42,44,46,-1,-1,-1,-1,-1,-1,-1,-1,-1,-1,-1,-1,-1,-1,-1,-1,-1,-1],"split_conditions":[2.934488E2,2.9655066E2,4.8828125E-1,-2.806315E0,-1.9104004E0,1.3028564E0,8.7792465E1,5.621119E1,8.845602E1,2.0225217E2,-4.5278487E-1,-3.0404976E-1,2.5785708E-1,1.9320478E-1,4.5106384E-1,8.3927E1,1.7459717E0,-2.9074097E-1,6.2203335E1,2.7231303E-1,3.0600403E2,1.4978659E0,9.45199E1,3.6753577E2,-1.0874634E0,2.6550293E0,5.6966766E1,1.8043213E0,1.6190186E0,-3.2807466E-2,-2.768953E-1,2.8194872E-1,-1.9122465E-1,2.8153595E-1,-2.5445703E-1,-3.3990255E-1,1.7304224E-1,3.081715E-1,-6.2247556E-2,6.1006095E-2,-1.9951908E-1,3.7947446E-2,-9.896106E-2,-2.7722707E-1,-2.2080839E-2,-5.1991653E-2,2.2787957E-1],"split_indices":[3,11,17,14,16,1,13,0,13,0,0,0,0,0,0,20,17,1,7,0,11,18,15,22,4,2,21,17,1,0,0,0,0,0,0,0,0,0,0,0,0,0,0,0,0,0,0],"split_type":[0,0,0,0,0,0,0,0,0,0,0,0,0,0,0,0,0,0,0,0,0,0,0,0,0,0,0,0,0,0,0,0,0,0,0,0,0,0,0,0,0,0,0,0,0,0,0],"sum_hessian":[1.3687031E3,1.3563486E3,1.2354462E1,1.3417303E3,1.4618367E1,3.3005276E0,9.053934E0,9.032616E1,1.2514042E3,4.4775543E0,1.0140813E1,1.9030033E0,1.3975241E0,2.391548E0,6.662386E0,5.777734E1,3.254882E1,9.402102E2,3.111939E2,1.4239476E0,3.0536067E0,1.9138655E1,3.8638683E1,1.8349882E1,1.4198939E1,4.531776E2,4.8703262E2,9.83087E1,2.1288521E2,1.8500249E0,1.2035817E0,8.737395E0,1.0401259E1,3.7056812E1,1.5818702E0,1.3037859E1,5.3120227E0,9.539368E0,4.659572E0,4.303196E2,2.2857985E1,2.0633066E2,2.8070197E2,7.2477745E1,2.5830956E1,1.8223181E2,3.0653399E1],"tree_param":{"num_deleted":"0","num_feature":"23","num_nodes":"47","size_leaf_vector":"0"}}]},"name":"gbtree"},"learner_model_param":{"base_score":"5E-1","num_class":"0","num_feature":"23"},"objective":{"name":"binary:logitraw","reg_loss_param":{"scale_pos_weight":"0.457368433"}}},"version":[1,5,1]}